19 100
. -0.0065767 0.0044126 -0.0057959 -0.0038564 -0.0010005 0.0030597 0.0014148 -0.0022882 0.0086694 0.0065827 -0.0030316 0.0056518 0.0065509 0.0078967 -0.0023943 -0.00010579 0.0026683 -0.0010264 0.0045079 -0.0082562 -0.0041945 0.0062589 0.0050902 0.00038708 0.00047506 0.0012077 0.00024215 0.00065615 -0.0020962 0.0072009 0.00055631 -0.0030016 -0.00025523 0.00036363 -0.0028712 0.0019534 0.0028237 -5.6038e-06 -0.0026362 -0.00287 0.0031207 0.00063832 -0.0027041 0.0052845 -0.0050962 -0.0014002 0.0015183 0.0018463 -0.0061883 0.00045319 -0.0075138 0.00053889 -0.0089329 0.0042157 -0.0030944 -0.0012026 0.0054025 -0.0026993 -0.00035385 0.0006403 -0.0020496 -0.00037189 0.00026343 0.0042402 0.0028174 -0.0018071 -0.0062251 0.0044291 0.0021746 0.0074981 -0.0038292 -0.0036137 0.00066426 -0.0013479 -0.0004861 -0.0029332 0.0092977 0.0073018 -0.00067765 0.0013427 -0.00022879 0.00076611 0.00055341 -0.0043396 -0.0018751 -0.0035517 -0.0042303 0.00033975 -0.0049889 -0.0017893 0.0093473 0.0024886 0.0064654 -0.0041025 -0.001148 -0.0013571 0.0031325 0.0023865 -0.0042324 0.00241 
</s> 0.0023809 0.0050911 0.0083198 -0.0092702 0.0066115 0.0080729 -0.0064802 0.0013357 -0.0034364 -0.0021086 -0.00070896 -0.0063346 -0.00485 0.002211 -0.0060699 -0.0071741 0.0033869 0.0060367 -0.0068821 -0.00057144 -0.0048854 0.0098796 0.0039752 0.006947 -0.0086124 -0.0061643 -0.0098371 -0.0012069 -0.0022077 -0.0072869 -0.0050154 -0.00077216 0.0039678 -0.0058629 -0.0063548 -0.0021121 -0.0071508 0.004313 -0.00053761 -0.0027656 -0.0099938 0.0094422 -0.0051481 0.0030856 0.008804 0.0019251 0.0080772 -0.0033694 -0.0039191 0.003508 -0.0010043 -0.0018194 0.0023661 0.0048901 -0.0090531 0.0035207 -0.009636 0.0006935 0.0087635 -0.0024391 -0.00015379 0.003515 0.0056838 0.0078736 0.0045424 -0.0035697 -0.0070953 -0.0052563 -0.0057615 -0.0056899 0.0015635 0.0050563 0.0058047 -0.0073312 -0.0023909 -0.002529 -0.0039096 0.002896 0.0064536 0.0056558 0.00048762 -0.0058168 0.0026805 0.0027913 0.0047789 0.0036071 -0.0020119 -0.0098583 -0.004743 0.007278 0.002884 0.0024876 0.0025207 0.0017913 0.0093301 0.0023093 -0.0006344 0.0024203 -0.0068241 -0.0071501 
Football 0.001427 0.00081327 0.00012103 -0.00012845 0.00021342 0.0027102 -0.0015692 -6.3595e-05 -0.00016692 0.00033981 -0.00014878 -0.00018457 -0.00030157 -0.00209 0.0005331 -0.00095633 -0.0010109 -0.00062192 -6.1757e-05 0.0016613 -0.0006452 -0.0026675 0.000226 -0.00067597 -0.00063842 -0.0026248 0.00077026 -0.00081658 0.00013863 -0.00033535 0.00037904 -0.0013165 -0.00103 0.001778 -0.00058368 -0.00061292 0.00062997 0.00070228 0.00061168 -0.0011882 -0.001433 2.5135e-05 -0.002404 0.00081014 -0.00016428 -0.00092925 0.0007987 0.00057885 0.00075126 -0.00071551 0.00037278 -0.0014894 -0.00015682 0.00064203 -0.00012721 -0.00050366 -0.001251 0.0006313 -0.0011954 0.00013897 0.0016022 -0.00029959 0.00089712 -0.00055721 -0.00022701 0.00078402 -0.0017223 0.00079352 -0.00026956 -0.00050579 0.0024612 0.0034999 0.0020559 0.00090856 -0.0021817 -0.00050744 0.0007422 0.001276 0.0011137 -0.00072101 0.00071621 -0.001057 0.00048724 0.00086549 -0.0023168 0.00035987 0.00056094 0.00049582 -0.0011915 0.0026829 2.3632e-05 -0.00040866 0.0018545 -0.0021344 0.00084868 0.00051896 -0.00047957 0.00041777 -0.0012154 0.0022404 
I -0.0020727 0.0036955 -0.00098141 -0.0051595 0.0042832 0.0066075 -0.0053334 -0.0013005 0.003572 0.007418 0.0021648 0.0088158 -0.0075117 0.0003088 0.0063162 -0.005374 -0.0038051 -0.0019871 0.0013679 -0.001242 0.0085825 0.002107 0.00085251 -0.0031582 -0.0031199 0.0049013 0.0071646 0.0036792 -0.0060673 0.0024944 0.0051074 0.0075387 -0.0031029 0.0087876 0.00062591 0.0045999 0.0056267 0.00095821 -0.0043992 -0.0025509 -0.00065864 0.0034864 -0.0055275 -0.0043037 0.0033418 -0.0024705 0.0048395 0.0014653 0.0025417 0.0031679 -0.0080302 -0.00040718 -0.00059326 -0.0048938 0.00082178 -0.00053832 0.0048022 -0.0012693 0.0071041 -0.00076396 -0.0089679 0.0039921 0.003881 -0.0028154 0.00015083 -0.0018263 -0.0005114 8.7247e-05 0.0033069 -0.0061895 0.0045335 -0.0016273 -0.0016437 0.00079461 -0.0026877 -0.00031233 -0.0020329 0.0071555 0.0035674 -0.0011876 0.0021669 0.0043561 0.0025857 -0.0012261 0.0088977 -0.0029619 0.0035502 0.0065686 -0.0084834 -0.0029705 -0.0039259 -0.0016364 -0.0011121 0.0053516 -0.005553 -0.0068353 -0.00080509 0.0015186 0.003343 0.002883 
enjoy -0.00021389 0.00080471 0.00077645 -9.9311e-06 0.00034449 -0.0011757 -0.0016746 0.0015641 0.00027047 0.0004921 0.00023443 0.0002217 -0.00033676 0.0015076 -0.0023427 -0.00087602 0.0044647 -0.0017111 -0.0011871 -0.0015807 -0.00040624 -0.0013109 -0.0019167 -2.0331e-05 0.0013117 -0.00089788 -0.0012865 0.0001137 -4.9061e-05 0.0017341 -0.00057399 -0.0036642 0.0034174 0.00013528 -0.00066345 -0.0023728 -0.00051691 0.00085935 -0.0013736 -0.0026525 -0.0016536 -0.0011964 0.0022754 -0.00046686 4.4226e-05 -5.3524e-05 0.00098688 0.00029403 -0.0014638 -0.0022409 0.001348 -0.0011213 -0.00098383 0.00097164 0.00026177 -9.7061e-05 -0.0036254 0.0019154 -0.001343 0.0023779 0.002305 0.0025428 0.00061891 0.00052826 0.0011138 -0.00053942 1.6275e-05 -0.0011973 -0.00053039 -0.0026452 -0.00080974 0.001322 0.00033619 0.0019936 -0.00063322 -0.00065617 -0.00071142 0.0013318 -0.0010375 -0.0012962 -0.001024 0.0021808 0.00096801 0.0015295 -0.00024053 -0.00080005 0.0012737 0.0016635 -0.00060643 0.0026796 0.0017537 0.0008446 0.0055486 -0.00055438 -0.00071533 0.00209 0.0015448 -0.001462 0.00056876 -0.0016455 
playing 0.0028779 0.00030827 0.0017804 0.0018201 0.0016908 -0.00070773 -0.00080185 9.7223e-05 -2.7529e-05 -0.00037612 -0.00075103 0.0013945 -0.0004476 -0.0012023 -0.0018564 0.0021148 -0.001959 0.0018322 0.00083391 -0.0017608 -0.00056883 -0.00077115 0.00023558 0.00049955 -0.0013896 -0.0015026 0.0025598 0.0013705 0.0011902 0.001081 -0.00012273 -0.0011371 0.0010578 0.0017947 5.7251e-05 0.00085553 -0.0014969 -0.0021084 -0.0020635 -0.00042404 -9.5687e-05 0.0027698 -0.00060736 0.00044347 -0.00020683 -0.0015561 0.0023439 -0.00030244 0.0025977 -0.0008351 -0.00081408 -0.001473 0.00065191 0.0019594 0.0015252 -0.00098083 5.6672e-05 0.00023013 0.0014584 -0.00016748 0.0013333 0.00095526 -9.5055e-05 0.00031461 0.0002915 1.9936e-05 3.3194e-05 0.0010584 0.00016788 0.00072246 -0.00039991 0.0020464 0.00070126 -0.0012371 -0.0011153 -0.00044752 0.00058458 -0.00057814 0.0024717 -0.0014712 0.0013311 -0.00080288 1.9864e-05 0.0020494 9.1231e-05 4.9226e-05 0.00071612 0.0022799 -0.00054502 0.0011373 -0.00014032 -0.0013555 -0.00088565 0.00081954 0.0016658 -0.00047713 -0.0016876 -0.0010269 -0.00040983 -0.00078588 
soccer 0.0018723 0.00092891 0.0022377 0.00060455 -0.00045072 0.0010001 -0.002724 0.00029072 0.00057306 -0.0014345 0.00059248 0.0028994 0.00097453 0.001589 -0.0043052 0.0017446 0.0010471 -0.00034227 -0.0013105 0.0004947 0.00036456 0.00023318 -0.00088272 -0.0014005 -0.001185 0.0018196 -0.0014474 -0.00013216 0.00023315 0.0017416 -0.0023012 -0.0022115 -0.00048534 -0.00017439 0.00083214 -0.00028816 0.00023093 -0.0015725 -0.001856 -0.00057809 -0.00077986 0.00020785 0.00010188 -0.0029732 0.0027018 -0.0010331 0.0019701 0.00048806 0.0011337 -0.0021067 0.0014862 -0.00032933 0.00014039 0.0013356 0.0010838 -0.00060666 -0.0026633 0.0017834 0.00069109 0.00010135 0.0018652 0.0017022 -0.00060957 -0.00023033 -0.0032077 -0.0011434 0.0011034 -5.5304e-05 0.0014207 -0.00050941 0.00032704 0.0012746 -0.002988 -0.00017336 0.0013269 -0.00094158 0.0015325 -0.0007253 -0.0023676 -0.0012644 0.001594 0.0003313 0.00073049 0.0005363 -3.6944e-05 0.001299 1.445e-05 0.0017125 0.00026561 -0.0010965 -0.00011801 -0.0005444 0.00091657 -0.0025155 0.0010023 -0.00042393 0.00020781 0.0017174 0.0025799 -0.00041424 
games -0.00050056 -0.0028099 -0.00033082 -0.0019895 0.0024162 -2.9071e-05 -0.0019019 -0.0011614 -0.00069417 -0.0022988 0.0015097 0.0020431 0.0018068 0.0037459 -0.0019287 -0.0026415 -0.00026178 -0.0034688 -0.0018972 -0.0032384 -0.00030076 -3.4568e-05 0.0015346 0.0019382 -0.0024425 -0.0010118 -0.0053089 -0.0010909 0.00033799 0.0037194 0.00033481 -0.0023539 -7.0604e-05 0.0033795 -0.0028453 3.7645e-05 -0.0011047 -0.00013251 -0.00096303 0.00016486 0.0024748 6.2991e-05 -0.0020536 0.0022174 0.0027888 -0.0020704 0.0016246 0.00027178 0.0011725 -0.00014243 -0.0026359 -0.0022471 -0.0025575 0.0028694 -0.0013991 0.0021853 0.0026211 -9.1346e-05 0.0011486 -0.0010374 0.0012662 -0.00067694 0.00085806 0.0015926 0.00034772 0.00036303 0.0024266 -3.7024e-05 -0.0026007 0.00096427 -0.002481 -0.0007356 -0.0013473 3.438e-06 -0.00080955 0.0024502 -0.00076136 0.0012501 -0.00046167 0.0013328 0.0029203 -0.0016463 0.0021033 -0.00010042 -0.0020853 0.00059321 -0.00052809 0.0011223 -0.0014643 -0.0012043 0.0015033 -0.0002248 -0.00012134 -0.0032139 -0.00013824 -0.00013177 -0.0020674 0.00077823 0.0037961 0.0015683 
usually -0.00025965 0.00038575 -0.00032901 -0.0013684 9.0619e-05 -0.0013272 -0.0032312 0.0029177 -0.00018775 -0.0011561 -0.0016309 0.00065079 -0.00026678 0.00066342 -0.0027212 -0.00093196 0.00042705 -0.00066986 -0.00099388 -0.0014511 -0.0032164 -0.0011195 0.0029014 -0.0001467 -0.0023197 -0.0015386 -0.0013136 5.3435e-05 0.00068767 0.0012423 0.00038007 0.0015447 -0.0022855 0.0020834 -0.0013377 0.0003161 0.0013043 0.00084987 -0.0034455 -0.00077821 -0.002879 -0.0037568 -0.00025572 -0.00033537 0.0028079 0.00021703 0.00071704 0.001731 0.00042325 -0.00045878 -0.0014363 -0.0014636 -0.0013768 0.0015988 0.00088072 0.00051722 -0.0016385 0.0021367 -0.00028064 -0.00047549 0.0020512 -0.00058357 0.0013907 -7.3332e-05 0.0030381 -0.00067619 -0.00063344 0.00075019 -0.0015991 -0.00087552 0.0021889 -0.0008693 -0.00091072 0.0029586 -0.0015901 0.0014993 7.919e-05 -0.00099469 -0.0013639 -0.0019994 -0.0016414 0.0014099 0.001306 -0.00023976 -0.00070228 0.00027348 0.00075645 0.0012562 -0.0023755 0.00067454 0.0016677 -0.0023949 0.0019068 0.00085966 -0.0016763 -8.7458e-05 -0.0016223 0.002457 -0.00093075 8.3594e-06 
take -0.0021877 0.00054118 -5.9971e-05 -0.00015771 -0.000707 0.0018087 0.0013042 0.0035948 -0.00021215 9.8554e-05 -0.00092522 0.0016981 -0.0014735 -0.0028542 0.0015382 4.0881e-05 -0.0019156 -0.0045972 0.00050741 0.00026654 0.0016874 0.00041841 0.0014248 0.0020403 -0.0011742 0.0005116 0.0027882 0.0020817 0.0020875 -0.0008441 4.2317e-05 -0.00024975 -0.00090856 0.0010029 -0.001523 -0.00038157 -0.0018995 0.0024757 0.0015199 -0.0020311 0.001237 0.0025906 -0.0018343 0.0015086 0.0020803 -0.0017543 0.00073242 0.00033098 0.0015153 0.0017008 -0.0031078 -0.0003883 -0.002149 -0.0014287 -0.0008069 -0.00091163 -0.0031666 0.0012337 -0.00087505 0.00093241 0.0018438 0.00041842 0.0023319 -0.00063508 0.0008677 -0.00068773 2.71e-05 0.0030445 -0.0013286 -0.0014621 0.0021733 -0.0032425 -0.00093995 0.0015421 -0.0020617 0.0026985 0.00014796 0.0013298 -0.00079994 -0.0034826 0.0014587 0.00063547 0.0024254 -0.0026214 -0.00037885 0.00020856 0.0037006 0.0039026 -0.0034962 0.0011152 -0.0014091 -0.00014302 0.0032548 -0.0008504 -0.004483 0.0018521 -0.00061778 0.0010738 0.00083983 0.00078355 
more 0.00026761 -0.00079489 -0.00050007 -0.00064937 -0.00040659 0.0023179 -0.0021511 4.6673e-05 -0.00012311 0.00067162 0.00061599 0.0027355 -0.0006788 0.0026372 -0.0028161 -6.3197e-05 0.0024028 -0.0038313 0.00033818 0.00061123 -0.0011575 -0.0018453 0.0024404 -0.00058814 0.00020605 -0.002149 -0.0017067 -0.0027868 -0.00047653 0.0012974 0.00084933 -0.0033916 0.0023397 0.0027867 -0.0013537 -0.00069626 0.0006094 0.00063004 -0.00030763 -0.00113 -0.0019585 -0.0007736 0.00010022 -0.0014978 0.0016333 -0.00024376 -0.0020469 -0.00038001 -0.0020032 0.0042869 0.00096854 -0.0056854 -0.00085601 0.0021599 -0.0014419 0.001811 -0.0022688 0.0029343 -0.0014183 0.0012601 0.0042921 -0.00027094 -5.9545e-05 -0.00027026 0.00061432 0.00026957 0.00084822 0.0026884 -0.00013566 -0.0014191 0.00288 0.002861 0.0019247 0.0020265 -0.00039308 0.0026676 0.0014981 6.0863e-06 0.00092205 0.00054307 0.000879 0.00011399 -0.00027126 -0.0015098 0.00096238 0.0016331 -0.00097239 -0.001538 -0.00082093 -0.0011356 0.00017625 0.0017232 0.0043998 -0.0025011 -0.00096031 -2.3741e-05 -0.0023622 -0.0017966 -0.0021499 -0.0010691 
than 0.0038488 0.00080771 -0.0011567 0.0042263 0.0011163 0.00029342 -0.0024006 -0.0033306 -0.00062072 -0.002178 -0.00062681 0.00097712 -0.0004763 0.0022642 -0.00099254 4.6519e-05 0.0028782 0.00012081 -0.00079193 0.0017097 -0.00081058 -0.0025517 -0.0011519 -0.0022568 -0.0030125 -0.00086634 -0.00041053 -0.001753 -0.0019676 -0.0018613 0.0037506 0.00060086 0.00042075 0.0011944 -0.00097503 -0.0014562 -0.0021303 -0.0024423 -0.0029302 0.0011254 0.0013641 0.0019239 0.0001653 0.00013 -0.00020132 0.0015949 0.00011453 0.0009252 0.0011658 -0.0027265 1.6705e-05 -0.0012609 0.0015876 0.0030087 0.0012718 -0.00034471 -0.0011382 -0.0020749 -0.00063539 0.00012302 0.0022372 -0.00025469 0.0017085 0.0016073 -0.0020878 -0.0025952 0.00095743 0.00056517 0.00086667 -0.00062898 -0.0016118 -0.00048923 0.002966 0.0025631 -7.9607e-05 0.0015188 -0.0030823 -0.001758 0.0014697 0.0025942 0.0037019 -0.0010264 -0.00010098 -0.0008156 -0.00060773 0.002439 -0.0006165 0.0020479 -0.0042384 -0.00071068 -0.00027427 0.0013614 0.00055926 -0.00040327 0.0014782 -0.0018644 0.00073804 -0.00017195 -0.00052977 -0.00080733 
3 -0.0013196 -0.0031599 -0.0063695 -0.0062265 0.0018188 0.0022363 -0.0045128 -0.0040727 0.0039006 -0.0013256 0.00042859 0.0093452 0.0098228 0.0053438 0.0059997 0.0022106 0.0036661 -0.0063705 0.0019908 -0.0029317 0.0091384 0.0030352 0.0023138 0.0024962 -0.0035334 0.001183 2.4639e-05 0.0083789 0.0051489 -0.00079245 -0.0018885 -0.0025788 0.002056 0.0011779 -0.0050308 0.0006198 0.00094593 -0.0028468 -0.0010521 0.0039913 0.00092 0.0014495 0.00075024 0.00040944 0.0051401 -0.0050051 -0.0025469 0.0018437 0.0018538 0.0032345 0.00046239 -0.0052069 -0.00045969 -0.0019757 -0.0060799 0.00052056 -0.0044837 -0.0034119 -0.0088138 -0.0057589 0.0033379 0.0044988 0.003366 0.0030428 -6.9267e-05 0.0073705 -0.0011871 0.0035936 -0.0015791 -0.0031283 0.0063663 0.0032089 0.0048617 -0.0068187 -0.0039595 1.4425e-05 0.00092469 0.0050353 6.1564e-05 -0.0011226 0.0030394 0.0011459 0.0043941 -0.0041097 0.0025125 0.0034408 0.0026526 0.0037681 -0.0066074 0.0048029 -0.0019333 0.00029108 -0.0023851 -0.0046939 -0.0048588 -0.0024964 0.0072229 -0.0055875 0.0021918 -0.0056984 
hours -0.00099588 0.0022041 -4.0735e-05 -0.00057372 0.00041323 0.0013353 -0.0010695 0.0024901 5.059e-05 -0.00078967 0.00045715 0.00027857 -0.0023164 0.0011776 -0.0046238 0.0023401 0.0024789 -0.001382 -0.00045944 0.00055883 0.0013665 -0.00038513 0.0010132 0.0016895 0.0012531 0.00048202 -0.00062094 0.0011953 -0.0011369 -0.0011476 0.00037731 -0.0014377 -0.00081236 -0.00066652 -0.00056043 0.00016689 0.0015334 0.0015681 -0.0011984 -0.00044885 0.00043685 0.00036202 -0.0010697 0.0013939 0.0021999 0.00020724 -0.00091536 0.0028365 -0.0013859 -0.0024239 0.0013334 0.00095778 -0.0010888 3.7355e-05 -0.0010327 -0.0022511 -0.002062 0.00025332 -0.0018202 0.0038942 0.0013456 0.0011402 0.00038679 -0.0010808 0.00094943 -0.0012279 -0.0013882 0.0016117 0.0002925 -0.0017407 -0.0011367 -0.0014185 0.00058368 0.0015782 -0.0042231 0.00081583 -0.00067543 -0.0017998 -0.0011287 8.4374e-05 0.00074455 0.00016028 0.0013632 -0.0030942 -0.00034047 0.0031807 0.000426 -0.0016728 -0.0026594 0.0018716 -0.0006744 0.00042546 0.0029556 -0.001495 -0.00073125 -0.00094495 0.0023775 0.0017272 0.0036317 0.00037716 
is -0.0014287 -0.0040851 -0.00068891 -0.00050534 -0.0016954 -0.0040403 -0.0011037 0.0013838 0.0020251 0.00095968 0.0027486 0.0013893 -0.0049077 0.0029857 -0.0053681 -0.0048215 0.0046776 -0.0013801 0.0026951 0.0044279 0.0010185 -0.00021998 -0.0034644 0.0003444 0.0010269 0.0037974 0.001969 -0.0042983 0.0010698 -0.0011367 0.003672 -0.0036102 -0.0041883 -0.0016693 0.0009016 -0.0045209 0.0018021 0.0046833 -0.0067283 -0.0046708 -0.00054354 -0.00091524 -0.0037392 -0.0027061 -0.0017505 0.0014439 0.0023416 -0.00096341 0.002751 -0.00043494 -0.0065097 0.0040786 -0.0027802 0.0041112 -0.0040776 -0.0044693 0.0017239 0.0013398 -0.0018971 -0.00078081 9.7655e-05 0.0023878 -0.0037044 0.0025621 0.0032528 -0.0056371 0.0044976 -0.0019981 0.0027466 -0.0020285 -0.0068154 -0.0003271 0.0053812 -0.0037498 -0.0086958 -0.00027967 0.0020733 0.00025238 -0.0050156 -0.00040827 0.0058645 -0.0015902 -0.0010025 0.0017316 0.00040873 0.0011605 0.0025892 -0.0013488 -0.0023802 -0.00065577 0.0024719 0.0047605 -0.0011442 0.0036032 -0.0030103 -0.0040104 -0.00010918 0.0027766 0.0011418 -0.00096212 
very 0.0041542 -0.00090985 -0.000991 -0.0018459 0.0010905 0.0016005 -0.001439 0.0026453 -0.0031042 -0.0021438 0.004107 0.0012409 -0.00011019 1.174e-05 0.0016213 0.0015187 0.00082769 -0.00076567 0.0016245 0.0010129 0.0015014 -0.0027356 -0.00031895 0.0018885 -0.0010612 0.0023328 -0.0010282 -0.00021102 0.0022463 0.00086821 0.00071341 0.00039962 -5.901e-05 0.00087267 -0.0010434 -0.0013036 -0.00022329 -0.0028089 -0.0024166 0.003131 0.0010701 -0.0018393 -0.00067927 -0.0022959 0.00018528 5.196e-05 0.0018236 -0.0004349 0.00037732 0.0030014 -0.0032447 -0.0013484 -0.0016453 0.001679 0.00052534 -0.0025999 -0.00074007 0.00029622 0.00079346 -0.0014089 0.0034959 -0.000225 0.00072127 -0.0021656 -0.0022138 0.00051875 0.0010192 0.002033 0.0023009 0.0010219 -0.0029436 -0.0025135 -0.001726 -0.0021365 -0.0029409 -0.0033834 -0.00079927 0.00067155 -0.0019591 0.00034366 0.00050461 -0.00061231 -0.00091507 -0.00043913 0.00029914 -0.00091651 0.0021646 -0.00052269 -0.0017441 -0.0034658 -0.0015321 8.1515e-05 0.0022878 -0.005721 0.0020988 -0.00048276 -0.0009105 0.00040612 -0.0008453 0.0011522 
popular -0.0003791 0.0039886 0.00038296 0.0013843 -0.00090369 0.00052124 -0.0011919 -0.00061001 0.0017381 0.00027316 0.00039164 0.0040694 -0.00037602 0.0010368 -0.00080265 0.0015986 0.0026175 -0.00026668 0.00075421 -0.00020107 -0.00022641 2.5957e-05 -0.00050606 0.00045656 -0.0007661 0.0003716 -0.00043718 0.0012229 -0.001648 0.0011819 0.00023782 0.00040998 0.0018474 0.0014984 -0.00016359 -0.0015625 0.00014854 -0.0011259 -0.0016711 0.0039668 -0.0016863 0.00094474 -0.00097567 -0.0004269 0.0012647 -0.00018493 0.0024388 -0.0010224 -0.0008598 -0.002055 0.002418 -0.00015859 0.00035457 -3.52e-05 -0.0022709 -0.0020408 -0.00019782 -0.00010199 0.00055479 0.0013699 0.0021704 0.0020897 -0.0017643 0.0021699 -0.00019502 0.00097265 0.0011396 0.0018063 0.0019837 0.00020632 0.0002975 -0.00011302 0.0005129 -0.00015807 -0.00017256 -0.00070707 -0.0004495 -0.0011456 0.00077029 0.0011547 -0.00039869 -0.0028873 -0.0010686 0.00038158 -0.00098716 0.0023627 0.0014923 0.00048272 -0.0032687 0.0019668 0.0011511 -0.00046131 0.0012338 -0.00021134 0.0022668 0.00043788 -0.00081083 -0.00030109 0.0012387 -0.0002145 
in 0.0022137 -0.00044192 0.00092482 0.00014056 0.0014805 0.00063164 -0.0039377 0.001764 0.0034555 -0.001756 0.00054005 0.0051173 -0.0042878 0.001687 0.002175 0.0047862 0.0045429 3.993e-05 0.00098485 -0.00044094 -0.0027867 -0.0039205 -0.0014426 0.0020021 0.0019058 0.0008572 -0.00059357 -0.00057485 1.8487e-05 0.0031117 -0.0012681 0.0021372 0.0026625 -0.00055961 0.0032223 -0.002192 0.002894 0.00069147 0.00026722 -0.0025865 -0.0012771 0.0027025 -0.0024909 -0.00042583 0.0023358 -0.006555 -0.00086959 0.00047232 -0.0011063 -0.0011972 0.0021693 0.0048674 -0.00091845 -0.0029855 -0.0039736 -0.0011289 -0.0017741 0.00093331 -0.0044215 0.0032552 0.00075696 -0.0040683 0.0032207 0.0031253 -0.0062962 0.0015592 0.0057983 0.0033023 0.00060653 0.0034421 -0.0035137 -0.0037443 0.0015887 0.00035084 0.0029298 -0.0019435 -0.00037202 0.0018785 0.00075084 0.0012402 0.0013951 -0.0036375 -0.00024184 -0.0013482 -0.0012799 -0.0012708 0.0064977 0.0029064 0.0019065 -0.0068598 0.0051108 -0.0048738 0.0043569 0.0027786 0.0020161 0.0047234 0.00044639 0.00017329 0.00031842 0.00016077 
US 0.0015969 -0.0011029 -0.0012504 -0.001634 -0.0015262 -0.0023861 -0.0016469 -0.0011059 0.00035381 0.0011023 8.4708e-05 0.0017891 0.0013061 -0.0016878 0.00054967 0.00071234 -0.0014557 -0.00066302 0.0014786 -0.00087146 -0.00069249 -0.00075979 0.00011286 0.0034766 -0.0025553 -0.0027537 -0.00056788 -0.0064328 -4.8962e-05 -0.0033967 -0.0045097 -0.0029355 0.0048889 0.0020861 -0.0045904 -0.0043024 0.00031702 -0.0025909 -0.00079186 0.003584 0.0010953 -0.00069022 0.00028558 -0.0018531 -0.0028763 -0.0010345 -0.0044339 0.0015085 0.0012664 0.0035925 -0.0039085 -0.00093079 -0.0054446 0.0066214 -0.00041569 0.002169 -0.0014287 0.0034921 0.0025905 0.0019228 0.0055333 -0.0043364 0.0070615 0.0017716 0.004012 0.00099326 0.0045341 0.0016364 -0.0024571 -0.0016207 -0.0018166 -6.6362e-05 0.0044341 0.003804 -0.00022646 0.0014931 0.0019657 0.00075352 0.0035433 0.0037092 0.00068832 -6.3234e-05 0.0036335 -0.00014789 0.0018144 0.0069429 0.0036695 0.00046432 0.00045591 -0.0026759 0.0039869 0.0031871 0.0049716 -0.0010884 -0.00049405 -0.0047352 -0.0028658 -0.0012706 -0.0022838 0.0040539 
