27 100
</s> -0.0082994 0.0078322 -0.0062062 -0.0020398 0.0048702 0.0012078 0.0061913 0.00023425 0.0099017 0.0093322 -0.001479 0.00306 0.0092307 0.0071597 -0.0041195 -0.0017071 0.00029786 0.0057957 0.00088546 -0.0081274 -0.0013548 0.0068985 0.0054569 -0.0061628 0.0056073 -0.0063731 0.0015828 -0.0037174 -0.0017603 0.0098461 -0.0067216 -0.003303 -0.0084756 -0.0065095 -0.009254 -0.0006517 0.0034823 -0.0086659 -0.0022043 -0.006692 0.0098161 0.0074128 0.0034531 0.0017541 -0.0048997 0.0018609 -0.0045656 -0.0045904 -0.0080814 0.0026511 -0.0069745 0.0089772 -0.0091479 0.0047018 -0.00069006 -0.0055492 0.0014297 0.0020914 0.00396 0.0032937 -0.006527 0.0050299 0.0064983 0.0050619 -0.003619 0.00065102 -0.0070489 0.0058526 0.0082506 0.0058876 -0.0098118 0.00020106 -0.0040881 0.0011984 8.345e-05 -0.0037997 0.0096516 0.0092891 -0.0010287 -0.0039297 -0.0088758 0.0060384 0.0096762 -0.0089787 -0.0052039 -0.007906 0.00069594 0.00042814 -0.0034004 -0.0036472 0.0095572 0.0047017 0.0090723 -0.0090106 0.0014508 -0.0087831 0.0062326 0.0095837 -0.0054835 -0.0018726 
주문 0.003487 0.0016405 0.0057133 -0.0043461 0.0010922 0.0057441 -0.00064833 0.0021294 0.0012802 -0.00072582 -0.0016424 -0.0043343 0.0021807 -0.00086903 -0.0031698 -0.006602 0.0023045 0.0022141 0.0010281 0.0010207 -0.0019182 0.0018084 0.0026172 0.00033305 -0.0032007 -0.0034463 -0.0058465 0.00059551 -0.0027547 0.00010363 -0.0026206 0.00068079 0.0032391 0.002618 -0.0059161 0.0012141 -0.0029173 0.0025847 -0.0045469 4.8135e-05 -0.0027038 0.00033172 -0.0053785 0.0054213 0.0039612 -0.0035713 0.0025363 -0.0012694 -0.0019901 -0.0010386 -0.001408 0.00086501 -0.0017319 -0.0036112 0.0010358 0.0022847 -0.00036162 0.0029113 0.0048414 0.0012767 -0.002476 -0.0017875 -0.0038274 0.0016139 0.0043394 0.0031348 -0.0012444 -0.0032943 0.0026347 -0.0040198 -0.00058799 0.0054887 -0.00059278 0.00061506 0.0021505 0.0030057 -0.0034202 0.00052237 0.005455 0.003302 -0.0050628 -0.0047327 -0.00057827 0.0038447 0.00017738 0.00025792 -0.0017324 -0.0030836 -0.001503 0.0057711 0.001961 0.0035284 0.0032509 -0.00024334 0.0013655 0.0032465 -0.0035902 0.00016541 -0.003428 0.0010342 
배달 -0.0010698 -0.0024565 -0.00273 0.0010506 -0.0018126 -0.0021119 -0.0030007 -0.0044279 0.00075039 8.0802e-05 0.0014234 0.0033828 -5.185e-05 -0.00042941 0.00098779 -0.00026168 0.0038297 -0.00051186 -0.0015231 0.0042888 0.0051554 -0.004513 -0.0018271 0.0028978 -0.0024481 0.0009639 -0.001038 -0.0041362 -0.002938 0.00091139 -0.0024131 -0.00038536 0.0022394 -0.0002089 -0.0045196 -0.0028201 -0.0049157 0.0027543 0.0034733 0.0077441 -0.0062845 0.0042012 0.00010096 0.00039257 0.0013337 1.227e-05 0.00076593 -0.002901 0.00058023 0.0046603 0.0006476 -0.0017168 0.0010828 0.00043184 -0.0030722 0.0032376 -0.0018741 -0.0027479 -0.0046896 -0.0048877 0.0034238 0.0013571 0.0033088 0.0035268 -0.00098667 0.0055041 0.0034616 0.0043151 0.002302 -0.0010467 0.0035458 0.0013716 0.0056472 -0.0033853 -0.0044295 0.0025557 0.00075734 -0.0039 0.0037059 -0.003712 0.0046424 0.0010178 0.0039572 -0.0019559 0.00087879 0.00019667 0.0011666 0.0025841 0.00066409 -0.0011345 0.00098268 0.0021761 0.0032675 -0.0012345 -0.00071913 0.00049041 0.0010049 0.0018133 -1.0069e-05 -0.0019884 
가능한가요? 0.0010084 -0.00053079 -0.0014832 0.0023902 0.00040287 -0.00046067 -0.00094284 -0.00070304 -0.0013758 0.00032707 0.00046201 0.0014881 -0.00090507 -0.0002566 0.00094097 -0.0015164 0.00022386 0.0013749 0.0024785 -0.00042563 -0.00019725 -0.00074697 0.0017401 0.0021288 -0.0043446 0.00045928 0.00011061 0.00010644 -0.0029317 0.001741 -0.00011078 -0.000442 0.0018767 0.00044792 0.000118 5.5155e-05 2.4106e-05 2.3087e-06 -0.0028886 -8.3674e-05 -0.0034358 -0.00033326 -0.0017195 4.4356e-05 -0.00015786 0.0014243 0.00093187 -0.00065489 0.00049966 -0.001155 -0.0012151 -0.0020947 -0.0021072 0.0024029 0.00038053 0.00048752 0.0025627 0.0007907 -0.0010913 0.00096292 0.00039115 0.0024635 0.0018604 0.00015675 0.00071465 0.0017158 0.0006059 0.0026054 0.00032816 -1.3653e-05 0.0014101 0.00017809 0.00057668 0.0019965 -0.0021337 0.00051825 -0.0031345 0.0012638 0.0005274 0.00070923 -0.00019073 0.0015054 0.0012367 -0.00012892 0.0010187 0.00012394 0.0013807 -0.00028521 -0.0010637 -0.00293 0.00016775 -0.00032235 0.00010472 -0.00017907 -0.00044499 -0.0020298 0.0016118 -0.0012169 -0.0014917 0.0013292 
주문할래 0.0012346 0.00020214 0.0015855 0.00257 0.0004907 0.002796 0.0013935 0.00010362 0.00041245 0.00099827 0.0024447 -0.00057368 0.0012319 -0.0010407 0.0010156 -0.00051128 -0.0001334 -0.0002732 0.0040538 0.00011585 0.0030888 -0.0012111 0.00092456 0.0029394 -0.00047539 0.0021362 -0.00024401 0.0020761 -0.0016385 -0.0014595 -0.0012686 -8.6382e-05 -0.0011223 0.0010906 -0.00149 0.00029094 0.00013978 0.0019859 -0.0012395 -0.00046698 -0.0038384 -0.00066881 -0.00036448 0.0014401 0.0024952 -0.0027998 0.0020057 0.00025735 0.00066083 0.0011009 9.2346e-05 0.002734 -0.00067882 0.0042353 0.0016164 -0.00065751 -2.3916e-05 -0.0029954 -0.0027578 -0.00063958 -0.0008911 0.00018386 -0.00056269 0.00041223 5.4855e-05 0.0034871 -0.0010667 0.0014293 0.00083225 -0.00055168 0.00035241 -0.0012576 0.0011629 0.0031661 -0.0056023 -0.00085993 -0.0029904 -0.0018446 0.0025681 -0.0030052 0.00045967 -0.00081404 0.0027822 -0.00080276 -0.00049989 0.00027846 0.00075311 -0.0023424 -0.00045786 -0.0009778 0.0010476 0.00099163 0.0010514 0.001595 0.0021805 0.00082992 0.00010346 0.0015859 -0.00098084 -0.00055251 
주문하고싶어요. 0.0013938 0.00020821 4.2346e-05 0.0017143 -0.0010793 0.0007332 -0.0015547 0.00030183 -0.0019106 2.3123e-05 -7.2135e-05 0.00054563 0.00099093 0.0015518 -0.00035046 -0.0018822 0.00074552 -0.00246 -0.00033834 -0.0024458 -0.00082448 -0.0010044 -0.00016009 0.00029714 -0.0016318 -0.0010721 -0.00042015 -0.0018992 -0.0022271 0.00047775 -0.0010209 -0.00072721 -0.00060407 0.0014196 -0.0016881 -0.00017123 -0.0010757 -0.0021247 -0.0014122 0.00037354 -9.5462e-05 -0.0028461 -0.00069772 0.0011421 0.0013048 -0.00037527 0.001555 -0.0012829 0.00022058 0.0013572 -0.0010831 -7.7064e-05 -0.0038073 0.0015474 -0.00022203 -0.0019919 0.00099768 0.0011751 0.0010693 0.00070322 0.00092204 -0.0007057 -0.0013466 -0.00018958 0.00064659 0.0013093 0.0013938 -0.00086687 -0.0001396 -4.8784e-05 -0.0004178 0.0025367 -0.00049781 -2.3882e-05 -0.0014525 0.00016635 -0.00011857 0.0003556 0.0010601 0.00062521 -0.00092502 0.00065884 0.00017597 0.002052 0.0004213 -0.00031882 -0.00024282 -0.0011962 -7.5641e-05 0.00093399 0.0017658 0.001737 0.0024722 -0.00062498 0.0010163 -0.00040046 -0.002776 0.0015709 -0.0010486 0.0012305 
하고 -0.00060763 -0.0018387 0.002611 -0.0047338 -0.0068125 -0.0014363 0.0014327 -0.000194 0.0033583 -0.0032972 0.00014263 0.0033142 -0.0028936 -0.00058528 -0.0014358 -0.0006595 -0.0039622 0.0027895 -0.0038265 -0.00018101 -0.00070704 -0.00083237 -0.0027339 -0.0011298 4.0754e-05 0.0017539 -0.00037004 -0.0048386 0.00090245 0.0062755 -0.0024159 -0.0018057 -0.0036636 0.0014648 0.0028981 0.0012184 0.00088848 -0.0038161 -0.00068642 -0.00012641 -0.0028312 0.0013671 0.0044351 -0.0059408 -0.00024286 -0.00218 -3.4894e-05 -0.0017306 -0.00095836 -0.0057019 0.0031466 0.0040102 -0.0028268 -0.0049904 -8.589e-05 0.0012326 0.00097956 0.0060387 0.0066024 0.0016529 -0.0028519 0.00016345 -0.0040565 -0.0027497 0.00050991 0.0036661 -0.0020683 0.0012735 -0.002623 -0.001291 -0.0020302 2.8092e-05 0.00068739 0.00029782 0.0029982 -0.00067864 8.4115e-05 -0.0048592 -0.0012824 -0.0017573 0.0012939 0.0049802 -0.0003214 0.00076172 0.0047956 7.3584e-05 0.0033597 9.1453e-05 0.0021035 0.00067319 0.0033783 -0.002774 -0.0028696 -0.00078227 -0.0017206 0.00016595 0.001765 0.001044 0.0022887 0.0026629 
싶어요 -0.0012079 -0.00066514 -0.0023399 -0.00080747 -0.001261 0.00032034 -0.0025089 -0.00084947 -0.0014744 -0.0030545 -0.0013622 -0.00069679 -0.00037082 0.00096741 0.0046098 -0.00083315 -0.0021628 0.0034534 -0.002238 0.00091886 -0.0022508 -0.0049804 -0.00039592 -0.00021601 -0.0023699 -0.0016241 0.001398 -0.0025601 -0.0020968 0.0014397 0.00092286 0.0007158 0.0014759 -0.001155 -0.00038261 -0.0015534 -0.0023589 -0.0014399 0.0031375 0.0013289 0.0032601 0.002651 -0.00050464 0.0025775 -6.5281e-05 0.0030985 0.0021415 -0.0006759 0.0049048 -0.00016395 0.00057223 -0.0022616 -0.0024143 0.0043377 0.0015735 -0.00075041 0.0011403 0.0018297 0.0014938 -0.00075908 0.0023354 -0.0017527 -0.0016771 -0.0045794 -0.0032309 -0.00117 3.1569e-05 -0.00047537 -0.00049271 0.0021716 -0.0017062 0.0026846 0.0017029 -0.00030408 -0.00061819 -0.0024492 -0.0023993 0.0022947 0.0021741 0.0024591 0.0028598 -0.0022902 0.00050011 0.00092177 -0.0026136 0.0030431 0.0016726 0.0012325 -0.0010127 -0.0006033 0.00465 0.0047644 -0.0036812 -0.0019456 -0.0028611 -0.00086823 -0.0031165 -0.0035035 0.0016358 -0.0030821 
주문가능? 0.00085688 -0.001168 -0.0018282 0.00021948 0.002721 0.0023979 -0.0011261 -0.00062425 -0.00053574 -0.00026445 -0.0010094 0.00024743 0.0018318 0.00059746 -0.0014317 -0.0032955 0.00057254 -0.00096594 -0.0017046 0.00093103 -0.00035442 -0.0014106 0.0027877 -0.002521 0.00013716 -0.0012626 0.00047136 -0.0013234 -0.00086599 0.0030278 -0.0032214 0.00082387 0.00060175 0.00086484 -0.0019142 0.00045599 0.0025737 -0.0019703 -0.0029284 0.0029923 -0.0010205 -0.0026105 0.0011127 0.00031813 0.00085377 0.00018781 0.001911 -0.00095257 0.00074794 -0.00091895 0.0016918 9.4962e-05 -0.001842 0.0008219 -0.00058438 -0.0012169 0.00097418 0.0018219 -0.0032334 -0.00040568 0.00084662 0.0006476 0.0010498 0.0003485 -0.00060261 0.0016729 -0.00011073 -0.00038235 0.00053778 -0.0024081 0.0015606 -0.00014669 -0.0016585 0.00099898 -0.0015465 0.00055749 0.00095713 0.00063251 0.0016001 0.00095804 4.2216e-05 0.0011075 0.0021708 -0.0010166 8.1403e-06 -0.00028261 0.0017188 -0.0019413 0.00011213 6.9155e-05 0.0024821 0.0019986 0.0023281 0.00019821 -0.00073494 -6.0299e-05 -0.0010478 0.00081002 -0.00096807 -0.00045 
가능? -0.0027374 0.0025258 -0.0029508 0.0010027 0.0008968 0.0036313 -0.0032869 -0.00033054 -0.0022067 0.0016124 -0.0045575 -0.0019788 0.0011847 -0.0029958 -0.0023664 -0.0042425 -0.00082356 -0.0020076 -0.00044206 -0.0015857 -0.0039765 -0.0020619 0.0048916 -0.0017212 -0.0013845 -0.0020096 0.0017778 -0.0014303 0.00059915 0.0023304 -0.00044728 -0.002029 0.0012105 -0.0016299 -0.00027874 0.0033367 0.0029307 0.0030891 -0.0037866 -0.00095352 0.0025481 0.0028295 -0.0025251 0.0043135 -0.000481 0.0034045 0.0009124 0.0017685 -0.0013049 -0.0019631 0.00095 -0.002961 -0.0022118 4.2486e-05 -0.0020768 0.0010091 0.00080258 0.0041495 -0.00070394 0.0031324 -0.00051862 0.0017119 -0.00016077 0.001823 0.0018158 0.0016691 -0.00061779 0.0032621 -0.0034053 -0.0020967 -0.00098129 -0.00058871 0.00077462 0.00080985 -0.0027501 0.0011783 0.0022143 0.0019462 -0.003746 -0.0011893 0.00077737 0.0010482 0.0039596 -0.0018073 -0.00061944 -0.0012475 0.00057373 0.0013071 0.0012228 0.00096456 0.0012458 0.0040883 0.0050655 -0.0010427 -0.0045167 -0.0010755 0.0031411 -0.0010634 0.0011281 0.0010144 
배달할래 0.0020624 -0.0018656 -0.00010005 0.0019397 0.0026401 0.0028436 -0.00096262 -0.001063 2.0583e-05 0.00015954 0.00063837 0.0011551 -0.0023946 -0.0020502 0.0042072 -0.00075694 0.0014728 0.0006441 0.0029333 -0.00052319 0.0013747 -0.0033427 0.00093362 -0.00076443 0.0020072 -0.0010454 -0.0018773 0.0015278 -0.0011191 -0.00024351 0.001207 0.00092518 0.00090911 9.3297e-06 -0.00018758 -0.0017168 0.0019514 -0.00052646 -5.6927e-05 0.0012332 -0.0035903 0.0010494 -0.0053898 -0.0013971 0.0011882 0.00092936 0.00065491 0.00052904 -0.0010075 -0.0018067 0.001456 -0.0011427 -0.0018697 0.00031377 -0.00013212 -0.0034426 0.0035323 -0.0024481 0.0020271 0.00054506 0.0012572 0.00012235 0.0015532 0.0015756 -0.00049693 0.0027854 0.00078427 0.0015888 0.0026105 0.0045034 0.00028722 -0.0013302 -0.00030678 0.0021212 -0.0028512 -0.0029337 -0.0043391 -0.0001448 -0.00037633 0.0021121 0.0018116 0.0029497 0.0010277 -0.00089589 -0.001975 -0.0023965 0.0015687 0.00091096 -0.0030041 -0.00044271 0.000192 0.00098534 0.0028121 0.0018194 0.0028356 -0.001685 0.00014555 0.00054362 -0.0017609 0.00050992 
가능 0.0018497 0.0018353 -0.0035038 0.0015866 -0.0032231 0.0030459 -0.00075288 0.0030553 -0.003498 -0.00053577 -0.0020267 0.0022875 0.0016678 -0.00050845 0.0017947 -0.0018066 -0.00088543 -0.00029281 0.0038017 -0.00054925 -0.00070991 -0.00089284 0.0020859 0.00064675 -0.0063108 -0.0026932 -0.00041213 0.0020591 -0.000898 0.0039092 0.0031249 0.006316 -0.0012728 -0.0028849 0.0021596 0.0011013 -0.00030134 0.00088581 -0.0024095 -0.0015433 0.0019408 0.0035007 -0.0030063 0.0010304 0.004464 0.0024281 0.0021257 -0.0023837 0.002567 0.0072924 -0.0015944 0.002199 -0.00063124 2.048e-06 0.0029998 0.0014153 -0.00066225 0.0010647 0.0013195 -0.0025335 0.00011113 0.0041677 0.0048018 0.0029181 0.0033508 -0.00060571 0.0016504 -0.000618 -0.0059754 -0.0010655 0.0026779 0.00013206 0.0026548 0.0032096 -0.0032197 0.0015192 0.0044798 -0.0046952 0.0018714 -0.0024319 -0.00034245 0.00044707 -0.00073166 0.0012379 -0.001225 0.0011925 -0.00071991 -0.0015879 0.00050257 -0.00080489 -0.0026552 -0.0014135 0.005177 0.0019316 0.0034222 -0.0027175 -0.0046788 -0.0056081 -0.00094382 -2.1213e-05 
한가요? -6.6185e-05 -0.001936 -0.00023686 0.0025642 0.0043872 4.0284e-05 -0.0029181 0.0011322 0.0015423 0.0019652 -0.0020394 -0.00062412 0.00032946 0.0019563 -0.0026672 -0.001025 -7.5541e-05 0.0011261 0.0015534 -0.0024741 0.00050183 -1.4843e-05 0.0040389 0.00043471 -0.0027588 0.00061793 0.00099206 0.0025762 -0.0017351 0.0039838 -0.00048324 0.00025119 4.4209e-05 -0.00061112 0.00047402 -0.00096267 0.00056325 -0.0032489 -0.003139 -0.0024354 -0.0033606 -0.001336 0.00098078 0.0013024 0.0017472 -0.0013781 0.0021696 0.00098242 0.00053383 -0.0017227 -0.0010076 -0.0021597 -0.0031741 -0.00098039 -0.0010177 -0.0014694 0.0011036 0.002557 -0.0015965 -0.00035457 0.0018875 0.0046828 0.00087769 0.0014716 0.0010524 0.0016797 -0.0012287 0.0021225 -8.2896e-05 0.0010224 0.0015424 0.002741 -0.0018898 -0.00073851 -0.00081401 -0.00063279 -0.0017265 -0.00020993 -4.7565e-05 -0.00048488 -0.0011789 0.0028486 0.0019626 0.0011112 0.0031266 -0.0015794 0.0022714 0.00088534 0.00043024 -0.0022819 -0.00029881 -0.0017035 0.00055777 -0.00084572 -0.0011508 -0.00034829 0.0018225 -0.0010887 0.00043923 0.001624 
주문이요! 0.00054422 -0.0016015 0.0014589 0.00076569 0.00016159 -0.00013558 -0.00080161 0.0028867 -0.00034879 -0.0010856 0.0029465 0.0035886 -0.0017214 0.0027323 -0.0034417 -0.002097 0.0021036 0.0022946 -0.00030812 0.00012139 0.00056957 -0.0024397 -0.0011124 0.0012354 0.0015854 -0.0024987 -0.0011227 0.00041166 0.0010441 -0.00059724 0.0013836 -0.0037519 0.00070545 -0.00050063 -0.00027022 0.0011794 6.2814e-05 0.0012774 -0.002249 0.00022471 0.0015815 0.0018052 -0.0023489 -0.0016112 -0.00068549 -0.0036646 0.00079775 -0.00066463 -0.0021926 0.00044278 -2.7642e-05 -0.00074375 -0.0014747 -4.4695e-05 8.1064e-05 -0.00028602 -0.0017666 0.0020787 -0.00022423 0.0020896 0.0017994 0.0012943 0.00069387 0.00014121 0.0028021 0.00030246 0.0020626 -0.0018715 0.0037317 -0.0012442 0.00068086 0.0026942 0.00073719 0.0025528 0.00076761 -2.9108e-05 -0.00013301 -0.0033762 -0.00028168 -0.0012064 0.0014707 0.0009239 -0.00060646 0.0011632 -0.0014118 -0.00017005 -0.0012735 -0.0030951 -0.00090775 0.0036158 -0.00056803 -0.00049563 0.00301 0.0022208 -0.0012528 -0.00040862 -0.0013739 -0.00072907 0.0006458 -0.0022766 
주문하겠습니다. 0.0020874 -2.2622e-05 0.0011854 0.00017283 0.00042264 0.0010972 -0.00092627 0.0014949 -0.0019381 2.5715e-05 0.00048343 0.003102 -0.0019917 0.0013536 -0.0022527 0.00083936 -0.00012453 -0.001966 -4.6689e-05 -0.0033807 0.00027733 -5.525e-05 -0.001191 0.00098463 0.0018496 -0.00053902 -0.0020546 0.00033986 0.0027037 0.0014801 -0.0015537 -0.00014148 0.00011237 0.0007616 -0.0023652 -7.8498e-05 0.0016935 -0.001004 -0.0026562 -0.0014526 0.0012171 0.001887 -0.0012735 0.00064828 0.0033498 0.00023404 0.0011903 -0.00091558 0.0010516 0.0015955 0.00044604 5.7648e-05 -0.0023917 -0.00065762 -0.0010827 -0.0010481 0.00033511 0.0013359 0.0011657 0.0013621 0.0014888 0.0013179 0.0007321 0.00056742 -0.00039764 0.0023282 0.0011311 0.00075213 -0.00063206 0.00062104 0.00039912 -0.00058735 -0.0021609 0.00093352 -0.00077591 0.0017166 -0.00091562 -9.7147e-05 -0.0011881 -0.0018004 0.00014574 -0.0019766 -0.0012068 3.8511e-05 -0.0017031 -1.7846e-05 0.0018701 0.0010101 -0.00010782 -0.00026271 -0.00065144 0.00081552 0.0025527 -0.0010862 0.001186 -0.0011518 0.00032169 0.0018952 0.0017341 0.00098588 
주문부탁드립니다. 0.0012643 -0.00044392 -0.00072302 0.0013072 0.0010211 0.00022152 -0.0015805 0.001372 0.00012458 0.00050932 -0.0012914 0.00037699 0.00069796 -0.00020212 -0.00010957 0.0015725 0.00065128 -0.00047186 0.00042828 -0.0011057 -0.00036152 -0.00025892 -0.00039594 0.00073701 0.00071192 -0.00072917 -0.0012104 0.00042103 -0.00018699 -0.00016574 -0.00080224 0.00024173 -0.00016162 0.001085 -0.0011654 -0.0011909 0.00036874 -0.00051992 -0.00087273 -0.001145 -0.00082984 -0.0011382 0.0013997 0.00094141 0.0010776 -0.00072201 0.0015294 0.00064322 0.0010181 0.00053258 -0.00072197 0.00072239 -0.0027433 -0.00031836 -0.0022096 -0.0014827 0.00052618 0.00086776 0.00034597 0.0020905 0.00071438 -0.00029849 0.00051985 0.0001179 0.0014323 -0.00025324 0.00069489 0.0002546 -0.0017974 0.00063529 -0.0011567 -0.00061355 0.00040617 -0.00010576 9.6815e-05 -0.0013268 -0.00057502 0.00036707 0.0016933 -0.00060817 0.00052497 0.00050436 -0.00046258 -0.00044691 -0.00176 0.0011518 0.0017792 -0.00050202 0.0010755 -0.0010341 -0.0001015 -0.00067583 0.0031174 3.7432e-05 0.00095219 0.001159 -0.0017352 -0.0018255 -0.0010998 0.00070813 
할 0.0059517 -0.002459 -0.0041302 0.0001255 -0.00037512 -0.001472 -0.0077986 0.00045598 0.0020607 5.3287e-05 -0.00093159 0.001243 0.00071048 0.0049294 -0.0027482 -0.00034596 -0.00057723 -0.0018289 -0.0022895 0.0020731 -0.0011441 0.0067265 0.009818 0.0070065 -0.0045466 0.0020998 0.0069761 0.0024403 0.00075948 0.0066681 0.0017517 -0.0028692 0.00037686 -0.0021311 -0.0057511 0.0012925 -0.0028251 -0.0058987 0.002107 -0.0025191 -0.0084855 0.00081572 0.0040197 0.0039025 -0.0010026 0.00028296 0.00044216 0.0053138 0.0074579 0.0038469 0.0021495 -0.0026176 -0.0012244 -5.8336e-05 0.0024845 0.0040127 0.0095252 0.0011101 -5.9956e-05 -0.001458 0.0018017 -0.0046947 0.0031142 0.00050125 0.0053575 0.0041085 0.0085942 0.0018368 0.0029913 0.0028471 -0.0032595 0.0064544 0.0011044 0.0055767 0.0009266 0.00049442 0.0024126 -0.0048089 0.0073048 -0.0015774 -0.0039479 0.0030101 0.00091293 0.0027531 0.0053463 0.0061497 -0.0028874 -0.0027048 0.0043547 0.0070155 0.0036259 0.002041 -0.00049019 0.008273 0.00312 -0.0029851 -0.0052998 0.0025543 0.0017093 -0.00026886 
수 0.0040446 -0.0076804 -0.0024904 0.00019312 0.0003069 -0.00083074 -0.0034541 -0.00099751 -0.00073088 -0.0085536 0.00039444 0.0031 -0.00085994 -0.00070537 -0.0085893 0.0015017 0.0018226 0.0051816 0.001316 -0.0023201 -0.0010947 0.0011638 -0.002726 -0.006872 -0.0069319 0.004207 -0.0012036 -0.0066954 0.0031739 0.0046661 -0.0059235 -0.0046892 0.0019368 -0.0037644 -0.0039713 -0.00035052 0.0031382 0.0017793 0.003338 0.0013438 0.0059567 0.0034391 0.002815 0.0014585 0.0012902 -0.0068829 0.0075008 0.00033474 0.001229 -0.005418 0.00092615 -0.00010997 -0.0066559 0.0019189 0.0065184 -0.0028913 0.0026814 0.0013337 -0.0023463 -0.00035157 -0.0068048 -0.0013681 0.0074171 0.0085961 -0.00059005 -0.0002905 0.0048133 0.00042757 0.0011125 0.003776 -0.0051487 -0.001035 -0.0013217 0.0024807 0.002464 -0.0021618 0.0035442 0.0044011 0.0020817 0.0077965 0.0051305 -0.0027068 -0.00010378 -0.0057844 0.0040844 -0.0034059 -0.0038536 0.001195 0.0031505 -0.006191 0.0005935 -0.0041247 -0.00081079 0.0030089 -0.0021395 -0.0013503 -0.0052424 -0.0019868 0.0015354 0.0060346 
있을까요? 0.0012153 0.0009581 -0.00048281 0.00025081 0.001317 -0.0029004 -0.0031831 0.0037578 -0.00076448 0.0013535 -0.0016418 0.0013346 -0.00084214 0.0024397 -0.0013775 -0.0012434 -0.00074039 0.001168 0.0022376 -0.0021592 -7.551e-05 -0.00033699 0.0010615 0.00039299 -0.0020447 -0.00060204 -0.0016081 -0.00064958 0.00057296 0.00053808 -0.00047499 -0.00079428 -0.00060444 -0.0026179 0.0015747 0.00044541 0.0017523 -0.0015705 -0.0026564 -0.00053342 -3.7842e-05 -0.00088517 0.00047609 -0.0012313 -0.0010375 -0.0012922 -0.00014837 -0.00013506 -1.8538e-05 0.00034009 -0.00090395 -0.00018211 -0.0017629 -0.0019033 -0.0035606 -0.0039224 0.00050898 0.00096586 0.00095283 0.0010035 0.0022089 0.0018573 0.00087444 0.0020517 0.001557 0.0022653 -0.002023 0.00033031 -0.0022729 0.0012139 -0.00079503 -0.0014229 -0.00043315 -0.0001122 -0.00042268 -0.0021108 -0.0011581 0.0015341 -0.0024057 -0.00037605 0.0027588 0.00021803 0.00042298 -0.00025933 0.0001534 0.0012878 -0.0021561 0.0010421 0.001553 0.0017851 0.00062278 -0.0013556 0.0028166 0.0015596 -0.00083932 -0.0029824 -0.0012965 0.00041996 -0.00037987 -0.00050572 
ㅈㅁ 0.0032372 -0.00092937 0.0061133 0.0030389 0.0060809 0.0025569 0.0014397 -0.0025713 -0.0003894 0.0028378 -0.0022071 -0.00090705 -0.0016715 0.0056603 0.0034667 0.0036216 -0.0023011 -0.0043698 -0.0025415 -0.0022867 0.00066729 -0.0026677 0.00037082 -0.0013201 0.00035188 -0.00014531 -0.0049108 0.0010905 0.0039558 -0.00038329 0.0018443 0.0012989 -0.0011162 0.007196 -0.0032483 -0.0035911 -0.0028347 0.0027919 -0.0034105 -0.0051589 -0.003885 0.0031779 -0.0044002 0.00038825 0.00019416 0.0007039 -0.0010968 -0.0003817 0.0048466 -8.516e-06 0.0024204 0.001881 0.00034974 0.0015769 -0.0032784 0.0045949 -0.0018589 0.00095239 -0.0012612 0.00106 -0.0032741 0.00081695 -0.0028852 0.0011228 -0.0022746 -0.00090818 0.0036976 0.0033777 -0.00055342 0.0021047 -0.0028774 -0.0045453 0.0015955 0.0003529 0.0004607 0.0027167 0.0060526 -0.0026725 0.0046555 -0.0024045 0.003655 -0.0048967 -0.0027041 -0.00080775 -0.0054598 0.0031129 -0.0010398 0.0015848 0.0016114 -0.0039755 -0.003827 -8.6601e-06 0.0058296 0.00060349 -0.00035636 0.00084137 -0.0033363 0.0031394 -0.0010684 -0.0032628 
얼마예요? -0.0010203 -0.00032845 0.0010205 0.00052806 0.0023655 0.0025475 -0.0027876 0.0018542 0.0016931 -6.9046e-05 0.0018393 0.00086538 0.0010168 0.0031635 -0.00071099 -0.00096661 0.00021548 0.00057536 7.0203e-05 -0.0015435 -0.0025055 -0.0011348 0.0026813 9.3627e-05 6.8905e-05 -0.00095073 -0.0022598 -0.0014325 -0.0020379 0.0033977 -0.0027652 0.0035433 -0.0007426 -0.00015697 0.001305 9.0026e-06 0.0010885 -0.0015768 -0.0018271 0.0014131 -0.0013799 -0.0020819 0.00040389 -3.9851e-05 -0.00098224 -0.0010049 0.0006123 0.0013655 -0.00073351 0.00054804 0.0015499 0.0018035 -0.0032514 -0.0012814 -0.0032737 -0.0021054 0.00084699 0.0014923 -0.0011692 0.00019497 -0.00055745 0.0010474 0.00059462 0.0018556 0.00090236 0.0022041 0.0027768 -0.00023723 -0.0010128 -0.0023604 0.00071267 0.00030467 0.00016688 0.0025431 -0.0011921 -0.0011592 0.0002405 -0.0019137 -0.0001649 -0.00079339 -0.0013816 0.0023401 0.00010596 -0.00173 0.00091766 -0.001377 0.0021278 -0.00045379 0.00036405 -0.0033315 0.0034186 -0.0017539 0.0030284 0.0015838 -0.00091887 0.00044338 0.0019711 -0.0013637 0.0015454 0.002257 
얼마? -0.00048449 -0.0040785 -0.0013468 -0.0010225 -1.1968e-05 0.0014909 0.001229 0.00057234 0.00032639 0.0012319 0.0010873 0.0031024 -0.0016055 -0.0023242 -0.0036485 -0.0051891 -0.00032644 -8.0673e-05 0.0007022 -0.0035094 0.0022263 -0.0064612 -0.00076595 0.0024402 0.00060547 0.00039308 0.00035887 -0.0024935 -0.0037077 0.0036595 -0.00025119 0.0016337 -0.00060674 -0.0019081 -0.0003821 -0.0016185 -0.0030849 -0.0056133 -0.0013852 0.0046445 -0.0013668 0.0003893 0.00063488 -0.0015063 0.002919 -0.0010194 7.1667e-05 -0.0038357 0.00023243 -0.0030947 0.0050978 0.0019354 -0.0017307 -0.0032351 -0.001979 -0.0027716 -0.0018781 0.00096641 0.0017543 0.0011651 -0.0035256 0.00031234 6.5147e-05 0.001564 -0.0053508 0.00096723 0.0021756 0.002081 -0.0015108 -0.0011231 -8.5667e-05 0.0014632 0.00018715 0.0011722 -0.0011387 -0.00031399 -0.0017048 -0.00070084 0.0015229 0.00040141 0.0028875 0.0025602 0.0017078 0.00064542 0.00036956 0.0040955 -0.002495 0.00097816 -0.0010988 -0.0010521 0.0039858 0.00044498 -3.3014e-05 -0.002857 0.0041256 -8.4567e-05 -0.0032715 0.0062016 -0.00197 0.0019941 
가격은? 0.0014051 0.0043427 -0.00040169 -0.0013279 -0.0012058 0.0019003 -0.0013437 0.0034201 -4.7953e-06 0.0017231 0.00046824 0.0038406 -0.00032691 -0.0013069 0.00073221 -0.0013113 -0.00081868 0.00015098 0.0010327 -0.0037926 -0.00085712 -0.0004836 0.00018159 -0.0029613 0.00059592 -0.00071307 -0.00076678 0.0029001 0.0016077 -0.00017483 -0.00077166 0.00037834 -0.002876 0.00034461 -0.0011063 0.0022299 -0.00032526 0.0025461 -0.00045863 -0.0012521 -0.0019612 0.0031136 -0.0004794 0.0048953 0.0033629 -0.0016484 0.00071337 -0.00042373 -0.0020199 0.0019877 0.0022877 -0.0012388 0.00096956 0.0013988 -0.0025386 0.0011956 -0.0016917 -0.00027428 0.0017745 0.0049412 0.00097996 -0.0013257 -0.0016923 0.00059406 0.00057717 -0.0019572 -0.0024936 0.0030706 -0.0018383 -0.00041381 0.000375 -0.00099673 -0.0029252 -0.00086642 -0.00069655 -0.00090213 0.00037118 -0.00046499 -0.0023729 -0.0066221 0.00037302 -0.0014771 0.0014986 -0.00063459 -0.00010999 -0.0014004 0.0013346 0.00089101 -0.0013212 0.00090674 0.0016648 0.0023007 0.0012095 0.0010456 -0.0017807 -0.00077617 0.0011626 0.0001268 0.0038068 0.00032404 
가격 0.0012702 0.00088146 -0.0014675 0.0024372 -0.00091558 0.0043885 -0.0045045 0.0038401 0.0012938 -0.0047972 -0.0012331 0.00029922 0.00034532 0.00070876 0.0018721 0.0019365 0.00095292 -0.0034238 -0.0039482 -0.0025455 -0.00036477 0.00082174 -0.0021817 -0.0021568 -0.001163 -0.0044031 -0.0045925 0.00087312 -0.00081364 -0.0053907 0.001989 -0.00048595 0.0008617 0.0035732 -0.0010591 -0.00021034 -0.0028113 0.0014382 0.001722 0.0014405 -0.0056068 -0.0036877 0.00069559 0.0062237 0.0016735 0.00045036 0.0035391 -0.0019834 0.0023287 0.00019164 -0.00058009 0.00037754 -0.00011149 0.00099487 -0.0029806 -0.0020683 0.0027327 0.00099169 -0.00094406 0.0054868 0.00068289 -0.0016313 -0.0011607 -0.0012134 -0.0037623 -0.0027865 -0.0062458 0.0020368 -0.0017855 0.00036708 0.003625 0.0018447 -0.0047763 0.00084692 5.032e-05 -0.00471 -0.00050774 -0.0025692 0.0024161 -0.0027629 0.0022304 -0.0060705 -0.0022091 0.0086156 0.0027354 0.00088188 0.00056425 0.0010807 -0.0029845 0.0051731 0.0022562 0.00585 0.0043432 -0.0033421 0.0014057 0.0030717 0.0027558 0.0015522 0.0022791 -0.00075566 
알려주세요 0.0011647 0.00079216 -0.001111 0.0015775 0.00022868 0.0016353 -0.0018756 -0.001412 9.525e-05 0.00067198 0.001534 0.0032543 -0.0023871 -0.00095329 -2.0325e-05 -0.0026146 0.00093767 0.00058825 0.00017338 -0.001907 -0.0017657 -0.00068149 0.00075569 0.0020172 0.0013448 0.00037712 -0.0015871 -0.00048137 -0.0010723 0.0026796 -0.0014558 0.0013582 -0.00030774 -0.0010233 0.00068116 -8.6023e-05 -0.0019518 -0.0032264 0.00022237 0.00019141 -0.0014481 -0.00022497 -0.00010796 0.0013762 0.0014182 -0.0031382 -0.0016556 0.0004846 -0.00090933 0.00090208 0.0043073 0.00012927 0.0012542 0.00076997 -0.0041184 -0.00021391 0.00028922 -0.0015047 -0.0012455 0.0033454 0.0028568 -0.00056403 -0.00096243 0.0011093 -0.0039138 0.0007869 -0.0010059 9.8308e-05 -0.00035443 0.0017578 -0.0010479 -0.0026695 -0.0011216 0.0014117 -0.00091628 -0.0021776 -0.0012547 0.00033263 -0.0022965 0.0006478 -7.2586e-05 -0.00091514 0.0023351 0.0004153 -0.001228 -0.0015079 0.0011614 0.0016523 0.0026573 -0.0037797 0.0029676 -0.0009803 0.0019606 0.00013045 0.0021615 -0.00043196 -5.6744e-05 -0.00071287 0.0013736 -0.00073967 
얼마나 0.0018107 5.2873e-05 0.00060436 -0.00085648 -0.00069246 0.0037043 -0.00036817 -0.0011001 0.00093854 -0.00071762 0.0023693 0.0030061 0.0015509 0.00043013 0.0019307 -0.0016416 0.0005283 -0.00014921 0.00051283 0.0012294 0.00081971 -0.00038761 0.0003398 0.00085583 0.002929 0.00065732 -0.0007873 -0.0033424 -0.00045396 -0.0012948 -0.0021513 -0.0018441 -0.0037612 0.00071703 -0.00050199 0.00050536 -0.0024243 -0.0041146 -0.00098037 0.0020297 -0.00058206 0.0025748 -0.0016923 0.0023731 -0.0012616 -0.0029579 -0.00055374 -0.0010342 -0.0025339 0.00043026 0.001487 0.0010579 0.0020264 4.1725e-05 -0.0034952 0.0015071 -0.00029271 0.0027589 -0.0030755 0.0017868 0.0014121 -0.0023892 0.0010092 0.0040193 7.908e-05 0.0032168 0.0053679 0.0011904 -0.0026066 -0.0016139 0.0014285 -0.0016023 -0.0013543 0.00028112 0.00070135 0.00054999 0.00043091 0.0033383 -3.0145e-05 -0.0011193 -0.0011302 -2.3706e-05 -0.0012015 0.00016503 -0.00016691 0.0008339 -0.0011494 0.0024547 0.0011867 -0.0023746 0.0025272 -0.0017057 0.00097693 0.002491 -0.0012887 -0.0021357 0.0013813 -0.0020377 -0.00011735 0.0022029 
냅니까? 0.002389 0.0020203 0.00086609 0.0018588 0.0018199 -0.00038941 0.0011955 0.0016711 -0.001151 0.0011981 0.001803 0.00043862 -0.00061288 -0.00030251 0.00029824 -0.00023485 -0.00029967 0.0040963 0.0018809 0.0010391 -0.0010709 -0.0012171 0.00032157 0.00061771 0.0004529 -0.002161 0.00055416 -0.00061018 0.0011153 -0.0013031 -0.0029675 -0.0011574 0.0011622 0.0010973 0.00061644 -0.00094904 0.0017396 -0.0030842 3.9466e-05 -0.0021681 0.00045758 0.00041258 0.00035689 0.00015374 -0.0035129 -0.0027101 0.0012687 0.0020339 -0.00051258 0.00034794 0.00012796 -0.0010039 0.002416 0.0013679 -0.001335 -0.0022611 -0.00067874 0.00039777 -0.0011153 0.0013317 0.0012534 0.00046449 0.0010529 -0.0005177 -9.1919e-05 0.00045219 -0.00091795 0.0026785 -0.0012625 -0.00051395 0.00014858 -0.0022126 0.00036358 0.00070081 -0.0025373 -0.0013476 0.0022742 0.0036763 8.2501e-05 -0.00088351 0.00025112 -0.0013449 -0.0016629 -0.00056657 0.0013312 -0.00061841 0.00097845 0.0020558 -0.00034541 -0.00050317 0.0031896 -0.0041769 0.0037842 0.00057367 -0.00034254 -1.5034e-05 0.00029294 -0.0032522 0.0013828 -0.00029462 
