50 100
</s> -0.0083001 0.0078339 -0.0062069 -0.0020408 0.0048703 0.0012084 0.0061908 0.00023527 0.0099031 0.0093317 -0.0014795 0.0030599 0.0092305 0.0071609 -0.0041207 -0.0017065 0.00029847 0.0057941 0.00088606 -0.0081281 -0.0013555 0.0068989 0.0054572 -0.0061622 0.0056072 -0.0063736 0.0015824 -0.0037172 -0.0017611 0.0098462 -0.0067203 -0.0033047 -0.0084771 -0.0065105 -0.0092544 -0.00065157 0.0034815 -0.0086651 -0.0022042 -0.0066923 0.0098163 0.0074118 0.0034533 0.0017551 -0.0048999 0.0018609 -0.0045655 -0.0045898 -0.0080822 0.0026511 -0.0069753 0.008977 -0.009148 0.004701 -0.00069031 -0.0055481 0.0014291 0.0020916 0.0039594 0.0032945 -0.0065271 0.0050313 0.0064976 0.0050616 -0.003618 0.0006494 -0.0070504 0.0058515 0.0082499 0.0058876 -0.0098122 0.00020115 -0.0040886 0.001198 8.3023e-05 -0.0037997 0.0096526 0.0092902 -0.0010296 -0.0039287 -0.0088763 0.0060398 0.0096757 -0.008977 -0.0052043 -0.0079057 0.0006954 0.00042852 -0.0033993 -0.0036456 0.0095573 0.0047028 0.0090719 -0.00901 0.0014503 -0.0087836 0.0062333 0.009584 -0.005483 -0.0018715 
? -0.0029795 -0.0017381 -0.00063675 -0.0018812 -0.0013771 0.007755 -0.0038075 0.00321 -0.0062568 0.00086448 0.00071986 -0.0065216 -0.0073423 -0.0032758 -0.0033414 -0.0056894 0.0063495 0.0042881 0.00025065 -0.0042971 -0.0070455 0.0019035 0.0024395 0.0042663 -0.005062 -0.0080167 -0.0046715 0.0022432 -0.0040574 -0.0040476 0.00097936 -0.0013446 0.0059603 -0.0037396 -0.0034855 -0.00038926 0.0014163 0.0017698 -1.6559e-05 -0.0047766 -0.0068716 0.0089712 -0.0052001 -0.00076065 0.0019285 0.0022113 0.0070119 0.0012155 -0.0054263 -0.0014451 -0.0043404 -0.005057 0.0048966 0.0053897 -0.00048082 0.0051397 -0.004655 -0.00046035 0.0033972 0.00011709 -0.0010451 0.0052509 0.0038218 0.0069129 -0.00010359 -0.0053093 0.00041803 -0.0030566 -0.0058432 -0.0053984 0.0032756 0.0058204 0.0014279 -0.0077947 -0.0046916 0.0030178 0.0030237 0.003743 -0.00014061 0.0054519 0.002437 -0.0073237 -0.0010206 0.0060995 0.0067943 0.00044271 -0.0058448 -0.0048148 -0.0010015 -0.00083087 -0.0032118 0.0023051 0.00077722 -0.00034672 0.006292 0.0038534 -0.00022611 -0.0022967 -0.0062108 -0.0027202 
주문 0.005946 -0.0032116 -0.0015395 0.00050172 -0.0036471 -0.001365 -0.0010204 -0.00028076 0.007471 -0.0011677 -0.0011422 -0.0017091 -0.0002767 0.0008146 -0.00082772 -0.0012106 0.0026089 0.0034134 -0.0055582 0.0052514 1.7444e-05 -0.0013446 -0.0052464 -0.0034371 4.0663e-05 0.00058042 0.00034165 -0.001694 -0.0024487 -0.003218 9.6605e-05 0.0055265 0.002334 -0.0018516 -0.0047821 -0.0034958 -0.0050474 0.0020387 -0.0016194 0.00012765 -0.00096981 0.00014468 0.0020404 -0.00019311 0.001533 -0.0015949 -0.00086359 0.0047229 -0.0022036 -0.00055704 -0.00074004 0.0028716 0.0039272 -0.0027185 -0.0046884 0.00063319 -0.00038972 -0.00067127 -0.0031203 -0.00088882 0.0047828 -0.0016128 0.0057857 0.0032539 0.0010898 0.002762 0.0017359 0.000154 0.00065861 -0.0085786 -0.0034062 -0.00063873 0.0023996 -0.0029718 0.0015211 -0.0014437 0.0048848 -0.0051686 0.0022163 0.0010758 0.0025455 0.001949 -0.0013042 0.00020303 0.0023702 -0.0041131 0.0022087 0.0042254 0.0026545 0.0002742 -0.002607 -0.0010014 0.0034 0.0020913 -0.003419 -0.00054064 0.0024745 0.0046228 0.0019478 0.0038313 
피자 0.00050878 0.0032343 -0.0021557 -0.0030361 -0.0026646 0.0044858 -0.002326 -6.0469e-05 -0.0030869 0.0024555 -0.001299 0.0074947 3.3271e-05 0.00051747 -0.0011279 -0.0012861 0.00033332 -0.0043245 0.0069913 -0.0010235 0.0017668 -0.0016547 0.0021347 -0.0045765 -0.0037437 -0.0014569 -0.00089392 -0.0041556 0.0011055 -0.0018331 0.0011816 0.0025457 0.001303 0.0025374 -0.0011376 0.0017162 0.0035739 0.00069102 -0.0026288 -0.0014845 0.0037729 2.1919e-05 -0.0030092 -0.00070342 0.0024572 0.00077797 0.0029251 0.0027406 0.0028241 0.0067946 -0.0029955 -0.007285 7.9634e-05 0.0048892 0.0017206 0.0015063 0.0011761 0.0033616 0.0044764 0.0027709 0.002243 0.00048604 0.0055361 -0.0018121 0.00095662 0.0048702 0.0028119 -0.0026016 -0.0047212 -0.002231 0.0046854 0.0018505 -0.00015271 0.0040832 -0.00046616 0.00070949 0.0042488 0.0018388 -0.0011266 -0.0045877 0.001939 0.0011956 0.0019881 -0.0039179 -0.0012469 0.001972 0.00054189 0.0023762 0.003118 -0.0049907 0.0003115 -0.00049024 0.003376 -0.0039087 -0.002974 -0.0065967 -0.00079177 0.00048621 0.0010003 0.00010176 
수 0.0021584 -0.0018492 -0.0012026 -0.0031258 0.0064652 0.0014661 0.0056561 -0.0088058 -0.0016911 0.00044793 0.0002178 -0.0022494 0.0011107 0.0045885 -0.00016887 0.0038961 0.00072139 -0.0037447 -0.0022453 0.0063821 0.0040397 0.0013849 0.002233 -0.0061311 -0.0011802 -0.0030083 0.0048323 0.0005798 0.0083369 0.0052309 0.0027092 -0.00065475 -0.003251 -0.0025516 -0.0026268 0.0046264 -0.00096554 0.0036891 0.00065523 -0.003192 -0.002725 -0.005837 0.0059024 0.0069138 0.0019504 -0.0088617 -0.00046333 0.004599 0.00014895 -0.0019361 -0.0060467 0.0063771 0.0052876 -0.00093537 0.0088403 0.00533 -0.0028244 0.0039616 -0.00832 0.00021867 0.0018201 0.0022348 0.002764 -0.002222 0.0017388 -0.0020457 -0.0018539 -0.00097278 -0.005763 0.0010732 0.0007712 0.0037999 -0.0033718 0.00030358 -0.0063405 -0.0036121 -0.0060177 -0.0016309 0.0021388 0.0020363 0.00089503 0.0015386 0.0036447 0.0011401 -0.0029331 -0.0024765 0.00027485 -0.0010731 0.0019586 0.0076783 0.0030056 0.00047582 0.0034141 -0.0049045 0.0026922 0.0025661 -0.0003393 -0.001288 0.00031778 -0.0075661 
. 0.0049073 -0.0024426 0.0053228 -0.0050232 0.0034889 -0.0018158 -0.0030696 -0.001138 -0.0026687 0.00012762 0.0025907 0.00662 -0.0035951 0.0037784 -0.0081971 0.0018996 -0.0069298 -0.007299 -0.0009768 -0.0063367 -0.0046797 0.0037557 0.0038543 0.0016787 -0.00083108 0.00087938 -0.0026036 -0.0048246 -0.0061256 -0.0029586 -0.0056894 0.0032625 -0.0070639 0.001307 0.00033322 -0.0018514 -0.0016736 -0.0017199 -0.004205 -0.00052577 0.001392 0.0011526 -0.0057862 -0.00049684 0.0045471 -0.0040065 -0.0036969 -0.004299 -0.0048184 0.004912 -0.006988 -0.0053685 -0.0048656 0.0080892 -0.0021169 0.0028507 0.0049509 -0.00089294 0.0016372 -0.0034791 -0.0012216 0.0017365 0.0075543 -0.0021453 0.00068884 0.0059819 -5.1947e-05 0.00054589 -0.002696 0.0041855 -0.0052945 0.0039493 0.0022672 -0.0037697 -0.0032287 -0.0006951 0.00047099 -0.0041122 -0.0061403 0.0013204 0.0070649 0.0012841 0.0040142 0.0086356 0.0051042 -0.001841 -3.6634e-06 -0.0030323 0.00034156 0.0021116 -0.0016911 -0.003983 -0.0016245 -0.0022961 0.00059062 0.00059898 -0.0065843 0.0042319 0.0010676 -0.0051998 
가격 -0.00040345 -0.0013855 -0.0041713 -0.00075151 -0.0022008 0.0054348 -0.0044788 0.0022071 -0.0043868 -0.00033793 0.0013671 0.0025296 -0.0044446 -0.005109 -0.00052926 0.0049761 -0.0016688 0.00026412 -0.00018544 -0.0019783 -0.0010364 0.0038688 -0.00061453 0.0010487 -0.0048041 -0.00156 -0.0057564 0.0037876 -0.0025374 0.0014256 -0.00048735 -0.0031081 -0.0014103 0.00052939 -0.0045332 0.0021636 -0.0001375 0.0025291 0.00018409 0.0046182 0.0028335 -0.00044087 0.00042733 -0.0018963 0.0036101 -0.0032391 0.0038494 -0.0016392 0.0053048 0.0011198 0.0015835 0.0022029 0.0011593 0.0036303 0.0029993 -0.00592 0.0013356 -0.0053181 0.0019694 -0.0010967 -0.0040406 0.0034734 -0.0016803 -0.0041372 -0.0030182 -0.0017626 -0.0046533 0.0016373 -0.0013931 0.003549 -0.0021947 -0.0023499 -0.0031761 0.00098434 0.0054983 -0.00059006 0.0018874 -0.00080581 0.00013961 0.0026185 -0.0028376 0.0033529 -0.0040423 -0.003015 0.0037952 -0.0022699 -0.00075635 -0.0011219 0.0016496 -0.0012121 0.001932 -0.0028997 -0.001749 0.0028599 0.0038893 -0.0028321 -0.0047489 -0.0029451 0.0078482 -0.0045584 
가능 -0.00014542 -0.0011392 -0.00088597 0.0026651 0.0038918 -0.00050708 -0.0037699 -0.0038733 0.00065463 -0.00010482 0.0021621 0.00075794 -0.0062968 -0.00099008 0.0042971 0.00070737 0.00083125 0.0014917 -0.0013255 -0.0010789 -0.0049422 -0.0016683 -0.00056146 0.0011878 0.00040701 -0.0007665 0.00064401 0.0030968 -0.0013462 0.0038044 0.0003529 0.0041819 0.0058311 0.0032258 -0.0015236 0.00044716 0.0064567 -0.0031699 0.0021322 -0.0015067 0.00080774 -0.00032003 -0.0009636 -0.00034007 -0.0017395 0.0030708 0.0031111 -0.00051704 0.0013946 0.00049062 0.00091975 0.00037228 0.0029995 0.0032108 -0.0015314 -0.0019078 0.00057169 0.0019838 -6.7958e-05 0.0013785 0.0035459 -0.0023624 0.00042969 0.0015263 -0.0040603 -0.00046123 0.0023939 9.6223e-05 0.0010092 0.0024344 -0.0035681 0.0053538 -0.00066737 0.0026044 0.0031186 0.0023851 -0.0016348 0.0011852 -0.00063877 -0.0036811 -0.0013837 -0.0033813 0.0025058 0.00083097 -0.0025874 0.00042357 0.0051607 0.0040789 -0.00097078 -0.0033332 0.00574 -0.0040612 -0.0038301 -0.0020334 -0.0050256 -0.00040783 0.00066709 0.00049344 0.0031548 -0.00396 
부탁해 0.00056434 0.00035253 0.0019868 -0.0010629 0.0028876 -0.00098866 -0.0014679 0.0027009 0.00014658 -0.00076888 -0.00087029 0.0022203 -0.00062631 0.00046542 -0.001319 -0.00028994 0.0033905 0.0025095 0.001777 -0.0010834 -0.0024946 -0.00034505 0.0023916 -0.0021099 -0.00096394 0.0032735 -0.0018607 0.00066884 0.00085465 0.00046955 -0.0015477 0.0047019 -0.0040188 0.00073114 0.00056601 0.0020844 0.00043132 -0.0036826 -0.0047794 0.0014998 -0.0049914 -0.0010593 0.0015125 -7.4382e-05 0.0042381 0.00072412 -0.0023185 0.0021239 0.0020863 -0.0017754 0.0013363 0.0022538 -0.00021376 0.0031096 0.0023894 0.0035991 0.00083757 0.0038548 -0.0013233 0.00063409 -0.00045883 -0.0013705 0.0029204 0.00092006 0.0020789 0.0019753 -0.00099131 -0.00043881 0.0020366 -0.0034333 0.0041711 -0.0032186 -0.0050059 0.00023958 0.0032635 0.0025672 0.0042004 0.0014377 0.0015432 0.0010965 -0.0028608 0.0018729 0.0012723 0.0021571 -0.0019413 0.0052086 -0.0021936 0.0025744 -0.0024236 0.0028221 0.000498 0.0041986 0.0047276 0.0033806 0.00058692 -0.00075564 0.0028135 0.0026948 -0.00033782 -0.0023732 
할 -0.0060908 0.00094132 -0.00052585 0.0067746 0.0030829 0.0066315 0.0045593 -0.0023652 -0.00071286 -0.0028065 -0.0041254 -0.0035762 0.00082684 -0.0093803 -0.0049802 0.0014786 -0.001881 -0.0051249 0.0053706 -0.0050492 -0.0034638 -0.0055907 0.0005503 -0.0067093 -0.0068546 0.0016402 0.0013813 -0.0034642 0.0047764 0.0014601 0.0030609 -0.0032961 0.0036619 -0.0033037 0.0023703 -0.0021319 -0.0024093 -0.00035735 0.0011825 -0.0044512 -0.0026713 0.0036539 -0.0013507 0.005673 0.0030979 0.00085463 0.004724 -0.0038731 -0.0030283 -0.0039721 -0.0048957 -0.0080299 -0.0025816 -0.0018769 0.003952 0.0002847 0.00093528 0.0062826 0.0037101 0.0077239 -0.0029725 0.0033081 -4.4441e-05 0.0025371 -0.0057617 -0.0021981 -0.0047541 0.0074622 -0.0015558 0.0059332 -0.0028961 0.00054581 0.0042901 8.5504e-05 -0.004647 0.0019615 -0.0053135 0.0027766 0.0056014 -0.0026681 0.00028584 0.00077397 0.0060128 -0.002515 -0.0020751 -0.00012156 -0.00010743 0.0035447 0.0021122 -0.0044196 -0.0037574 0.0025135 0.004881 -0.00082923 -0.002661 -0.0018799 -0.00095586 -0.00051842 -0.0058655 -0.0040411 
배달 0.00062357 0.0057137 -0.0006155 0.0014049 -0.00075031 0.0033908 -0.0035155 0.0039385 -0.0027257 0.0013842 0.00075742 -0.0018005 0.0040832 0.00039573 -0.00097836 0.0042563 0.0056936 -0.0023637 0.0022492 0.002873 0.0018943 -0.0022936 0.002095 -0.0059425 -0.0052884 0.00053078 0.0014891 -0.0038811 -0.00084404 -0.00079139 0.0022362 -0.0024124 0.0020694 0.00080257 0.0036187 -0.0054316 0.0029216 -0.0014924 0.0012872 -0.0072845 -0.00076009 -0.0050846 -0.00087264 -0.0032201 0.00061565 0.0036161 0.00091158 0.0012306 -0.0046583 0.0034881 -0.0066432 -0.0051479 0.0052271 0.005642 0.00029363 -0.0048215 -0.0038364 -0.00016834 -0.00095091 0.0014439 0.0034074 0.0013084 0.0033869 -0.00092448 -0.00069407 0.0044163 0.004198 -0.0019386 -0.0045402 0.0046853 0.0025804 0.0043494 0.0020409 -0.00067816 0.0012175 -0.00044734 0.0034649 0.0017851 -0.0020245 -0.0054264 -0.0019825 0.0045506 -0.0030422 -0.0048111 0.0039223 -0.0011015 7.9528e-05 -0.00058768 -0.0025915 -0.0025974 -0.0024582 0.00086665 0.0022587 -0.004183 -0.0038308 -0.0021257 0.00045922 0.0017137 -0.00055279 0.0004133 
주문하고싶어요 0.0019143 -0.00076573 -0.00094556 0.00062366 -5.6702e-05 0.0031392 0.0013214 0.00094826 -0.00087779 -0.0013432 -1.2561e-05 0.0011822 0.00043748 0.0006982 -0.00018376 -0.0015939 0.001143 -0.0012475 -0.00051332 -0.00034729 -0.00094009 0.0028359 -0.0011536 -0.0019009 0.00014649 -0.00077546 -0.0040183 -0.00011147 -0.0009372 0.0020699 -0.0010587 0.0022705 -0.00089144 0.00052145 0.00057853 -0.00069564 -0.0010355 -0.0019343 -0.00043508 0.00067451 -0.0024285 -0.00047305 0.00036155 0.0012274 0.00023066 -0.00061025 0.0009401 -0.00062421 -0.00051935 -0.0019685 0.00036661 0.00079112 2.3369e-05 -0.0012002 -2.5705e-07 -0.00018856 -0.0016685 0.00084321 6.457e-05 0.00085961 0.0033749 0.0015933 0.0020908 0.00036971 0.00027717 0.00093644 -5.6969e-05 0.0015204 -0.0018088 -0.00033342 -0.00027072 0.001389 0.00096182 0.0031353 0.00306 -0.00079562 0.0016143 -0.00054072 4.7023e-05 -0.00055056 0.00015716 0.0011682 -0.00047986 0.0019047 0.0030051 -0.0012938 0.004204 -0.00045798 0.000787 -0.00081136 -0.0019564 -0.00082547 0.001913 0.0020654 -0.0018415 -0.001082 -0.0015743 -0.00032667 -0.00058511 0.0012755 
하고 0.00023788 -0.0038502 -0.0029184 -0.0010838 0.0040247 -0.0019069 -0.0074335 -0.001447 -0.0004911 0.0014536 0.0013282 0.0030904 0.0031698 0.00020986 -0.0044246 -0.0046235 -3.3966e-05 0.00046171 -0.0042445 -0.0033253 0.0017453 0.00015445 0.00016362 0.0014556 0.0022106 -0.0043464 0.0033684 -4.9089e-05 0.006462 0.00088344 0.0027933 0.0019396 0.0038871 0.0038618 -0.0024427 0.0017416 0.0044242 -0.0020457 -0.00032706 -0.0010073 0.0050485 0.0022051 0.0035569 -0.00092608 0.0044394 2.5358e-05 -0.0024 0.0049747 0.0051062 -6.5678e-05 0.0027565 -0.0073723 0.0036621 -0.00014057 0.0010784 0.0020256 -0.001388 -0.0029785 -4.3892e-05 0.0018926 -9.6889e-05 0.0018529 0.0025918 0.0029756 -0.00074728 0.00021696 -0.0014048 -0.0019247 0.0014339 -0.0016127 0.0017229 0.00031496 -0.0012515 -0.00050072 -0.00072101 -0.0010373 -0.00039397 0.0011817 -0.0020813 0.0027635 0.0032499 -0.0011637 0.0047296 0.0011177 -0.0038669 -0.0013731 -0.002364 0.0035704 -0.0038454 0.00074307 0.0057203 -0.006496 -0.0052391 -0.0061129 -0.0023899 -0.006668 -0.0028198 -0.0015454 -0.0012263 -0.0025804 
싶어요 1.3799e-05 -0.0022762 -0.00091957 0.0035094 0.0039557 0.0023726 -0.00099384 0.00024627 0.00036521 -0.00092179 0.0031619 -0.00041628 0.00064839 0.0028078 -0.0058524 0.0021064 0.0034169 0.0055948 -0.0019389 -0.0020272 -0.0058186 0.0010143 -0.0016844 0.0017398 -0.0028866 0.0011976 -0.00087267 0.0019261 -0.0019833 0.0034036 -0.0029541 0.0010224 -0.00060423 -0.00049789 0.00079954 0.0017265 0.00067658 -0.0018523 -0.00040934 0.003133 0.0015597 -0.0034862 0.0031063 0.0012537 0.00068929 -0.004026 -0.00093587 -0.00055954 0.0022005 -0.0025708 0.00057756 0.001882 -0.0025176 0.0025157 -0.0020759 -0.0023507 -0.0032746 -0.0034082 -0.00021733 0.00023871 -0.0018695 0.00014516 0.0047446 0.0046946 0.0036298 -0.0039778 0.0032693 -0.0013393 -0.0016787 -0.0019533 -0.00083519 -0.00083002 -0.0012592 0.003027 0.0019996 -0.0025021 0.00069059 -6.9125e-05 -0.00047434 -0.00033566 -0.0010929 0.0025148 -0.0035593 0.0015329 -0.0002985 -6.3388e-05 0.00059023 0.0013823 -0.00034487 -0.0020365 -0.00053863 -0.0024028 0.0026599 9.0326e-05 -0.00096329 0.00098899 -0.0012634 -0.0033225 0.002923 -6.4289e-05 
주문가능 0.005129 -0.0010823 0.00027811 -2.4624e-05 0.0012081 -0.0015014 -0.0012088 0.00060031 0.00076664 0.0015623 -0.0024356 0.0034714 -0.00037483 -2.1115e-05 0.00012637 -0.0018538 0.0001226 0.00082625 -0.0043513 0.0020579 -0.00042888 -0.00015778 -0.0008156 -0.0019535 0.00023014 0.0016455 0.00028723 -0.0014961 0.0013805 -0.00014289 -0.003184 0.0009174 -0.0017961 -0.00039304 0.0023096 0.00017374 0.00034379 -0.0029276 -0.0040417 -0.00046555 -0.0023186 0.00054835 0.0011372 -0.0021734 -0.0012073 -0.0015816 -0.0020987 -0.00014357 0.0019383 -0.0030391 -0.0001509 0.0012782 0.0017825 5.3137e-05 0.001616 0.00066039 -0.0020128 0.0032704 -0.00096226 0.0014885 0.0015589 -0.0016197 0.0012746 0.00057654 0.00094699 -0.0019262 -0.0020601 0.0015975 -0.0010223 -0.0023678 0.0013716 0.0012067 -0.0026323 -0.0025927 0.0020672 -0.00058348 0.0055126 0.0021765 0.0025788 0.00051204 0.0023729 0.0023965 0.0013582 0.0022053 -0.0020226 0.002471 -0.00091581 -0.00031841 0.0011587 -0.00034988 0.0017949 0.0039583 0.0025161 -0.00046068 -0.00069185 -0.0034163 0.0020555 0.0030713 -0.0013396 -0.00024565 
주문이요 -0.00033318 -0.00097758 -0.0033329 0.0006441 0.00012803 0.00054077 -0.0028675 0.00072084 -0.00078816 -0.00056651 -0.00032073 -0.0015178 -0.00036211 0.00052479 -0.001244 0.0003753 0.0024771 0.001713 -0.00078313 -0.00087337 0.0013062 0.0012266 -0.0010363 -0.0012006 -1.2207e-05 0.00071733 -0.00012421 0.0010153 0.00078995 -0.0014873 -0.00042789 -0.0014867 0.0020726 -0.0021997 -0.0015455 -0.0016578 -0.00011724 -0.0030781 0.0017453 0.00089795 0.0017841 0.0025494 0.0015308 0.0019737 -0.0012378 -0.00065034 0.0014375 0.0034642 0.0011818 0.0026803 -0.0013886 0.0011414 -0.0030571 6.2417e-05 -0.0019475 -0.00025789 0.001391 0.00032477 0.0022136 0.0010628 0.0034755 0.0003658 0.0022876 5.2632e-05 0.0013668 0.0020359 0.0019354 0.0019662 -0.003504 0.0015735 0.00081459 -0.0022696 -0.0038047 0.00034511 0.0015601 5.2365e-05 0.00061234 -0.0027211 -0.00088691 0.00057438 -0.0011549 0.0043623 0.00020804 0.0017424 0.0025724 -0.001761 0.0035999 0.00034508 0.0016285 -0.0031231 0.00058325 0.00023605 0.0024511 -0.0038202 -0.0011394 -0.00079821 0.0021173 0.0012228 0.0011375 0.0044929 
! 0.0012766 0.0041146 -0.0047138 0.0021991 -0.00045598 0.0055437 -0.0067395 0.00022165 0.0020757 0.0034363 0.0015281 0.0064834 0.00020971 0.0044703 -0.0013565 -0.0013538 0.0030549 0.00032471 0.0011947 -0.0018527 0.0023597 0.004242 0.0060792 -0.0016972 -0.0041918 0.0038349 -0.0012487 -0.0024518 0.0025062 -0.00053663 0.0031302 -0.0019017 0.0052604 -0.0027593 -0.006276 -0.0045148 0.0033949 -0.0065877 0.0062182 -0.0041465 0.0004482 0.0041796 0.0053935 0.0057177 0.0061256 0.0062863 0.0027483 0.007332 0.0052989 0.0032592 0.0028246 -0.0037506 0.0031006 0.00030039 0.0022679 -0.0010013 0.001788 -0.0021738 -0.00016986 0.0032479 0.0069196 -0.0048355 0.0067526 -0.0013375 0.0029147 0.0058665 0.0061718 0.00098002 -0.0024148 0.001578 -0.00024615 0.0031311 0.0043574 0.0071282 0.006104 0.000946 0.0058732 -0.0033836 -0.00097045 -0.0017747 -0.0048008 0.0012433 0.00044108 0.00041402 -0.00033525 0.0028802 -0.0050145 -0.0054645 0.006926 -0.00015346 0.0038082 0.0032745 0.0037823 0.00050741 -0.0031092 -0.0093974 -0.0046195 0.0045242 0.0039793 -0.0030353 
주문하겠습니다 0.0011732 -0.00096715 0.0017207 0.0010656 -0.0011565 0.00033725 5.9915e-05 0.0026742 0.00067834 -0.0019577 -0.0018511 -0.00026524 0.00076965 -0.00078559 -0.00070386 0.00027383 0.0026496 0.0010335 -0.0003328 -0.00060062 -0.00081126 5.005e-05 -0.00089301 -2.889e-05 0.00082569 4.8313e-05 8.7031e-05 0.00022249 -0.00027099 2.9888e-05 -0.00023954 -0.0018941 -9.6897e-05 0.0020092 -0.0017616 -8.3566e-05 4.9468e-06 -0.0014366 -0.0010162 -0.001676 0.0017831 0.00029371 8.3101e-05 0.001073 0.0014144 -0.0003888 0.00074532 0.00091722 0.0010733 0.00018493 -0.00023373 0.00017497 -0.00060044 0.00030478 -0.00061952 -1.4131e-05 0.0015612 0.00067191 0.00015644 0.001649 0.0020262 0.00019681 -0.00018789 0.00028681 0.0010017 0.0009845 0.0006519 -0.00027469 -0.00075537 -0.001098 -0.00093878 -0.00029158 -0.00032805 0.0012026 0.00098007 -0.00036529 0.0024526 0.0011126 0.0020698 -0.00024875 0.00045489 -0.0015554 -0.001393 0.0022919 -0.00038889 -9.082e-07 0.0021844 0.0013131 0.0013422 -0.0022646 0.0021138 -0.0006183 0.0014839 -5.5058e-05 0.00039801 -0.00073196 0.00080646 0.00010702 -0.0011369 0.0016757 
주문부탁드립니다 0.0015995 0.0020534 -0.00080186 0.001434 -0.0010956 -0.00071817 -0.00024941 0.0024933 0.00042424 -0.00066432 -0.002363 0.00058872 -0.00081877 -0.00064155 0.00056603 -0.0013775 0.00024469 0.0011648 -0.001322 0.00063122 -0.0012842 -0.00083645 0.00083524 0.00067699 -0.00078242 0.0008491 0.0022019 -0.0027175 -0.00060552 0.0012923 0.0016068 0.00040245 -0.00061686 -0.0014397 0.00045749 0.00027562 -0.0016799 0.00030823 -0.0010607 -0.0014893 0.0016827 -0.0003369 -0.0015938 0.0013796 0.00030542 0.0014712 0.000808 0.0003388 0.0013647 -0.00091041 0.00024208 -0.00027546 -0.0012019 0.0022458 -0.0026359 -0.0017128 0.0021241 0.0021034 -0.0024539 0.00093484 0.0011527 -3.5051e-05 -0.00062438 -0.001146 0.0016052 0.00081329 -0.0019553 -1.1186e-05 -0.001743 5.6045e-05 0.0009054 0.00089968 -0.0010645 0.00055376 0.00065936 0.00066597 0.0025451 0.00053899 -0.00071164 0.0011799 0.00057087 0.00060421 -0.00039386 0.0011078 -0.00047663 0.0007208 0.00036199 0.0011791 0.0011351 -0.00030598 0.0015226 0.00035301 0.0020765 -0.00048736 -0.0022845 1.646e-05 -7.1696e-05 0.00014461 -0.0011565 -1.8697e-05 
있을까요 0.002791 -0.00026087 0.002027 -0.0010172 -0.00052562 -0.00057256 0.00015181 0.0013467 -0.0016125 0.00088666 0.00029057 -0.00075415 -0.0014757 -0.0047009 0.001119 0.0025198 0.00064192 -0.002432 -0.0016611 -0.0022565 0.0014673 -7.3382e-05 0.0005983 -0.0019234 -0.00044613 0.00015377 0.00077935 -0.00036821 0.00065275 0.00036415 -0.0012975 0.00060765 -0.0047338 -0.0012312 -0.004406 -0.0010239 -0.0038721 0.0014153 0.00018744 0.00062495 -6.0731e-05 -0.00020311 -0.00078056 0.0021884 0.0012266 0.00073556 0.0017743 0.00078818 0.00063139 -0.00048391 0.0004024 -0.0029843 -0.00060814 0.00060474 0.00016669 -0.0006334 0.0015954 0.0018025 -0.00091668 -0.00095793 0.0027385 -0.00049488 -0.001498 -0.00059582 -0.00049593 -0.001703 0.00063614 0.0018049 -0.0031623 0.00013133 -0.0003435 -0.00027433 0.0010476 0.00072425 -0.00069076 -0.001473 0.00012126 5.8461e-05 0.0030389 6.7148e-05 0.0017945 -0.0017689 -0.0030996 0.0015196 0.0010341 0.0023077 0.0036586 0.0031471 0.0024599 -0.0023592 -3.0127e-05 0.00094844 0.0016602 0.00043942 -0.0013802 0.00028681 -0.0039192 0.0027752 -0.00021211 0.0014029 
있어 0.00062294 0.00067802 -0.0010009 -0.00054385 -0.0068797 0.0060444 0.0015453 -9.6915e-05 0.0053635 -0.00077886 -0.00095843 -0.0013406 -0.0022786 -0.0015315 0.0015387 -4.9486e-05 0.0021763 -0.0026573 0.0018568 0.00085363 -0.0075844 -0.0017215 0.0040703 0.0028104 0.0031559 -0.0047863 -0.0051694 0.0044006 -0.00042621 -0.0016229 -0.0010686 0.00060818 -0.0034662 0.0025438 -0.0032363 0.00069326 0.0013329 0.0054336 0.0038066 0.0042229 -0.00059639 0.0027371 -0.0019204 0.0064684 0.005325 0.00094832 -0.0030539 0.001333 0.0017448 0.0020089 0.0019352 -0.00060614 -0.00056626 0.00096079 -0.0050909 -0.0014766 -0.001117 3.0817e-05 -0.0058127 0.0014805 -0.00095071 -0.001982 0.00094915 -0.0021095 -0.0027599 -0.00024206 -0.0024925 0.0034154 -0.004005 -0.0011182 -0.0030579 0.0030184 0.0042101 0.0069814 -0.0041247 0.0051364 -0.00018391 0.0018162 -0.0013871 -0.0022673 0.0033576 0.0024343 0.00077559 -0.0012196 -0.00033291 0.0033501 -0.0011896 0.0017717 0.002226 0.0010433 4.8862e-05 0.0017237 0.0042437 0.0026227 2.1501e-05 -0.00046759 0.00039922 0.003257 -0.0041902 0.0013026 
주문해줘 0.0030281 -0.00095249 -0.00060537 -0.00074088 -0.0013941 0.0020098 0.0012654 0.0027163 0.0011316 -0.00079124 0.0032003 0.003525 -0.0021825 0.0024495 -0.0016072 0.0010427 -0.00028361 0.00050819 0.0017964 0.0025842 -0.00023119 -0.00061212 -0.0014713 -0.0029688 0.0014346 0.0010254 -0.0001809 0.0026282 0.00026748 -0.0020555 -5.1906e-05 0.0010423 0.00072274 -0.0011707 -2.8728e-06 -0.00059224 -0.0033996 -0.0015664 -0.00027684 0.0023355 0.0014429 0.00091138 -0.0026074 0.0043361 0.0012295 -0.002389 -0.0027649 0.0017979 0.00044136 -0.0015411 -0.002722 0.0042133 0.0023512 -0.001232 -0.0022073 0.00088745 0.00058607 0.00088274 -0.0017339 -0.00055833 0.0031876 -0.0037776 0.0050113 -5.1505e-05 0.0018659 0.00070898 0.0029487 0.0039438 -0.00015487 -0.0029807 -0.0023364 0.0007717 0.00058455 -0.0019969 0.0010895 0.0025744 0.0025944 -0.0012037 0.0013897 -0.00078838 -0.0003933 0.0017943 0.00053731 -0.00050386 0.0033833 -0.00041281 0.0039647 0.002507 0.0017581 0.0011532 -0.00094781 -0.0017973 2.5524e-05 0.0011151 -0.002294 -0.001487 0.0017965 0.0031019 0.0012121 0.0031467 
해줄 -0.0041313 0.0047602 0.0041773 0.0042381 0.0010412 0.00029832 -0.00087239 -0.0023101 0.0032311 -0.00097815 0.00029765 0.0013791 -0.0018473 -0.0050102 -0.0017898 0.0042233 0.0074215 0.0064951 -0.00089628 0.0021847 -0.00018752 -0.00010595 -0.0035624 -0.0020397 0.0018655 0.0029605 0.0024416 0.0036108 0.00034686 -0.0024516 0.0023452 -0.00020919 0.0031863 -0.0011848 0.0025708 0.003127 0.0033785 0.0032805 -0.0021671 0.0031656 -0.0034355 -0.0022755 -0.0017595 -6.7249e-05 0.00062709 -0.0028612 0.0020871 0.0024523 0.00028094 -0.0020563 0.0069703 0.00091874 0.0045371 0.00073305 -0.0022305 -0.0068685 0.0014282 0.0040789 0.0031725 0.0016991 0.0023856 0.00021776 -0.0023779 0.00011161 -0.0020356 -0.0033588 0.0068882 0.0025299 0.0011322 0.0026595 -0.0024285 -0.0012173 -0.00082058 -0.0015201 -0.00025524 -0.00083801 0.0033315 -0.0053935 0.00356 -0.00098531 0.0014304 -0.0015804 -0.0027566 0.00085946 -0.0021286 -0.0033603 0.0047613 0.0035439 -0.00070915 -0.0034698 0.00074104 -0.0014436 -0.0022748 0.00018927 0.0058451 0.0024043 0.0023791 0.0055337 0.0027956 -0.0025426 
있어? -0.00016688 0.0045398 -0.0062077 0.0013785 -0.0025527 0.0052227 -0.0037136 0.00015238 -0.00087412 -0.0039246 0.0016139 -0.00025479 -0.00081767 0.00063653 -0.0010085 0.0019314 0.0033865 -0.0015652 0.0018244 0.0027155 -0.00070459 0.001384 -0.0038831 0.00039012 -0.0051971 0.00048321 -0.0059098 8.3938e-05 0.00010972 -0.0021394 0.0027443 -0.0038315 0.0015819 0.00048707 -0.0010306 -0.0017409 -0.00077983 0.0035951 9.121e-05 0.0031814 0.0010822 -0.0044358 -0.0027379 0.0028604 0.0037004 0.0029868 0.0025538 0.0019279 0.0035867 -0.0026608 -0.00042905 -0.001402 0.0014386 0.0050603 -0.00091733 -0.0044723 0.0018751 -0.00075679 -0.0019479 0.0021415 0.0014687 0.0034696 -0.00013643 -0.0027157 -0.00038584 -2.8804e-05 -0.0048655 -0.00028777 -0.0021899 0.0024942 -0.0011531 -0.0024162 0.0013386 0.0015927 0.00070753 0.0020772 0.0012041 -5.6801e-05 -0.0026034 0.0023733 0.00015335 -0.0022397 -0.0021128 -0.0022803 0.0020468 0.0028056 0.00069653 -0.00071218 -0.00020737 -0.0014537 -0.00014413 0.00065953 -0.0012421 -0.00075081 0.0012519 -0.0023364 -0.00025106 0.0032029 -0.00014834 -0.0028423 
ㅈㅁ 0.003985 0.0034171 -0.0023396 -0.0001287 -0.0028681 0.00388 -0.0043635 0.0016163 -0.0016171 0.00092032 -0.0028317 -0.00025826 -0.0007229 0.0011372 -0.00082967 -0.0006178 0.0024251 0.00021187 0.0057283 -0.00035694 -0.0027217 -0.0022561 -0.0019362 0.0012907 0.0027475 0.00099362 0.0010989 -0.0031475 -0.00049928 0.0025222 0.00071929 -0.0017723 -0.0013144 -0.00052903 -0.0033088 0.0016505 0.00047758 0.0020159 -0.0050101 0.0025093 0.00037667 -0.0033544 -0.0015328 -0.001067 0.0030859 0.002869 0.0032161 -0.0036039 -0.00097748 0.0031645 0.00070424 -0.00062702 -0.0018033 0.0031509 -0.0013935 0.0026607 0.0053186 -0.00066124 0.0026345 -0.0019831 0.0064871 0.00098177 -0.0035641 0.00091421 0.001629 -0.00069722 0.00027872 -0.0028398 0.00086328 0.0011415 -0.0048583 -0.0034746 0.001392 -0.0010483 -0.0072156 -0.0034596 0.0046546 -0.0017366 -0.0026048 -0.0022622 0.0032912 -0.0037828 -0.0016828 -0.0015932 -0.002066 0.0040543 0.004186 0.0019957 0.00038689 -0.0012327 0.00058826 0.0036921 0.001369 -0.0039785 0.0036879 -0.0040912 0.0016007 -0.001949 -0.0030409 0.00054215 
주문하고 0.003725 0.0008528 0.0021996 0.00033666 -0.0008828 0.0010267 -0.0015019 0.00026794 0.00095097 0.00062815 -0.00087805 0.004333 0.001342 -0.00047593 -0.00026133 0.0016056 0.0028032 -0.0017321 -0.0021497 -0.00050053 0.00042548 0.0010477 -0.0025064 -0.0030331 0.002319 -0.0010454 -0.0005027 0.0013536 -0.0002818 -0.0021126 -0.00031906 0.0011253 -0.0029816 0.0011173 -0.00073321 -0.0016298 -0.00046534 -0.0019798 -0.00031211 0.00024757 -0.0016943 0.0015452 -0.0017575 -0.002106 0.0015373 -0.00066727 0.00021077 0.00069003 0.0022086 -0.0016658 -0.001683 -0.00036108 0.0018226 0.00076631 0.00017579 0.0010265 -0.0028301 -0.00069145 0.0011513 0.0019503 0.0030045 0.0024407 0.00039803 0.00050562 -0.00056597 0.00036875 -0.00077392 0.00011382 0.0007763 0.002426 0.001088 -0.00023033 -0.0010836 0.0034705 0.0043903 -0.0009764 0.0022191 -0.0010002 -0.0015973 9.0751e-06 -9.3977e-05 0.00022869 -0.0013056 0.001367 -4.1684e-05 -0.0010937 0.0027009 -0.00034613 -0.0033081 -0.00013256 -0.0027705 -0.0021904 -0.00033731 0.0037329 -0.0016755 -0.0023549 -0.0016114 0.00070321 -0.0009918 -0.0010342 
싶어 0.0021195 0.0040665 0.0065157 0.0030688 0.00046985 0.001532 -0.0044169 0.0032307 -0.0036971 -0.00078917 -0.00078389 0.0011217 0.0020771 0.00099845 -0.0011653 0.0011564 0.005947 0.002378 -0.0027357 -0.0027529 -0.00057042 -0.0026276 -0.0057958 0.00026941 0.0029715 -0.00032642 -0.0045124 -0.0031589 0.00021176 -0.0010807 -0.0037008 -0.0011865 0.0019193 -0.00011705 0.0030006 -0.0012166 -0.00028394 -6.9803e-05 -0.00075691 -0.0045571 -0.0035075 -0.0014776 -0.0024305 -0.0009027 -0.0023672 -0.002271 0.0050196 -0.0017426 0.0022488 -0.00053116 -0.0031491 -0.00093043 0.001241 0.0030112 0.0026344 -5.7973e-05 -0.0032315 -0.0030362 0.00085254 -0.0015429 0.0043622 -0.0031709 0.0043881 0.0012658 0.0024762 -0.00057947 -0.00091336 -0.00097825 0.001482 0.0052065 -0.0044069 -0.0018893 -0.00096248 0.0018711 0.00068594 0.0022942 0.0035647 -0.0011546 -0.00031363 -0.0015233 0.0015343 0.0025916 0.0012511 0.00094826 0.00046752 0.0030831 0.0013321 0.0031464 -0.0045898 -0.00028532 0.0042312 -0.0060052 0.0055561 -0.000544 -0.00026712 -0.00031181 0.0011603 0.00074629 -0.0013759 -0.00044662 
배달할래 -0.00064276 -0.00022993 -0.00087753 0.0005944 0.0031248 0.0044009 -0.00059008 0.0044154 -0.0031848 -0.0019464 0.0018511 0.0010213 -0.0013684 0.00058488 -0.0013573 -0.00070202 0.0016516 0.0015383 -0.0019727 0.0024787 -0.0034504 0.00092558 -5.0099e-05 -0.00018395 0.00092787 0.0042393 -0.0033314 0.00014389 0.00011412 0.0030345 -0.0011408 0.0020578 -0.0008259 -0.0022523 0.0021845 -0.00057798 -0.0024004 -0.0018909 0.0024393 -0.0018548 -0.0011438 -0.0022345 -0.00087195 -6.4525e-05 0.00084839 -0.0011433 -0.00036522 0.0010088 0.0013409 -0.00047703 -4.6395e-05 -0.0011571 0.0004815 0.0016305 2.3947e-06 -0.0027361 -0.0014733 0.0013763 -0.0025845 0.00068198 0.00091154 0.0011048 0.0030667 -0.0035118 0.0018269 0.0012798 -0.00045191 -0.0022089 0.002039 0.00053909 0.0021035 -0.0050416 -0.0022124 -0.0016329 -0.00093998 0.0020475 0.0030948 9.9641e-05 -0.0010197 0.0020886 0.00025741 0.0055718 0.0022703 -0.0003931 0.0032479 0.0030251 0.0015564 0.0028059 0.002239 -0.0043285 0.00020891 -0.00014676 0.00030446 0.0019691 -0.00086745 -0.00035817 -0.00057869 0.0017338 -0.00030731 -0.0010446 
가능한가요 0.00031813 0.00053455 0.0004239 0.00014108 0.0016126 -0.0012888 0.0012596 0.0016601 0.0011386 -0.00031576 -0.002173 0.0015348 -0.00030601 -0.00071353 -0.00077571 -0.00048024 0.0022577 -0.0025794 0.00066088 -0.00089885 -0.001322 0.0010363 0.00082318 -0.0042255 0.00044233 0.0024115 -0.0038028 -0.00082291 0.0010441 0.0038371 0.00026395 0.003523 -0.00025105 0.0023709 0.00081243 -0.00024365 -0.0034557 -0.0016866 -0.00041209 -0.00051947 -0.001108 -0.0022768 -0.00071678 -0.00051426 0.0010667 0.0004498 0.0025122 -0.0012299 -0.00037856 -0.00065563 0.00096318 -0.0027345 -0.00037879 -0.0011016 7.914e-05 -0.0018357 -0.0017842 0.0013056 -0.0014555 0.0035017 0.0040532 0.0020394 -0.0028149 0.00013496 -0.0023682 -0.00031791 -0.00067504 0.0019707 -0.0020056 -0.00017416 -0.00024236 0.0022063 0.00050283 0.0020621 0.0021765 0.0018067 -0.00054941 0.0006279 -0.0025426 0.0023956 -0.0024898 0.0002457 0.0010187 -0.00047091 -0.00049713 -0.0024914 0.0025876 -0.00085608 -0.00068738 -0.00054045 -0.0025009 -0.00022792 0.0053037 0.0023535 0.00022956 0.00095799 -0.001648 0.00025105 -0.00015444 -1.1115e-05 
한가요 0.00049576 0.0033848 -0.0011343 0.0013686 0.0019217 0.0024255 0.00050868 -0.001178 0.0013312 0.00010539 0.00078517 0.0018231 -0.00050158 -0.0019933 0.0015413 0.0026627 -8.787e-06 -0.0013776 0.0014006 -0.0029134 -0.0024074 -0.0028589 0.0021909 -0.0015876 -0.0015795 0.0028506 0.00010101 0.0013411 -0.00014489 0.0050098 0.0016166 0.0017708 -0.0020141 -0.0017788 0.00011187 -4.7079e-05 -0.0021174 -0.0035479 -0.00028967 -0.0053001 0.00045108 -4.4779e-06 -0.0018314 0.0011987 0.0046978 -0.0013399 0.0025625 -4.1475e-05 -0.001451 -0.004206 -0.0032966 -0.0028059 -0.0039669 -0.0020966 -0.001992 -0.0017553 -0.0010588 0.0026072 -7.3461e-05 0.0080339 -0.0025697 0.0015348 -0.0011079 -0.0018528 -0.005846 0.0010433 -0.0013543 0.0031716 0.0004857 0.0046189 -0.0027566 -0.00040827 -0.0017531 -0.00078552 -0.00054355 -0.0021827 -0.00037577 0.00060069 -0.0016925 -0.0011515 -0.0035307 0.0037194 -0.00041941 0.0012307 0.0030314 -0.0023816 0.003808 0.0011965 -0.001728 -0.0041623 -0.0031343 -0.0029481 -8.8945e-05 0.0031843 0.00042441 0.00089422 0.00071269 -0.00061712 0.00033566 0.0040315 
해도 0.0025572 -0.0060845 0.0026812 0.0036466 -0.00011832 -0.0022375 0.0018267 -0.0037151 -0.0049681 0.0018823 0.0018009 0.00045277 0.00062798 -0.0040355 0.004375 -0.0021077 -0.0022359 0.0059207 -0.0021907 0.0024362 0.0023448 -0.0013854 -0.00090316 -0.0021854 0.00059628 0.0017202 0.0014722 -0.00046713 0.0029605 -0.00046355 -0.0045874 0.0062353 0.0054856 0.0034369 0.001346 -0.0005001 0.002922 -0.003137 -0.00056858 0.0010969 -0.00077859 0.003438 -0.00094261 -0.0035938 0.00072733 -0.00014306 -0.0002735 -0.0019688 0.0028319 0.00016417 0.0029275 0.00075353 0.00033921 0.0030152 0.00090067 -0.0039846 0.0020031 -0.00078246 0.0022171 -0.0027108 0.00052365 -0.0049774 0.002601 0.0010009 -0.003845 0.005917 0.0052333 0.0036957 0.002764 -5.2478e-05 0.0013261 -0.00033883 0.001722 0.0013123 0.001556 0.00011578 -0.0035676 -0.0040344 0.0033381 -0.0036448 0.00173 -0.0051935 0.0018456 -0.0064306 0.0014819 -0.0010503 0.0019577 -0.0013939 -0.004098 -0.0060619 -0.00063326 -0.0037571 0.0014507 -0.0022076 0.0015771 0.0017348 -0.0028323 -0.00095459 -0.0018699 -0.0041593 
돼 -0.0071748 -0.0059956 -0.0057215 -0.0053922 -0.0014409 -0.0067659 0.0052916 0.0042998 0.0015206 -0.0049938 -0.0015497 -0.0034323 -0.0016601 -0.0027382 -0.0057662 -0.0070826 -0.0028159 -0.0040414 -0.0027866 0.0010932 -0.0010432 -0.00067026 -0.0022667 0.001029 0.0044723 -0.0018544 -0.0012568 -0.0054389 -0.00060274 0.0082554 0.0035345 0.0011325 -0.0046836 -0.0025255 -0.0024736 -0.0012713 -0.0076973 -0.0043281 0.0053446 0.00904 -0.00090045 -0.0036071 0.0050187 -0.0044181 -0.0032693 -0.0053557 0.00063626 -0.003634 -0.0057087 -0.0029523 0.0071582 -9.0191e-05 -0.00069778 -0.0058939 0.0040265 -0.0026293 0.00041533 0.0019103 0.0038039 0.0025282 -0.00044197 0.0017182 -0.006697 0.0010956 -0.0067995 -0.00037424 0.00042204 -7.5993e-05 -0.0077182 -0.0053981 -0.0044802 0.0068079 0.0040245 0.00048698 0.000592 0.00013559 -0.0033629 -0.0031668 0.0012038 -0.0032489 0.0015446 0.00087218 -0.0052475 -0.00052937 -0.00065399 0.0013464 0.00032507 -0.0021929 -0.0038854 0.0032741 0.0029336 0.00036539 0.0040683 -0.00055883 -0.0018206 0.0046829 -0.001918 0.0032417 -0.0048221 0.0036034 
시켜줘 -0.00010437 0.0027477 -0.0012103 0.0015096 -0.0012468 0.0012365 -0.00064315 -0.00011517 -0.0022618 -0.0057203 -0.0023778 0.0015081 -0.00097723 -0.00019418 -0.0040623 0.00091827 -0.0023306 0.0024649 0.0041577 0.0032701 2.7009e-05 0.0025179 0.00017133 -0.0039811 -0.0025403 0.0010903 0.0022679 0.00067782 0.0035995 0.0020319 0.0017311 0.0019103 0.0026076 -0.0010602 0.0014549 0.0012854 -0.0011773 0.00096957 0.0007953 0.00012905 0.00071902 -0.00010655 0.0036076 -0.0008805 0.00062398 -0.00037634 -0.0011247 0.00056415 0.0020463 0.00080571 0.0024685 0.0027437 -0.0026388 -2.2956e-05 0.0020534 -0.0046816 -0.0010242 0.0031764 0.0017207 0.0019842 -0.00055068 -0.00022225 0.00090311 -0.0011159 -0.00098778 -0.0018428 -0.0014694 -0.0022755 0.0011797 7.2213e-05 0.0016347 0.0010151 -0.0015317 0.00015709 -0.001907 0.0019847 0.0046959 -0.0015439 0.0015431 0.0001701 -0.0017495 -0.00025518 0.0021348 0.0042074 -0.0022819 0.0026179 -0.0013225 0.0019842 -0.00013895 0.0033098 -0.0025403 -0.00042844 -0.0012576 -0.00049575 0.00049084 -0.00073733 -0.00272 -0.00070826 -0.00022183 -0.00070075 
시켜 0.0011911 0.00074046 -0.00091936 0.0019696 0.0034986 -0.002844 0.00098996 -0.0032967 -0.0027169 0.0028271 0.0045675 -0.0018083 0.00014937 0.00074252 0.0061353 -6.2335e-05 -0.0034686 -0.0008358 0.0013724 0.0018376 0.005984 0.0022794 -0.004685 0.00016409 -0.0010307 0.001415 1.8725e-06 -0.0040968 -0.0015968 0.003521 0.0037189 0.0022852 0.0007037 0.0015605 0.0037332 -5.7467e-05 -0.0058764 0.0025079 0.0011449 -0.0055603 -0.0036196 0.00061569 -0.002076 0.0019465 -0.0024481 0.0036567 0.0013445 0.0027128 0.0024547 -0.00050418 0.00081661 0.0036517 -0.0031619 0.00086431 -0.00090051 0.0021584 0.0002327 -0.0021807 0.0011465 0.0037687 -0.0036421 0.0031419 0.0021817 0.00047644 -0.00088808 0.0023652 -0.0011754 -0.0010224 -0.00063788 0.0045004 -0.0016872 -0.00091943 0.0086976 0.0026311 -0.0038787 0.0009304 0.0020394 -0.0013546 0.0057651 -0.0030793 0.0018298 -0.0041049 0.0026069 -0.0040752 -0.0033673 -0.0013435 -0.00064941 -0.0035939 -0.0016606 -0.0050371 -0.0075867 -0.0011963 0.0011574 0.00088847 -0.0033286 -0.0033086 0.00054027 0.0012269 -0.0049258 -0.0014245 
시켜줄래 0.0014806 0.0031547 -0.0019227 -0.00032739 0.000127 -0.0013325 4.3246e-05 0.0014589 0.00076038 -0.00094466 0.00051281 0.00066686 0.00063488 -0.0028874 -0.00082477 -0.00065842 -0.00037547 0.001526 0.0042618 0.0023326 0.00075902 -0.0012995 0.0009985 -0.0012347 -0.0025922 0.00095077 -0.00029871 -0.00071756 -0.0013341 0.0025298 -0.0011861 0.0028724 -0.0025535 -0.0030212 0.0022061 -0.00016589 3.9553e-05 0.00013601 1.8573e-06 0.003176 -0.00047854 -0.00011058 0.00085279 0.0022954 2.4181e-05 0.0026918 -0.0018152 0.0011525 -0.0012041 0.0007211 0.00086969 0.0024643 -0.0019519 -0.00069676 -0.00083178 -0.0039761 0.00018491 7.3157e-05 -0.0011912 0.0019671 -0.0024018 0.0024366 -0.00057427 0.00019348 0.0011742 0.0014772 -0.002011 0.0022128 -0.0017609 0.00097686 -0.001122 -0.00069645 0.0028043 0.00055485 -0.0010121 -0.0012206 -0.0028119 0.0017012 0.00052104 0.002897 0.00090032 -0.0017189 0.0024715 -0.0013873 -0.00086001 0.0021834 0.00028061 -0.0022896 0.0012243 -0.00041186 -0.0018287 -0.00050364 0.0018646 0.00041968 -0.0017102 -0.0016745 -0.001624 -0.00067541 -0.0026805 -4.308e-06 
피자좀 -0.0014929 -0.0033044 0.00019198 -0.0006542 -0.00016636 -6.2563e-05 0.001147 0.0012557 -0.0019498 -0.0003388 -0.00039788 0.0022311 -0.0010016 -0.0014955 -0.0012213 0.0022501 0.00089332 -0.0042352 -0.0018292 -0.00030444 -0.00086451 -0.0025172 -0.00059163 0.0013397 -0.00037939 -0.0016131 0.0010017 0.00036332 0.00016136 -0.0019293 -0.0025358 -0.0045622 1.6049e-05 0.00064195 -0.0006644 -0.0022506 -2.1385e-05 0.00055789 0.00098081 -0.0015119 0.0011881 0.0040631 0.00033204 -0.00093444 -0.00198 0.00041555 -0.0044999 0.00029783 0.0013722 0.0051948 -0.00053482 -0.00036394 -0.0035486 0.00085682 -0.0026554 0.00070658 -0.0034908 0.002387 -7.1169e-05 0.0039203 0.00061236 -0.0015316 0.0016095 -0.0029103 0.00018438 -0.0011596 0.0013487 0.0028657 -0.0011238 -0.0027325 0.00096795 -0.00070635 0.0017695 0.00049768 0.0011831 0.0042717 0.001212 0.0022297 0.0014828 0.0023147 -0.00091869 0.0034442 0.00086848 -0.001668 -0.0012105 0.0022197 0.0032409 0.00025398 -0.0023426 -0.00022308 0.00078609 0.004442 0.0053953 -0.0027298 4.7146e-05 -0.001588 -0.0032275 0.00066478 0.0011651 0.00096748 
.. 0.0064761 -0.00094941 0.0062991 -0.0028404 0.0023392 0.00056139 -8.5514e-05 0.00078557 0.0010019 0.0024264 0.007356 0.00039264 -0.0023809 -0.0016684 0.003947 0.0029736 0.0038516 -0.0010302 -0.0040665 -0.0011255 0.00073318 -0.0022354 0.0026135 0.001198 -0.00040523 -0.0039721 0.0050884 0.0032107 -0.0025601 0.0013889 0.0017422 -0.0027934 -0.0022739 -0.0024678 -0.0010406 -0.0025495 -0.0036191 -0.00094332 -0.0033984 0.0020512 0.0018745 0.00072699 0.00049019 -0.0050398 0.00067386 -0.0025189 0.0043485 0.0045328 0.0015823 -0.00024847 0.00067002 -0.00067841 -0.00027392 0.0017637 -0.00071662 -0.0021492 0.0015171 0.00094755 -0.005053 -0.0030156 0.0024529 0.0029886 0.0067525 -0.0037822 -0.0020563 -2.7497e-05 -0.0073151 0.0044084 0.00093076 0.0011922 0.00088399 0.00041537 -0.0041325 -0.00074305 0.0038444 0.00058602 -0.00077913 -0.0020611 0.0025862 0.0041054 0.0054409 -0.0017421 7.0408e-06 0.00051173 -0.0014586 -0.0024543 0.0064809 -0.0016182 -0.0012156 -0.00052877 -0.0016527 -0.0024959 -0.0020348 -0.0019282 0.0050218 0.003879 -0.0012854 0.0018291 -0.0014078 0.00083377 
가져와 -0.0016543 0.0024786 0.00079763 0.0016064 -1.8305e-05 0.00033335 0.0027063 0.00067589 0.0056981 -0.00036701 0.0015362 0.0012499 -0.00055215 -0.00096886 -0.0059765 0.0015528 0.0019803 0.0010005 0.00074467 0.0036045 -0.0017452 0.0009446 -0.0027827 0.0027007 -0.00071093 0.0039379 0.0014089 0.0023243 0.00018679 -0.00028608 0.0011014 0.0010105 -0.0024967 -0.00066775 0.00046951 -0.00058836 0.0007647 0.0025238 -0.0033271 0.0025511 0.0067424 0.0008111 0.00028967 0.0023005 0.001215 0.00079081 -0.00011569 0.0012341 0.0032473 -0.0029673 -0.0040828 0.00023835 -0.0028491 0.0036272 -0.0037266 -0.0015578 -0.0015212 -0.0016032 0.0018916 0.0042427 0.001564 0.0051557 -0.0012695 0.00013889 0.0033036 0.00051764 0.005074 -0.0035612 0.0038804 -0.0016964 0.00014084 -0.00047627 0.00029058 0.00026046 -0.00039795 0.0019481 0.00081915 0.0010019 0.00074567 0.0024258 0.0041923 -0.0037774 -0.0044779 -0.001838 -0.0012126 0.0033613 0.0044522 0.00032798 -0.0017351 -0.0017261 -0.0034901 0.0033142 0.0024528 0.0016241 0.0033974 0.0015375 -0.00094849 -0.0017887 0.0002259 -0.0027744 
내놔 -0.0011329 0.0036543 -0.00032425 -0.003046 0.00064663 -0.0033596 -0.0022773 -0.0035713 0.0014138 -0.0042075 0.004185 0.0064533 -0.0041694 0.00085412 0.001259 -0.00033956 0.001677 -0.002394 0.00062384 0.00040283 -0.0018943 -0.0019197 0.0061067 0.0042246 0.00018034 -0.0059096 -0.0027643 0.0016426 -0.00031137 0.0037676 -0.0012262 0.0029671 -0.0019173 -0.00069408 0.0028796 -0.0051559 -0.001003 0.0015328 -0.0034153 0.0068664 0.0011357 -0.004208 0.0048109 -0.0020716 -0.0027883 -0.0048447 0.0034325 0.0057459 -0.0013988 -0.00090201 -0.002438 0.00027819 0.0045738 -0.0015013 -0.0030637 -0.0012358 0.0049407 0.0034417 -0.0037251 0.0010053 0.0030805 -0.0024329 0.0018197 0.00031252 -0.0071189 0.0022222 -0.0035384 0.001784 -0.00086649 0.0036458 -0.00078189 0.00037647 0.0039424 0.00037521 -0.0010452 -0.0027763 0.0012652 -0.0027567 0.00012313 0.0019356 0.0033278 -0.0020501 0.0039729 0.00081607 -0.0035572 0.00020901 0.0051455 0.0011422 -0.0024577 -0.00060178 0.0043604 -0.0045085 0.0023457 -0.00074617 0.002428 0.0021993 -0.0034835 0.0043644 0.0018471 -0.005396 
얼마예요 0.0014026 0.00096361 0.0013646 -0.00017226 0.0013469 -0.00034733 -0.0027545 -0.0001276 0.00097985 0.0017048 -0.00010002 0.0013857 -0.0028539 -0.00082951 0.0024105 -0.0025869 0.0016881 0.0025971 -0.0037737 -0.00077635 -0.0013278 -0.0029147 0.001185 -0.001861 0.00010802 0.0014862 0.0016645 0.00076445 -0.001953 0.0019361 -0.0016104 -0.001252 -0.0013201 0.0022465 0.0016141 -0.0021419 0.00057763 -0.00029268 -0.0030542 -0.0032011 0.00011594 0.003179 -0.0012146 -0.0029729 -0.0012822 0.0012442 0.00029941 0.0021017 0.00094069 -0.0030088 0.00010499 8.3928e-05 -0.00082703 0.00056878 -0.0018889 0.0021009 0.00024159 0.0040026 -0.0013846 0.0034655 0.0012912 0.00089224 0.0014772 0.0012306 0.0026337 0.0014973 -0.0016127 0.00096086 -0.0013354 -0.0024218 -0.0014058 -0.00051481 -0.0021477 -0.00018649 0.0021797 -0.00030865 0.0034035 0.00058256 0.0019891 0.00025359 -0.00096382 0.0025931 0.00099815 0.0021288 0.0033844 0.00066649 0.0048748 0.0016994 0.0017166 -0.00019439 0.0020844 0.0019739 0.00085895 0.0012659 -0.0026341 -0.0015543 0.0014744 -0.00053308 0.0023237 0.00099953 
얼마 0.0059301 -0.0023673 -0.0029638 -0.001565 -0.0011328 0.00037 0.0033533 0.0052104 0.0032779 -0.0012757 -0.0026354 -0.00051594 -0.0028722 -0.0013288 0.00037106 0.0030903 -0.0019956 0.0037852 -0.0021957 0.0026518 0.0029547 0.0034929 -0.001729 -0.0021625 -0.0031701 0.0049993 -0.0015842 -0.0016908 0.0034028 -0.0015635 -0.001655 0.0045652 -0.0048854 0.001442 0.0012453 -0.0023223 0.0015359 -0.0024703 -0.0018048 -0.0037344 -0.0051979 -0.0039002 0.001877 -0.00068824 -0.0028575 -0.00050354 -0.0048497 0.0028019 -0.0011348 0.0020799 -0.00076393 -0.0017984 -0.0017152 -0.0042163 -0.0011088 -0.0035883 -0.0031547 0.0055803 -0.00073681 -0.00047985 0.0036092 0.0025283 -0.00089632 -0.0020181 0.0034291 0.0015011 -7.05e-05 0.0045769 -0.0053144 7.165e-06 0.0022885 -0.0006019 -0.0014189 0.0054674 -0.0026108 -0.002251 0.0051801 0.0037067 0.0019216 0.00071987 -0.0011263 0.00080727 -0.0073558 0.0045889 0.0015511 0.003203 0.0041546 0.0016361 0.0017441 -0.0052693 0.00086502 -0.0054899 -0.0010283 0.00036598 -0.0027069 -0.0037404 -0.0005789 0.0026739 -0.000273 0.00071513 
가격은 -0.0010754 1.429e-05 -0.00072427 -0.0013499 0.0023053 0.00075076 -0.0012455 0.003065 0.0013273 -0.003571 0.0014244 0.0029647 -0.00033971 -0.00087898 0.0042705 0.0010249 -0.0019639 -0.00091263 0.00067514 0.00074371 -0.0026764 -0.00085132 0.0021375 0.0040536 0.00023761 -0.0028161 -0.003003 0.00085117 -0.0004507 -0.0014774 0.0035188 0.0021845 0.00059352 0.0017258 -0.0015625 0.00074966 -0.0019702 0.00079165 0.00069707 -0.0016849 0.00026686 -0.0026047 -0.0053949 -0.00070946 0.0030292 0.00019141 0.00028346 0.0002479 0.0033235 -0.00059962 -0.0019161 -0.0011838 0.00097454 0.0012062 -0.0011623 -0.00054929 0.004365 -0.00097576 -0.0019864 -0.0024765 0.0018947 2.299e-06 0.0024366 -0.0034218 -0.0017202 0.0011581 0.000718 -0.00087289 0.0035596 -0.00031112 -0.0017955 -0.00060487 0.00052635 0.0015949 -0.0018641 1.0363e-05 -0.00037941 0.003769 -0.00038934 0.0023947 0.00055449 -0.0020241 -8.7308e-05 0.0020577 -0.00058072 -0.0024979 0.0027267 -0.0015644 0.0010526 0.0019935 0.001523 -0.00065993 0.0023488 0.0001297 -0.00050908 0.0044658 -0.00090923 0.00086978 0.00087488 -0.0028048 
주문할래 -0.00088639 -6.9001e-05 -0.00058324 -0.002233 -0.00080574 0.0022837 -0.002507 0.0013191 1.9669e-05 -0.0029563 0.00090943 0.0016525 0.0034879 0.0039604 -0.00036742 0.0012441 0.00085577 -0.0014773 -0.00068682 -0.0005308 0.00012666 0.0028547 0.00048213 0.00079703 -0.00099257 0.0021729 -0.0023306 -0.0013826 -0.0032949 0.00082569 -0.00019436 0.00049075 0.00065728 0.0015497 0.0004384 0.00014308 -0.0018275 -3.1255e-05 0.00023459 0.00074034 -0.00012125 -0.002025 -0.0031944 -0.00080181 0.00066422 -0.0030741 0.00095404 -2.3956e-05 -0.0023631 0.0010262 -0.0021495 -0.0011469 -0.00069958 0.0018295 -0.0021056 -0.0012256 0.0026676 -0.0027023 -0.0013603 -0.0016352 0.0020409 0.00071919 -0.0027009 0.0020973 -1.3313e-05 0.00078932 0.001168 -0.00032155 -0.0011685 0.00050108 7.9411e-05 -0.00087379 -0.0013022 -0.0010292 -0.0008801 -0.0024447 -0.0016897 0.0017874 0.0012953 0.0021381 0.000674 0.0013467 -0.00085382 0.00011694 0.00051724 0.00064122 0.00057967 -0.0013162 0.0018652 0.00094406 0.0031182 0.0015646 0.0018187 -0.00010273 -0.00083327 0.0013248 -0.00058482 0.00097056 0.0025794 -0.00041457 
알려주세요 0.00060567 -0.0012402 -0.0021514 -1.0918e-05 -0.00052442 0.0010223 -0.00084566 0.0016184 -0.0017432 -0.00026735 -0.0023038 -0.0021475 -0.001228 0.00069162 -0.00057196 0.00026163 -0.00022886 -0.0015271 -0.0010947 -0.00088416 -0.0012358 0.00025206 0.0025033 -3.5453e-05 -0.00085705 -0.0017454 -0.0015637 0.00081676 -0.0010266 -0.0018366 0.0029881 -0.00058683 0.00029645 0.0018978 -0.0016845 0.00061246 0.0016258 -8.1045e-05 -4.0719e-05 -0.0016054 6.7411e-05 -0.001242 0.00011968 -0.00048029 0.0012262 0.00065228 -0.00030788 0.0035938 -0.00026082 0.00078964 -0.0015613 -0.0028731 0.00045391 0.0027344 0.00077932 -0.0017277 0.00082657 -0.00035387 0.00044054 -0.00015399 0.0026081 -0.0008989 0.0005644 -0.0034901 -0.00019124 -0.0010137 -0.0043951 0.0042486 0.00106 -0.00022341 0.00081633 -0.00076447 -0.00042376 -0.0010744 -0.0023909 0.0017343 0.0031509 -0.0010102 0.00013774 -0.00056048 0.00098447 0.00054943 -0.0008475 -0.0015753 -0.001902 0.00098322 -0.00025617 0.002229 -0.0011553 -0.0016276 -0.00068745 -0.000703 0.0012717 -0.0033778 -0.0016725 -0.00017493 -0.0015954 0.0024912 -0.00038914 -0.0008729 
얼마나 -0.0014421 -0.0015263 -0.00042551 0.00068155 -0.0039881 -0.00099897 4.1604e-05 0.0031012 0.0013238 0.0026286 -0.0036348 -0.003322 0.0010718 0.0034881 0.00055226 0.0022947 -0.00019765 -0.0017272 -0.0003167 -0.00060918 0.0029269 0.00010212 0.0017839 0.0014473 -0.00025097 0.0020801 0.00075811 -5.3007e-05 -0.0012162 -0.0007885 0.0017539 0.00046403 -0.0016244 0.0022391 0.0019079 -0.0043308 0.0028625 0.002469 -0.0012537 -0.0040366 0.0009505 -0.00027979 0.0043233 0.00080594 -0.0034801 -0.00028044 -0.0033357 0.002765 -0.0012166 0.0016154 -0.0029057 0.0016394 0.00078042 0.0015804 -0.0018926 -0.0050763 0.00069764 0.00082842 -6.0713e-05 0.0021747 -0.00051506 -0.0024696 0.00037123 -0.0011358 0.0011616 0.0021849 0.0014685 0.00055532 -0.0018932 -0.0027733 -0.0031795 0.0025978 0.00080356 -0.0051047 0.0005071 -0.00021275 0.0045553 -0.0022088 0.0016679 -0.0038241 -0.00014134 0.0032976 -0.00092592 -0.0012278 -0.00099964 0.0030874 0.0016856 -0.0025541 0.0008873 -0.0020618 0.0015119 0.00041864 0.00040728 0.0011961 -0.0018728 -0.0016827 -0.0013307 0.0028524 0.0011166 0.0053108 
냅니까 -0.0019444 -0.00051777 -0.0056837 -0.0014994 -0.0026161 0.00031118 0.00026068 0.00078613 0.00051066 -0.0030115 -0.00013505 -0.0018371 -0.0008645 0.00038167 0.0030474 -0.0042727 -0.0016513 -0.0049544 0.00053366 0.0027274 -0.0015287 0.0023114 0.00017498 0.0023855 0.0012591 -0.0016891 -0.003914 -0.0006335 0.0028116 0.00419 -0.00021762 0.001897 -0.0012115 -0.001866 -0.0028278 0.0010148 -0.00097332 -0.0019251 0.0019965 0.0046046 -0.00060784 -0.00073526 -0.0027204 0.0014571 -0.00074047 -0.0033214 -0.0030926 0.00079678 -0.001556 -0.001275 0.0027553 0.00099866 -0.0025461 -0.0017038 0.0022016 -0.0043793 0.0019052 -0.0013968 -0.0021756 -0.0015345 0.00049253 -0.00079734 0.0014782 0.00013964 -0.0016284 0.00090313 0.0010437 0.0006859 -0.003751 -0.0012006 -0.00026967 0.00015681 -4.9062e-05 0.0020562 -0.0018882 -0.00081673 0.00017137 0.0017236 -0.0016996 0.0019976 0.00030997 0.00051946 -0.00033172 0.0026861 0.002169 2.0828e-05 0.0032359 -0.0019315 -0.00032802 0.0017021 0.00017128 0.00054963 0.0027962 0.0051448 0.0022616 0.0020179 -0.00035252 0.00077803 -0.0018755 0.0040078 
알려줘 0.001313 -0.001945 -0.0018718 -0.00044018 0.000786 -0.0007689 -0.0054138 0.003261 -0.00064121 0.00078352 -0.0017012 -0.00040357 0.0036873 -0.0017852 -0.0029805 -0.00010435 0.0025966 -0.0030942 -0.0029488 -0.0014104 0.00096051 0.0035662 0.0021062 -0.0033157 0.0004038 0.00086838 0.0026019 -0.00082069 0.00019529 0.0042287 -0.0026093 0.003094 -0.0023768 -0.00034617 -0.0015311 0.00029881 -0.0026719 -0.00034723 0.0014054 0.00029251 -0.0016433 -0.0017024 0.00080559 -0.002625 0.00015368 -0.001272 0.0019437 0.0022883 0.0037274 0.0014435 -0.00077311 -0.0017256 -0.0029398 0.00059513 0.0005119 0.00059541 -7.9714e-05 0.00036311 0.00076292 0.001311 0.0021708 0.0019256 -0.00071942 0.0011322 0.0013099 -0.00056381 0.0043892 -0.00078928 -0.001054 0.00094171 0.0030614 0.001089 -0.0026734 0.0013091 -0.0024314 0.0023788 -0.0018893 -0.0045402 -0.0024199 -0.00064195 -0.0039716 0.0014448 -0.00092688 0.0015497 0.0006856 -0.0023129 0.004237 0.0029768 -0.00083661 0.0016074 -0.0016527 4.5819e-05 -0.00065596 0.0036602 -0.0018655 -0.00186 -0.0014528 -0.00066544 -0.0017091 0.0015255 
말해줘 -0.0010435 0.0041565 0.00070866 0.00081871 -0.0004501 0.00024305 -0.0042841 -0.0032487 -0.00060966 0.0034484 -0.0012463 0.00098861 -0.0013984 0.0031673 0.00071988 0.00033736 0.0024654 -0.00010181 -0.0014637 -0.0013267 -0.0036383 -0.0024225 0.0024246 -0.00020312 -0.0007704 0.00059618 0.0010957 0.00028511 -0.00018856 0.0015086 -0.0037089 0.00016324 -0.0015199 -0.00041003 0.0015828 0.002016 -0.0013081 -0.0024309 -0.00045772 0.0021435 0.0011792 0.0045253 -0.0011252 0.0003398 -0.0014232 0.00037123 -0.00095383 0.0046588 0.0010637 -0.00094449 -0.0017665 -0.00067321 -0.00060383 0.0027345 -0.0019684 0.0013916 0.0017122 0.0031031 -0.0037263 0.0013429 0.00020238 -0.0012778 -0.0013949 -0.00048519 0.0019925 0.0019295 -0.0013411 0.0020385 0.00097948 0.00069755 0.0039037 -0.00067294 0.00092285 -0.00075513 -0.0018037 0.0040154 0.00054947 -0.0024945 -0.0015858 0.00075745 0.0005957 0.0012822 0.0019039 -0.00075148 -0.00043702 0.0023485 0.00081266 0.0026933 -0.0013401 0.00069194 -0.0001687 0.0053804 0.0016 -0.00017387 0.00022934 0.0017484 0.0054681 -0.002076 0.0030803 0.00013384 
얼만데 -0.0041493 0.0054149 -0.0019377 -0.0018756 -0.0028074 -0.00050587 0.0011487 -0.000702 0.00048064 -0.0044173 -0.0014794 0.0018591 0.0031325 0.00024737 0.00070876 -0.0033433 -0.0020856 -0.0055262 -0.0029206 -0.001062 -0.0023786 0.00059035 0.0034785 0.0040411 -0.0023723 -0.0029596 -0.0052762 0.0010328 -0.00026851 0.0050616 -0.00092019 -0.002662 -0.00064609 -0.001076 -0.00093951 -0.0031826 0.00086035 0.0011259 -0.00084649 0.005612 0.0024948 0.0023874 0.00069507 0.0036361 -0.0016345 -0.00023301 -0.00081188 0.00098842 0.001589 -0.0016614 -0.001121 -0.00076217 -0.0016622 -0.0020714 0.0024896 0.0056108 -0.00078984 0.0032854 -0.00080931 -0.0031486 -0.00035399 -0.0029226 0.0019685 -0.0029082 -0.0054191 0.0028812 -0.0030502 0.0043118 -0.0044729 -0.00058563 -0.0008702 -0.0011577 0.0064775 0.0012098 -0.0039942 0.0028647 -0.0012746 -0.0006353 0.0005262 0.0010584 0.0027679 0.00039251 0.0013404 0.0010821 -0.0032799 0.0034289 0.0050048 0.0011824 -0.0015533 0.0045367 -0.0016583 0.0010258 -0.0013287 -0.00099515 5.582e-05 0.0027607 0.0011673 0.0014768 -0.00024015 -0.00059864 
얼마인데 -3.8515e-05 -0.0036876 -0.00054132 0.00016819 -0.00065721 0.00062282 -0.0011558 0.0041139 -0.0035152 -0.0021775 -0.00014956 0.0015193 -0.0021299 -0.0011694 -0.001999 -0.0012491 0.00075759 0.002305 -0.0024151 -0.00023038 0.0015471 4.2325e-05 -0.0031473 -0.0010923 -0.0020396 -0.0017196 -2.305e-05 -0.0010502 0.0030094 -0.00010762 -0.00067201 -0.002886 0.0010218 -0.0018658 -0.00018177 0.00091602 -0.00017388 -0.0019514 0.00056434 -0.00049249 0.0034554 0.00082854 -0.00075846 -0.0017365 -0.0019909 0.00036025 0.0018053 0.0010398 0.0036378 0.00067975 0.00048704 0.0013062 -0.0024545 -6.7511e-06 -0.0022187 -0.0012071 0.00017447 0.00052996 0.00020776 -0.00036578 0.00090708 0.00062448 0.0033327 -0.0011836 0.0019819 -0.00033411 -0.00027275 -0.001044 -0.001264 -0.0020494 -4.2255e-05 -0.0020209 -0.00096295 0.0020297 0.0001701 0.0012859 -0.0002287 -0.00068117 -0.00054577 0.0021393 0.0003276 0.0043399 0.00050342 0.00091013 0.0013479 -0.00033617 -0.0011758 -0.0015151 0.0013386 0.0009215 -0.002905 -0.00040984 0.0039513 -0.00027752 0.00088056 -0.0019401 0.0010122 -0.0010205 0.00039564 0.0025208 
