50 100
</s> -0.0082994 0.0078322 -0.0062062 -0.0020398 0.0048702 0.0012078 0.0061913 0.00023425 0.0099017 0.0093322 -0.001479 0.00306 0.0092307 0.0071597 -0.0041195 -0.0017071 0.00029786 0.0057957 0.00088546 -0.0081274 -0.0013548 0.0068985 0.0054569 -0.0061628 0.0056073 -0.0063731 0.0015828 -0.0037174 -0.0017603 0.0098461 -0.0067216 -0.003303 -0.0084756 -0.0065095 -0.009254 -0.0006517 0.0034823 -0.0086659 -0.0022043 -0.006692 0.0098161 0.0074128 0.0034531 0.0017541 -0.0048997 0.0018609 -0.0045656 -0.0045904 -0.0080814 0.0026511 -0.0069745 0.0089772 -0.0091479 0.0047018 -0.00069006 -0.0055492 0.0014297 0.0020914 0.00396 0.0032937 -0.006527 0.0050299 0.0064983 0.0050619 -0.003619 0.00065102 -0.0070489 0.0058526 0.0082506 0.0058876 -0.0098118 0.00020106 -0.0040881 0.0011984 8.345e-05 -0.0037997 0.0096516 0.0092891 -0.0010287 -0.0039297 -0.0088758 0.0060384 0.0096762 -0.0089787 -0.0052039 -0.007906 0.00069594 0.00042814 -0.0034004 -0.0036472 0.0095572 0.0047017 0.0090723 -0.0090106 0.0014508 -0.0087831 0.0062326 0.0095837 -0.0054835 -0.0018726 
? -0.0029795 -0.0017381 -0.00063675 -0.0018812 -0.0013771 0.007755 -0.0038075 0.00321 -0.0062568 0.00086448 0.00071986 -0.0065216 -0.0073423 -0.0032758 -0.0033414 -0.0056894 0.0063495 0.0042881 0.00025065 -0.0042971 -0.0070455 0.0019035 0.0024395 0.0042663 -0.005062 -0.0080167 -0.0046715 0.0022432 -0.0040574 -0.0040476 0.00097936 -0.0013446 0.0059603 -0.0037396 -0.0034855 -0.00038926 0.0014163 0.0017698 -1.6559e-05 -0.0047766 -0.0068716 0.0089712 -0.0052001 -0.00076065 0.0019285 0.0022113 0.0070119 0.0012155 -0.0054263 -0.0014451 -0.0043404 -0.005057 0.0048966 0.0053897 -0.00048082 0.0051397 -0.004655 -0.00046035 0.0033972 0.00011709 -0.0010451 0.0052509 0.0038218 0.0069129 -0.00010359 -0.0053093 0.00041803 -0.0030566 -0.0058432 -0.0053984 0.0032756 0.0058204 0.0014279 -0.0077947 -0.0046916 0.0030178 0.0030237 0.003743 -0.00014061 0.0054519 0.002437 -0.0073237 -0.0010206 0.0060995 0.0067943 0.00044271 -0.0058448 -0.0048148 -0.0010015 -0.00083087 -0.0032118 0.0023051 0.00077722 -0.00034672 0.006292 0.0038534 -0.00022611 -0.0022967 -0.0062108 -0.0027202 
주문 0.005946 -0.0032116 -0.0015395 0.00050172 -0.0036471 -0.001365 -0.0010204 -0.00028076 0.007471 -0.0011677 -0.0011422 -0.0017091 -0.0002767 0.0008146 -0.00082772 -0.0012106 0.0026089 0.0034134 -0.0055582 0.0052514 1.7444e-05 -0.0013446 -0.0052464 -0.0034371 4.0663e-05 0.00058042 0.00034165 -0.001694 -0.0024487 -0.003218 9.6605e-05 0.0055265 0.002334 -0.0018516 -0.0047821 -0.0034958 -0.0050474 0.0020387 -0.0016194 0.00012765 -0.00096981 0.00014468 0.0020404 -0.00019311 0.001533 -0.0015949 -0.00086359 0.0047229 -0.0022036 -0.00055704 -0.00074004 0.0028716 0.0039272 -0.0027185 -0.0046884 0.00063319 -0.00038972 -0.00067127 -0.0031203 -0.00088882 0.0047828 -0.0016128 0.0057857 0.0032539 0.0010898 0.002762 0.0017359 0.000154 0.00065861 -0.0085786 -0.0034062 -0.00063873 0.0023996 -0.0029718 0.0015211 -0.0014437 0.0048848 -0.0051686 0.0022163 0.0010758 0.0025455 0.001949 -0.0013042 0.00020303 0.0023702 -0.0041131 0.0022087 0.0042254 0.0026545 0.0002742 -0.002607 -0.0010014 0.0034 0.0020913 -0.003419 -0.00054064 0.0024745 0.0046228 0.0019478 0.0038313 
피자 0.00050836 0.0032346 -0.0021556 -0.0030362 -0.0026643 0.0044859 -0.0023259 -6.0449e-05 -0.0030874 0.0024556 -0.001299 0.0074948 3.329e-05 0.00051741 -0.0011279 -0.001286 0.00033314 -0.0043247 0.0069917 -0.0010238 0.0017668 -0.0016546 0.0021351 -0.0045763 -0.0037437 -0.0014569 -0.00089395 -0.0041555 0.0011057 -0.0018328 0.0011816 0.0025453 0.0013029 0.0025375 -0.0011373 0.0017164 0.0035743 0.00069087 -0.0026287 -0.0014845 0.003773 2.1908e-05 -0.0030094 -0.00070341 0.0024571 0.00077808 0.0029251 0.0027402 0.0028242 0.0067946 -0.0029954 -0.0072852 7.9359e-05 0.0048894 0.0017209 0.0015063 0.0011761 0.0033616 0.0044766 0.0027709 0.0022426 0.00048615 0.0055357 -0.0018123 0.00095654 0.00487 0.0028117 -0.0026016 -0.0047212 -0.0022304 0.0046857 0.0018505 -0.00015288 0.0040834 -0.00046627 0.00070959 0.0042484 0.0018392 -0.0011267 -0.0045877 0.0019388 0.0011954 0.0019882 -0.0039179 -0.001247 0.0019722 0.00054174 0.0023759 0.0031178 -0.0049907 0.00031169 -0.00049017 0.0033757 -0.0039089 -0.0029738 -0.0065966 -0.00079194 0.00048589 0.0010001 0.0001015 
수 0.0021584 -0.0018492 -0.0012026 -0.0031258 0.0064652 0.0014661 0.0056561 -0.0088058 -0.0016911 0.00044793 0.0002178 -0.0022494 0.0011107 0.0045885 -0.00016887 0.0038961 0.00072139 -0.0037447 -0.0022453 0.0063821 0.0040397 0.0013849 0.002233 -0.0061311 -0.0011802 -0.0030083 0.0048323 0.0005798 0.0083369 0.0052309 0.0027092 -0.00065475 -0.003251 -0.0025516 -0.0026268 0.0046264 -0.00096554 0.0036891 0.00065523 -0.003192 -0.002725 -0.005837 0.0059024 0.0069138 0.0019504 -0.0088617 -0.00046333 0.004599 0.00014895 -0.0019361 -0.0060467 0.0063771 0.0052876 -0.00093537 0.0088403 0.00533 -0.0028244 0.0039616 -0.00832 0.00021867 0.0018201 0.0022348 0.002764 -0.002222 0.0017388 -0.0020457 -0.0018539 -0.00097278 -0.005763 0.0010732 0.0007712 0.0037999 -0.0033718 0.00030358 -0.0063405 -0.0036121 -0.0060177 -0.0016309 0.0021388 0.0020363 0.00089503 0.0015386 0.0036447 0.0011401 -0.0029331 -0.0024765 0.00027485 -0.0010731 0.0019586 0.0076783 0.0030056 0.00047582 0.0034141 -0.0049045 0.0026922 0.0025661 -0.0003393 -0.001288 0.00031778 -0.0075661 
. 0.0049073 -0.0024426 0.0053228 -0.0050232 0.0034889 -0.0018158 -0.0030696 -0.001138 -0.0026687 0.00012762 0.0025907 0.00662 -0.0035951 0.0037784 -0.0081971 0.0018996 -0.0069298 -0.007299 -0.0009768 -0.0063367 -0.0046797 0.0037557 0.0038543 0.0016787 -0.00083108 0.00087938 -0.0026036 -0.0048246 -0.0061256 -0.0029586 -0.0056894 0.0032625 -0.0070639 0.001307 0.00033322 -0.0018514 -0.0016736 -0.0017199 -0.004205 -0.00052577 0.001392 0.0011526 -0.0057862 -0.00049684 0.0045471 -0.0040065 -0.0036969 -0.004299 -0.0048184 0.004912 -0.006988 -0.0053685 -0.0048656 0.0080892 -0.0021169 0.0028507 0.0049509 -0.00089294 0.0016372 -0.0034791 -0.0012216 0.0017365 0.0075543 -0.0021453 0.00068884 0.0059819 -5.1947e-05 0.00054589 -0.002696 0.0041855 -0.0052945 0.0039493 0.0022672 -0.0037697 -0.0032287 -0.0006951 0.00047099 -0.0041122 -0.0061403 0.0013204 0.0070649 0.0012841 0.0040142 0.0086356 0.0051042 -0.001841 -3.6634e-06 -0.0030323 0.00034156 0.0021116 -0.0016911 -0.003983 -0.0016245 -0.0022961 0.00059062 0.00059898 -0.0065843 0.0042319 0.0010676 -0.0051998 
가격 -0.00040447 -0.0013844 -0.004171 -0.00075176 -0.0022006 0.0054353 -0.0044783 0.0022075 -0.0043874 -0.000338 0.0013671 0.0025296 -0.0044448 -0.0051088 -0.00052915 0.0049767 -0.001669 0.00026319 -0.00018421 -0.001979 -0.0010367 0.0038691 -0.00061375 0.0010492 -0.0048043 -0.0015599 -0.0057568 0.0037879 -0.0025377 0.001426 -0.00048724 -0.0031094 -0.0014113 0.00052914 -0.0045325 0.002164 -0.0001373 0.0025291 0.00018438 0.0046181 0.0028333 -0.00044128 0.00042687 -0.0018959 0.0036095 -0.0032389 0.0038497 -0.0016401 0.0053046 0.0011199 0.0015832 0.002203 0.0011585 0.0036305 0.0029998 -0.00592 0.0013356 -0.0053178 0.0019697 -0.0010965 -0.0040413 0.0034738 -0.0016814 -0.0041379 -0.003018 -0.0017634 -0.0046538 0.0016372 -0.0013935 0.0035503 -0.0021945 -0.0023499 -0.0031765 0.0009847 0.005498 -0.00058979 0.001887 -0.00080489 0.00013921 0.0026184 -0.0028383 0.0033531 -0.0040426 -0.0030146 0.003795 -0.0022692 -0.00075664 -0.0011226 0.0016498 -0.0012118 0.001932 -0.0028989 -0.0017493 0.0028602 0.0038899 -0.0028316 -0.0047489 -0.0029456 0.0078481 -0.0045584 
가능 -0.00014381 -0.0011388 -0.00088814 0.0026656 0.0038901 -0.000506 -0.0037712 -0.0038733 0.00065647 -0.00010625 0.0021622 0.00075739 -0.0062971 -0.00098967 0.0042965 0.00070757 0.00083293 0.0014922 -0.0013266 -0.0010767 -0.0049424 -0.0016683 -0.00056402 0.0011869 0.00040556 -0.0007662 0.00064245 0.0030963 -0.0013469 0.0038029 0.0003537 0.0041824 0.0058322 0.0032255 -0.0015253 0.0004457 0.0064551 -0.0031683 0.0021318 -0.0015057 0.00080777 -0.00032123 -0.0009638 -0.00033933 -0.001738 0.0030712 0.0031116 -0.00051518 0.001395 0.00048971 0.00091943 0.00037269 0.003001 0.0032114 -0.001533 -0.0019089 0.0005721 0.0019834 -6.9378e-05 0.0013788 0.0035476 -0.0023618 0.00043128 0.0015265 -0.0040601 -0.00046047 0.002393 9.6186e-05 0.0010088 0.0024327 -0.0035693 0.0053529 -0.00066632 0.002604 0.0031192 0.0023853 -0.0016331 0.0011837 -0.00063888 -0.0036802 -0.001383 -0.0033814 0.0025048 0.00083039 -0.0025862 0.00042321 0.0051615 0.0040799 -0.0009701 -0.0033336 0.0057392 -0.0040613 -0.0038295 -0.002033 -0.0050262 -0.00040863 0.00066772 0.00049563 0.0031553 -0.0039597 
부탁해 0.00056434 0.00035253 0.0019868 -0.0010629 0.0028876 -0.00098866 -0.0014679 0.0027009 0.00014658 -0.00076888 -0.00087029 0.0022203 -0.00062631 0.00046542 -0.001319 -0.00028994 0.0033905 0.0025095 0.001777 -0.0010834 -0.0024946 -0.00034505 0.0023916 -0.0021099 -0.00096394 0.0032735 -0.0018607 0.00066884 0.00085465 0.00046955 -0.0015477 0.0047019 -0.0040188 0.00073114 0.00056601 0.0020844 0.00043132 -0.0036826 -0.0047794 0.0014998 -0.0049914 -0.0010593 0.0015125 -7.4382e-05 0.0042381 0.00072412 -0.0023185 0.0021239 0.0020863 -0.0017754 0.0013363 0.0022538 -0.00021376 0.0031096 0.0023894 0.0035991 0.00083757 0.0038548 -0.0013233 0.00063409 -0.00045883 -0.0013705 0.0029204 0.00092006 0.0020789 0.0019753 -0.00099131 -0.00043881 0.0020366 -0.0034333 0.0041711 -0.0032186 -0.0050059 0.00023958 0.0032635 0.0025672 0.0042004 0.0014377 0.0015432 0.0010965 -0.0028608 0.0018729 0.0012723 0.0021571 -0.0019413 0.0052086 -0.0021936 0.0025744 -0.0024236 0.0028221 0.000498 0.0041986 0.0047276 0.0033806 0.00058692 -0.00075564 0.0028135 0.0026948 -0.00033782 -0.0023732 
할 -0.0060889 0.00094008 -0.00052485 0.0067747 0.0030831 0.0066303 0.0045602 -0.0023656 -0.00071015 -0.0028057 -0.004126 -0.0035761 0.00082685 -0.0093808 -0.0049797 0.0014785 -0.0018812 -0.0051239 0.0053689 -0.0050493 -0.0034643 -0.0055922 0.00055052 -0.0067108 -0.0068536 0.001641 0.0013831 -0.0034644 0.0047756 0.0014611 0.0030606 -0.003293 0.0036616 -0.0033048 0.0023693 -0.0021324 -0.0024111 -0.00035876 0.0011819 -0.0044535 -0.0026718 0.0036551 -0.0013499 0.0056724 0.0030985 0.00085298 0.0047238 -0.0038724 -0.0030303 -0.0039726 -0.0048967 -0.0080295 -0.002582 -0.0018797 0.0039504 0.00028564 0.00093435 0.0062834 0.0037097 0.0077253 -0.0029723 0.0033071 -4.3088e-05 0.0025383 -0.0057629 -0.0021971 -0.0047526 0.0074632 -0.0015548 0.0059314 -0.0028975 0.0005462 0.0042899 8.401e-05 -0.004647 0.0019599 -0.0053126 0.0027753 0.0056023 -0.0026688 0.00028553 0.00077617 0.0060129 -0.002514 -0.0020742 -0.00012415 -0.00010596 0.0035464 0.0021125 -0.0044203 -0.003759 0.0025122 0.0048823 -0.00082756 -0.0026621 -0.0018792 -0.0009549 -0.00051819 -0.0058648 -0.0040382 
배달 0.00062296 0.0057147 -0.00061538 0.0014047 -0.00075032 0.0033912 -0.0035151 0.0039389 -0.0027259 0.001384 0.00075729 -0.0018006 0.0040829 0.00039594 -0.0009783 0.0042569 0.0056936 -0.0023644 0.0022501 0.0028727 0.001894 -0.0022934 0.0020954 -0.0059422 -0.0052886 0.00053092 0.0014887 -0.0038809 -0.00084452 -0.00079119 0.0022363 -0.0024134 0.0020686 0.0008022 0.0036191 -0.0054315 0.0029215 -0.0014921 0.0012874 -0.0072845 -0.00076031 -0.005085 -0.00087296 -0.0032198 0.00061519 0.0036162 0.00091182 0.00123 -0.0046586 0.0034881 -0.0066435 -0.0051477 0.0052265 0.005642 0.00029382 -0.0048214 -0.0038364 -0.00016804 -0.00095085 0.001444 0.003407 0.0013087 0.0033861 -0.00092498 -0.00069383 0.0044157 0.0041976 -0.0019388 -0.0045405 0.0046861 0.0025804 0.0043494 0.0020407 -0.00067801 0.0012173 -0.00044718 0.0034648 0.0017856 -0.0020247 -0.0054264 -0.0019831 0.0045509 -0.0030425 -0.0048107 0.0039223 -0.001101 7.9399e-05 -0.00058812 -0.0025912 -0.002597 -0.0024583 0.00086743 0.0022587 -0.0041826 -0.0038305 -0.0021254 0.00045944 0.0017136 -0.00055271 0.0004135 
주문하고싶어요 0.0019144 -0.00076536 -0.00094549 0.00062357 -5.6891e-05 0.0031393 0.0013217 0.00094845 -0.00087718 -0.0013433 -1.2765e-05 0.0011821 0.00043729 0.00069832 -0.00018371 -0.0015936 0.0011431 -0.0012477 -0.00051321 -0.00034723 -0.00094036 0.0028358 -0.0011536 -0.0019011 0.00014643 -0.00077522 -0.0040184 -0.00011146 -0.00093775 0.00207 -0.0010586 0.0022705 -0.00089192 0.00052096 0.00057844 -0.00069579 -0.0010361 -0.0019342 -0.00043511 0.00067424 -0.0024287 -0.00047321 0.0003615 0.0012276 0.00023055 -0.00061042 0.00094023 -0.00062423 -0.00051995 -0.0019686 0.0003662 0.00079147 2.3143e-05 -0.0012006 -5.726e-07 -0.00018839 -0.0016687 0.00084348 6.4396e-05 0.00085986 0.0033749 0.0015933 0.0020907 0.00036963 0.00027723 0.00093628 -5.7023e-05 0.0015204 -0.0018089 -0.00033355 -0.00027106 0.001389 0.00096179 0.0031351 0.00306 -0.00079576 0.0016147 -0.00054074 4.7044e-05 -0.00055057 0.00015688 0.0011688 -0.00048019 0.001905 0.0030053 -0.001294 0.0042042 -0.00045787 0.00078742 -0.0008112 -0.0019568 -0.00082513 0.0019134 0.002066 -0.0018416 -0.0010817 -0.0015739 -0.00032649 -0.00058487 0.0012762 
하고 0.00023781 -0.0038492 -0.0029176 -0.0010835 0.0040236 -0.0019064 -0.0074315 -0.0014466 -0.00049097 0.0014532 0.0013278 0.0030895 0.0031689 0.0002098 -0.0044234 -0.0046222 -3.3957e-05 0.00046158 -0.0042433 -0.0033244 0.0017448 0.00015441 0.00016358 0.0014552 0.00221 -0.0043452 0.0033675 -4.9076e-05 0.0064603 0.0008832 0.0027926 0.0019391 0.003886 0.0038607 -0.002442 0.0017411 0.004423 -0.0020451 -0.00032697 -0.001007 0.0050472 0.0022045 0.0035559 -0.00092582 0.0044381 2.5351e-05 -0.0023993 0.0049734 0.0051048 -6.566e-05 0.0027557 -0.0073703 0.0036611 -0.00014054 0.0010781 0.002025 -0.0013876 -0.0029777 -4.3879e-05 0.001892 -9.6862e-05 0.0018524 0.0025911 0.0029748 -0.00074707 0.0002169 -0.0014044 -0.0019241 0.0014335 -0.0016123 0.0017225 0.00031488 -0.0012511 -0.00050059 -0.00072081 -0.001037 -0.00039386 0.0011814 -0.0020807 0.0027627 0.003249 -0.0011634 0.0047283 0.0011174 -0.0038658 -0.0013727 -0.0023633 0.0035694 -0.0038444 0.00074286 0.0057187 -0.0064942 -0.0052377 -0.0061113 -0.0023892 -0.0066661 -0.002819 -0.0015449 -0.0012259 -0.0025797 
싶어요 1.3021e-05 -0.0022734 -0.00091952 0.0035086 0.0039546 0.0023737 -0.00099231 0.0002477 0.00036673 -0.00092271 0.0031611 -0.00041725 0.00064734 0.0028089 -0.0058524 0.0021083 0.0034176 0.005593 -0.0019371 -0.002027 -0.0058197 0.0010146 -0.0016842 0.00174 -0.0028874 0.0011983 -0.00087401 0.0019263 -0.0019859 0.0034035 -0.0029536 0.0010201 -0.00060683 -0.00049991 0.00079983 0.0017262 0.00067455 -0.0018509 -0.00040909 0.003133 0.0015585 -0.0034878 0.0031056 0.0012549 0.00068787 -0.0040259 -0.00093513 -0.00056036 0.0021983 -0.0025708 0.00057599 0.0018839 -0.0025187 0.0025149 -0.0020765 -0.0023501 -0.0032748 -0.0034072 -0.00021793 0.00023895 -0.0018696 0.00014604 0.0047432 0.0046935 0.0036311 -0.0039795 0.0032682 -0.0013398 -0.0016798 -0.0019529 -0.00083604 -0.00083002 -0.0012593 0.0030267 0.0019994 -0.0025019 0.0006917 -6.8325e-05 -0.0004747 -0.0003354 -0.0010943 0.0025166 -0.0035611 0.0015343 -0.00029785 -6.2718e-05 0.00059034 0.0013817 -0.00034267 -0.002035 -0.00054003 -0.0024 0.0026609 9.2617e-05 -0.00096307 0.00099033 -0.0012618 -0.0033218 0.0029239 -6.2422e-05 
주문가능 0.0051291 -0.0010823 0.00027791 -2.4576e-05 0.0012079 -0.0015013 -0.0012089 0.0006003 0.0007668 0.0015621 -0.0024356 0.0034713 -0.00037486 -2.1078e-05 0.00012632 -0.0018538 0.00012275 0.0008263 -0.0043514 0.0020581 -0.0004289 -0.00015778 -0.00081583 -0.0019536 0.00023 0.0016455 0.00028708 -0.0014961 0.0013804 -0.00014303 -0.0031839 0.00091744 -0.001796 -0.00039308 0.0023094 0.00017361 0.00034364 -0.0029274 -0.0040417 -0.00046547 -0.0023186 0.00054824 0.0011372 -0.0021733 -0.0012072 -0.0015816 -0.0020986 -0.00014341 0.0019384 -0.0030391 -0.00015093 0.0012783 0.0017826 5.3197e-05 0.0016159 0.0006603 -0.0020127 0.0032704 -0.00096239 0.0014885 0.001559 -0.0016197 0.0012747 0.00057655 0.00094701 -0.0019262 -0.0020602 0.0015975 -0.0010223 -0.002368 0.0013715 0.0012066 -0.0026322 -0.0025927 0.0020673 -0.00058346 0.0055128 0.0021764 0.0025788 0.00051213 0.0023729 0.0023965 0.0013582 0.0022052 -0.0020225 0.0024709 -0.00091574 -0.00031832 0.0011588 -0.00034991 0.0017949 0.0039583 0.0025162 -0.00046065 -0.00069191 -0.0034163 0.0020555 0.0030715 -0.0013396 -0.00024562 
주문이요 -0.00033334 -0.0009774 -0.0033328 0.00064411 0.00012803 0.00054086 -0.0028672 0.00072089 -0.00078834 -0.00056652 -0.00032073 -0.0015178 -0.00036218 0.00052477 -0.0012439 0.00037544 0.002477 0.0017129 -0.00078288 -0.00087342 0.0013061 0.0012267 -0.0010361 -0.0012005 -1.2263e-05 0.00071742 -0.00012431 0.0010153 0.00078985 -0.0014872 -0.00042796 -0.0014869 0.0020725 -0.0021997 -0.0015453 -0.0016577 -0.00011722 -0.0030781 0.0017454 0.00089797 0.001784 0.0025493 0.0015307 0.0019737 -0.0012379 -0.0006503 0.0014375 0.0034639 0.0011817 0.0026803 -0.0013886 0.0011415 -0.0030573 6.249e-05 -0.0019474 -0.00025796 0.001391 0.00032486 0.0022137 0.0010628 0.0034754 0.0003658 0.0022874 5.2475e-05 0.0013668 0.0020358 0.0019354 0.0019663 -0.003504 0.0015737 0.00081463 -0.0022696 -0.0038048 0.0003452 0.0015601 5.2427e-05 0.00061223 -0.002721 -0.00088691 0.00057429 -0.001155 0.0043623 0.00020795 0.0017423 0.0025724 -0.0017608 0.0035999 0.00034488 0.0016286 -0.0031231 0.00058317 0.00023624 0.0024511 -0.0038201 -0.0011392 -0.00079803 0.0021173 0.0012227 0.0011374 0.0044928 
! 0.0012757 0.004115 -0.0047136 0.002199 -0.00045547 0.0055439 -0.0067394 0.00022169 0.0020747 0.0034365 0.0015283 0.0064836 0.00020975 0.0044702 -0.0013564 -0.0013536 0.0030546 0.00032423 0.0011955 -0.0018534 0.0023597 0.0042422 0.0060799 -0.0016967 -0.0041918 0.0038348 -0.0012488 -0.0024516 0.0025066 -0.00053618 0.0031302 -0.0019024 0.0052601 -0.002759 -0.0062754 -0.0045144 0.0033956 -0.006588 0.0062184 -0.0041465 0.00044833 0.0041796 0.0053933 0.0057177 0.0061254 0.0062865 0.0027484 0.0073313 0.0052992 0.0032593 0.0028247 -0.003751 0.0031001 0.00030077 0.0022686 -0.0010014 0.0017881 -0.0021737 -0.00016942 0.0032481 0.006919 -0.0048353 0.0067518 -0.001338 0.0029145 0.0058661 0.0061715 0.00097999 -0.0024149 0.0015792 -0.00024567 0.0031312 0.0043571 0.0071286 0.0061038 0.0009462 0.0058725 -0.0033829 -0.00097076 -0.0017749 -0.0048012 0.001243 0.00044126 0.000414 -0.00033558 0.0028807 -0.0050148 -0.0054651 0.0069256 -0.0001535 0.0038086 0.0032746 0.0037818 0.00050711 -0.0031087 -0.0093973 -0.0046198 0.0045236 0.003979 -0.0030358 
주문하겠습니다 0.0011731 -0.00096701 0.0017207 0.0010656 -0.0011566 0.00033736 5.997e-05 0.0026742 0.00067824 -0.0019578 -0.0018511 -0.00026525 0.0007696 -0.0007856 -0.00070381 0.00027393 0.0026496 0.0010335 -0.00033266 -0.00060061 -0.00081129 5.0081e-05 -0.00089299 -2.8861e-05 0.0008256 4.8364e-05 8.6915e-05 0.00022251 -0.00027103 2.989e-05 -0.00023955 -0.0018943 -9.6952e-05 0.0020092 -0.0017616 -8.3565e-05 4.946e-06 -0.0014365 -0.0010162 -0.001676 0.0017831 0.00029363 8.3e-05 0.001073 0.0014143 -0.00038875 0.00074539 0.00091713 0.0010733 0.00018491 -0.00023376 0.00017501 -0.00060052 0.00030488 -0.00061948 -1.4218e-05 0.0015612 0.00067194 0.00015646 0.001649 0.0020262 0.00019685 -0.00018799 0.0002867 0.0010017 0.00098447 0.00065184 -0.00027468 -0.00075542 -0.0010979 -0.00093877 -0.00029161 -0.00032805 0.0012026 0.00098007 -0.00036524 0.0024526 0.0011127 0.0020698 -0.00024877 0.00045482 -0.0015554 -0.0013931 0.0022919 -0.00038885 -8.0766e-07 0.0021844 0.001313 0.0013422 -0.0022646 0.0021138 -0.0006182 0.001484 -5.5019e-05 0.0003981 -0.0007319 0.00080646 0.00010702 -0.0011369 0.0016757 
주문부탁드립니다 0.0015995 0.0020535 -0.00080175 0.001434 -0.0010956 -0.00071815 -0.00024919 0.0024933 0.00042444 -0.0006643 -0.002363 0.0005887 -0.00081884 -0.00064158 0.00056613 -0.0013773 0.00024467 0.0011648 -0.0013219 0.00063118 -0.0012844 -0.00083657 0.00083534 0.00067689 -0.00078241 0.00084925 0.0022019 -0.0027175 -0.00060571 0.0012925 0.0016068 0.00040254 -0.00061706 -0.0014399 0.0004575 0.00027558 -0.0016801 0.00030814 -0.0010608 -0.0014895 0.0016826 -0.00033689 -0.0015939 0.0013796 0.00030541 0.0014711 0.00080807 0.00033873 0.0013644 -0.00091049 0.00024189 -0.00027535 -0.0012021 0.0022455 -0.0026361 -0.0017127 0.002124 0.0021036 -0.0024539 0.00093502 0.0011527 -3.5079e-05 -0.00062443 -0.001146 0.0016051 0.00081329 -0.0019552 -1.108e-05 -0.001743 5.6079e-05 0.00090526 0.0008997 -0.0010646 0.00055367 0.00065935 0.00066586 0.0025451 0.00053898 -0.00071161 0.0011798 0.0005707 0.00060447 -0.00039396 0.001108 -0.00047649 0.00072066 0.00036215 0.0011791 0.0011352 -0.00030603 0.0015224 0.00035306 0.0020767 -0.00048707 -0.0022845 1.6648e-05 -7.1557e-05 0.00014461 -0.0011564 -1.8379e-05 
있을까요 0.0027912 -0.00026098 0.0020271 -0.0010172 -0.0005256 -0.00057266 0.00015189 0.0013467 -0.0016123 0.00088673 0.00029051 -0.00075414 -0.0014757 -0.0047009 0.0011191 0.0025198 0.0006419 -0.0024319 -0.0016612 -0.0022565 0.0014672 -7.3523e-05 0.00059832 -0.0019235 -0.00044603 0.00015385 0.00077951 -0.00036822 0.00065268 0.00036425 -0.0012975 0.00060793 -0.0047338 -0.0012313 -0.004406 -0.0010239 -0.0038722 0.0014152 0.00018739 0.00062474 -6.0772e-05 -0.00020299 -0.00078048 0.0021884 0.0012267 0.00073541 0.0017742 0.00078825 0.00063121 -0.00048396 0.00040231 -0.0029843 -0.00060818 0.00060449 0.00016654 -0.00063331 0.0015953 0.0018025 -0.00091672 -0.00095781 0.0027385 -0.00049497 -0.0014979 -0.00059571 -0.00049604 -0.0017029 0.00063627 0.0018049 -0.0031622 0.00013117 -0.00034362 -0.00027429 0.0010476 0.00072412 -0.00069075 -0.0014731 0.00012135 5.8346e-05 0.003039 6.7086e-05 0.0017945 -0.0017687 -0.0030996 0.0015197 0.0010341 0.0023074 0.0036587 0.0031473 0.00246 -0.0023592 -3.0268e-05 0.00094832 0.0016603 0.00043957 -0.0013803 0.00028688 -0.0039191 0.0027752 -0.00021205 0.0014032 
있어 0.00062253 0.00067825 -0.0010008 -0.00054388 -0.0068794 0.0060445 0.0015453 -9.6895e-05 0.005363 -0.00077878 -0.00095835 -0.0013405 -0.0022786 -0.0015315 0.0015388 -4.9402e-05 0.0021761 -0.0026575 0.0018572 0.00085326 -0.0075844 -0.0017214 0.0040707 0.0028107 0.0031559 -0.0047864 -0.0051694 0.0044007 -0.00042604 -0.0016227 -0.0010686 0.00060779 -0.0034664 0.002544 -0.0032359 0.00069351 0.0013333 0.0054334 0.0038067 0.0042229 -0.00059632 0.0027371 -0.0019205 0.0064684 0.0053249 0.00094843 -0.0030538 0.0013326 0.001745 0.0020089 0.0019352 -0.00060634 -0.00056653 0.00096098 -0.0050906 -0.0014767 -0.001117 3.0864e-05 -0.0058125 0.0014806 -0.00095104 -0.0019818 0.00094875 -0.0021097 -0.00276 -0.00024225 -0.0024926 0.0034154 -0.0040051 -0.0011176 -0.0030576 0.0030185 0.0042099 0.0069816 -0.0041248 0.0051365 -0.00018426 0.0018165 -0.0013872 -0.0022674 0.0033574 0.0024342 0.00077568 -0.0012196 -0.00033308 0.0033504 -0.0011898 0.0017714 0.0022258 0.0010432 4.9045e-05 0.0017237 0.0042435 0.0026225 2.174e-05 -0.00046755 0.00039904 0.0032567 -0.0041903 0.0013023 
주문해줘 0.0030281 -0.00095249 -0.00060537 -0.00074088 -0.0013941 0.0020098 0.0012654 0.0027163 0.0011316 -0.00079124 0.0032003 0.003525 -0.0021825 0.0024495 -0.0016072 0.0010427 -0.00028361 0.00050819 0.0017964 0.0025842 -0.00023119 -0.00061212 -0.0014713 -0.0029688 0.0014346 0.0010254 -0.0001809 0.0026282 0.00026748 -0.0020555 -5.1906e-05 0.0010423 0.00072274 -0.0011707 -2.8728e-06 -0.00059224 -0.0033996 -0.0015664 -0.00027684 0.0023355 0.0014429 0.00091138 -0.0026074 0.0043361 0.0012295 -0.002389 -0.0027649 0.0017979 0.00044136 -0.0015411 -0.002722 0.0042133 0.0023512 -0.001232 -0.0022073 0.00088745 0.00058607 0.00088274 -0.0017339 -0.00055833 0.0031876 -0.0037776 0.0050113 -5.1505e-05 0.0018659 0.00070898 0.0029487 0.0039438 -0.00015487 -0.0029807 -0.0023364 0.0007717 0.00058455 -0.0019969 0.0010895 0.0025744 0.0025944 -0.0012037 0.0013897 -0.00078838 -0.0003933 0.0017943 0.00053731 -0.00050386 0.0033833 -0.00041281 0.0039647 0.002507 0.0017581 0.0011532 -0.00094781 -0.0017973 2.5524e-05 0.0011151 -0.002294 -0.001487 0.0017965 0.0031019 0.0012121 0.0031467 
해줄 -0.0041309 0.0047603 0.0041768 0.0042382 0.0010408 0.00029859 -0.00087272 -0.0023101 0.0032316 -0.00097851 0.00029769 0.0013789 -0.0018473 -0.0050101 -0.00179 0.0042233 0.007422 0.0064952 -0.00089654 0.0021853 -0.00018757 -0.00010594 -0.0035631 -0.0020399 0.0018651 0.0029606 0.0024412 0.0036107 0.0003467 -0.0024519 0.0023454 -0.00020907 0.0031866 -0.0011849 0.0025704 0.0031267 0.0033781 0.0032808 -0.0021672 0.0031658 -0.0034355 -0.0022758 -0.0017596 -6.7062e-05 0.00062746 -0.0028611 0.0020872 0.0024528 0.00028104 -0.0020566 0.0069702 0.00091884 0.0045375 0.00073322 -0.0022309 -0.0068687 0.0014283 0.0040788 0.0031721 0.0016992 0.002386 0.00021789 -0.0023775 0.00011164 -0.0020356 -0.0033586 0.006888 0.0025299 0.0011321 0.0026591 -0.0024288 -0.0012175 -0.00082032 -0.0015202 -0.00025508 -0.00083796 0.0033319 -0.0053939 0.00356 -0.00098506 0.0014306 -0.0015805 -0.0027568 0.00085932 -0.0021283 -0.0033604 0.0047615 0.0035441 -0.00070898 -0.0034699 0.00074085 -0.0014436 -0.0022746 0.00018937 0.005845 0.0024041 0.0023793 0.0055342 0.0027958 -0.0025425 
있어? -0.00016855 0.0045407 -0.0062072 0.0013784 -0.0025516 0.0052231 -0.0037133 0.00015245 -0.00087621 -0.0039243 0.0016142 -0.00025431 -0.00081759 0.0006363 -0.0010083 0.0019318 0.0033858 -0.0015661 0.001826 0.002714 -0.0007046 0.0013844 -0.0038816 0.00039109 -0.0051971 0.00048304 -0.0059099 8.4413e-05 0.0001104 -0.0021385 0.0027442 -0.003833 0.0015813 0.00048758 -0.0010293 -0.0017399 -0.00077842 0.0035946 9.1664e-05 0.0031813 0.0010824 -0.0044359 -0.0027385 0.0028605 0.0037 0.0029873 0.002554 0.0019266 0.0035873 -0.0026606 -0.00042884 -0.0014028 0.0014375 0.0050611 -0.00091602 -0.0044724 0.0018752 -0.0007566 -0.001947 0.0021418 0.0014674 0.00347 -0.00013805 -0.0027166 -0.00038614 -2.9577e-05 -0.004866 -0.00028781 -0.0021901 0.0024966 -0.0011522 -0.002416 0.0013379 0.0015936 0.0007071 0.0020776 0.0012027 -5.5354e-05 -0.002604 0.002373 0.00015264 -0.0022402 -0.0021124 -0.0022804 0.0020462 0.0028067 0.00069591 -0.00071336 -0.00020811 -0.0014538 -0.0001434 0.00065981 -0.0012431 -0.0007514 0.0012529 -0.0023363 -0.00025176 0.0032016 -0.00014889 -0.0028434 
ㅈㅁ 0.0039846 0.0034173 -0.0023395 -0.00012874 -0.0028678 0.0038801 -0.0043634 0.0016163 -0.0016176 0.0009204 -0.0028316 -0.00025814 -0.00072288 0.0011371 -0.00082961 -0.00061771 0.0024249 0.00021163 0.0057287 -0.00035731 -0.0027217 -0.002256 -0.0019359 0.0012909 0.0027475 0.00099358 0.0010989 -0.0031474 -0.00049911 0.0025224 0.00071928 -0.0017727 -0.0013146 -0.0005289 -0.0033085 0.0016508 0.00047793 0.0020158 -0.0050099 0.0025092 0.00037674 -0.0033544 -0.0015329 -0.001067 0.0030858 0.0028691 0.0032162 -0.0036042 -0.00097732 0.0031645 0.0007043 -0.00062722 -0.0018036 0.003151 -0.0013932 0.0026607 0.0053186 -0.00066119 0.0026347 -0.0019831 0.0064868 0.00098188 -0.0035645 0.00091398 0.0016289 -0.00069741 0.0002786 -0.0028398 0.00086323 0.0011422 -0.004858 -0.0034746 0.0013918 -0.0010481 -0.0072157 -0.0034595 0.0046543 -0.0017363 -0.002605 -0.0022623 0.003291 -0.003783 -0.0016827 -0.0015932 -0.0020662 0.0040546 0.0041859 0.0019954 0.0003867 -0.0012327 0.00058844 0.0036921 0.0013688 -0.0039786 0.0036881 -0.0040912 0.0016005 -0.0019493 -0.0030411 0.00054188 
주문하고 0.003725 0.00085286 0.0021998 0.00033669 -0.00088279 0.0010267 -0.0015016 0.00026794 0.00095104 0.00062822 -0.00087811 0.004333 0.0013419 -0.000476 -0.00026116 0.0016057 0.0028031 -0.0017321 -0.0021496 -0.00050059 0.0004254 0.0010476 -0.0025062 -0.0030332 0.0023191 -0.0010452 -0.00050263 0.0013536 -0.00028197 -0.0021124 -0.00031916 0.0011254 -0.0029818 0.0011171 -0.00073312 -0.0016298 -0.00046548 -0.0019799 -0.00031211 0.00024738 -0.0016945 0.0015453 -0.0017576 -0.002106 0.0015372 -0.00066738 0.00021083 0.00068985 0.0022083 -0.0016659 -0.0016831 -0.00036093 0.0018223 0.00076613 0.00017573 0.0010265 -0.0028302 -0.00069129 0.0011513 0.0019504 0.0030044 0.0024406 0.00039794 0.00050557 -0.00056609 0.00036877 -0.00077379 0.00011395 0.00077633 0.002426 0.0010879 -0.00023029 -0.0010837 0.0034705 0.0043903 -0.00097648 0.002219 -0.0010002 -0.0015972 8.917e-06 -9.415e-05 0.00022887 -0.0013056 0.001367 -4.1564e-05 -0.0010938 0.0027011 -0.00034617 -0.003308 -0.00013265 -0.0027707 -0.0021904 -0.00033715 0.0037332 -0.0016754 -0.0023546 -0.0016113 0.00070316 -0.00099176 -0.001034 
싶어 0.0021193 0.0040672 0.0065157 0.0030687 0.00046958 0.0015323 -0.0044165 0.003231 -0.0036967 -0.0007894 -0.0007841 0.0011214 0.0020768 0.00099871 -0.0011653 0.0011569 0.0059471 0.0023775 -0.0027353 -0.0027528 -0.0005707 -0.0026275 -0.0057958 0.00026946 0.0029713 -0.00032624 -0.0045128 -0.0031589 0.00021111 -0.0010807 -0.0037006 -0.0011871 0.0019187 -0.00011755 0.0030006 -0.0012167 -0.00028445 -6.9444e-05 -0.00075684 -0.0045571 -0.0035078 -0.001478 -0.0024306 -0.00090239 -0.0023676 -0.002271 0.0050198 -0.0017428 0.0022483 -0.00053117 -0.0031495 -0.00092997 0.0012407 0.003011 0.0026343 -5.7834e-05 -0.0032316 -0.003036 0.00085239 -0.0015429 0.0043621 -0.0031706 0.0043878 0.0012655 0.0024765 -0.0005799 -0.00091363 -0.00097838 0.0014817 0.0052066 -0.0044071 -0.0018893 -0.00096252 0.001871 0.00068588 0.0022943 0.003565 -0.0011544 -0.00031372 -0.0015233 0.001534 0.0025921 0.0012507 0.00094863 0.00046768 0.0030833 0.0013322 0.0031463 -0.0045893 -0.00028495 0.0042309 -0.0060045 0.0055564 -0.00054343 -0.00026706 -0.00031147 0.0011607 0.00074646 -0.0013757 -0.00044615 
배달할래 -0.00064312 -0.0002291 -0.00087748 0.00059419 0.0031246 0.0044012 -0.00058963 0.0044158 -0.0031846 -0.0019466 0.0018509 0.0010211 -0.0013687 0.00058515 -0.0013573 -0.00070148 0.0016517 0.0015377 -0.0019721 0.0024786 -0.0034507 0.00092571 -4.9909e-05 -0.00018381 0.00092766 0.0042394 -0.0033318 0.00014398 0.00011347 0.0030346 -0.0011407 0.002057 -0.00082667 -0.0022528 0.0021847 -0.00057798 -0.0024008 -0.0018906 0.0024394 -0.0018549 -0.0011441 -0.002235 -0.0008722 -6.4178e-05 0.00084796 -0.0011432 -0.00036499 0.0010085 0.0013404 -0.00047703 -4.6805e-05 -0.0011567 0.0004811 0.0016304 2.3648e-06 -0.0027359 -0.0014734 0.0013766 -0.0025846 0.00068207 0.00091139 0.0011051 0.0030662 -0.0035122 0.0018272 0.0012793 -0.00045225 -0.002209 0.0020386 0.00053943 0.0021033 -0.0050416 -0.0022125 -0.0016329 -0.00094009 0.0020476 0.0030949 9.9991e-05 -0.0010199 0.0020886 0.00025697 0.0055723 0.0022698 -0.0003927 0.003248 0.0030254 0.0015563 0.0028056 0.0022395 -0.0043281 0.0002086 -0.00014596 0.00030466 0.0019696 -0.0008673 -0.00035779 -0.00057832 0.0017339 -0.00030712 -0.0010442 
가능한가요 0.00031874 0.00053422 0.00042411 0.00014115 0.0016126 -0.0012891 0.0012599 0.00166 0.0011395 -0.00031557 -0.0021732 0.0015348 -0.00030602 -0.00071369 -0.00077557 -0.00048025 0.0022577 -0.0025791 0.00066036 -0.00089883 -0.0013222 0.0010358 0.00082318 -0.0042259 0.00044258 0.0024118 -0.0038023 -0.00082295 0.0010438 0.0038374 0.00026391 0.0035239 -0.00025114 0.0023706 0.00081207 -0.00024385 -0.0034563 -0.001687 -0.00041228 -0.00052018 -0.0011082 -0.0022764 -0.00071656 -0.00051438 0.001067 0.00044931 0.0025122 -0.0012296 -0.00037917 -0.00065587 0.00096284 -0.0027344 -0.0003789 -0.0011024 7.8588e-05 -0.0018355 -0.0017845 0.0013058 -0.0014557 0.0035022 0.0040533 0.0020391 -0.0028145 0.0001353 -0.0023686 -0.00031756 -0.00067463 0.0019711 -0.0020053 -0.00017472 -0.00024284 0.0022063 0.00050279 0.0020616 0.0021765 0.0018062 -0.00054908 0.00062748 -0.0025424 0.0023954 -0.0024899 0.0002464 0.0010187 -0.00047061 -0.00049678 -0.0024922 0.0025882 -0.00085552 -0.00068727 -0.0005407 -0.0025015 -0.00022834 0.0053041 0.002354 0.00022918 0.00095819 -0.0016477 0.00025118 -0.00015422 -1.0175e-05 
한가요 0.00049814 0.0033833 -0.001133 0.0013688 0.0019219 0.002424 0.00050983 -0.0011785 0.0013347 0.00010642 0.00078446 0.0018232 -0.00050156 -0.0019939 0.0015419 0.0026625 -9.0701e-06 -0.0013763 0.0013984 -0.0029135 -0.002408 -0.0028609 0.0021912 -0.0015896 -0.0015782 0.0028516 0.0001033 0.001341 -0.00014586 0.0050112 0.0016162 0.0017748 -0.0020145 -0.0017803 0.00011056 -4.7727e-05 -0.0021197 -0.0035497 -0.00029039 -0.0053031 0.0004505 -2.8302e-06 -0.0018303 0.0011981 0.0046987 -0.001342 0.0025622 -4.0483e-05 -0.0014536 -0.0042068 -0.0032979 -0.0028054 -0.0039674 -0.0021002 -0.001994 -0.0017541 -0.00106 0.0026081 -7.3909e-05 0.0080356 -0.0025694 0.0015335 -0.0011061 -0.0018513 -0.0058475 0.0010447 -0.0013524 0.0031729 0.0004869 0.0046166 -0.0027584 -0.00040778 -0.0017534 -0.00078744 -0.00054345 -0.0021848 -0.00037458 0.00059906 -0.0016914 -0.0011523 -0.0035311 0.0037223 -0.00041927 0.001232 0.0030326 -0.0023849 0.0038099 0.0011987 -0.0017276 -0.0041632 -0.0031362 -0.0029497 -8.7305e-05 0.0031865 0.00042288 0.00089519 0.00071393 -0.00061683 0.00033654 0.0040354 
해도 0.0025576 -0.0060844 0.0026807 0.0036467 -0.00011875 -0.0022373 0.0018264 -0.0037151 -0.0049676 0.0018819 0.0018009 0.00045263 0.0006279 -0.0040354 0.0043749 -0.0021077 -0.0022355 0.0059208 -0.002191 0.0024368 0.0023448 -0.0013854 -0.0009038 -0.0021856 0.00059592 0.0017203 0.0014718 -0.00046724 0.0029604 -0.00046392 -0.0045872 0.0062354 0.0054859 0.0034369 0.0013456 -0.00050047 0.0029216 -0.0031366 -0.00056869 0.0010971 -0.00077858 0.0034377 -0.00094266 -0.0035936 0.0007277 -0.00014296 -0.00027338 -0.0019683 0.002832 0.00016395 0.0029275 0.00075363 0.00033958 0.0030154 0.00090028 -0.0039848 0.0020032 -0.00078256 0.0022167 -0.0027107 0.00052409 -0.0049773 0.0026014 0.001001 -0.0038449 0.0059172 0.0052331 0.0036957 0.0027639 -5.2904e-05 0.0013258 -0.00033904 0.0017223 0.0013122 0.0015562 0.00011583 -0.0035672 -0.0040348 0.0033381 -0.0036445 0.0017302 -0.0051936 0.0018454 -0.0064307 0.0014822 -0.0010503 0.0019579 -0.0013937 -0.0040979 -0.006062 -0.00063346 -0.0037571 0.0014509 -0.0022075 0.001577 0.0017346 -0.0028321 -0.00095405 -0.0018698 -0.0041592 
돼 -0.0071748 -0.0059956 -0.0057215 -0.0053922 -0.0014409 -0.0067659 0.0052916 0.0042998 0.0015206 -0.0049938 -0.0015497 -0.0034323 -0.0016601 -0.0027382 -0.0057662 -0.0070826 -0.0028159 -0.0040414 -0.0027866 0.0010932 -0.0010432 -0.00067026 -0.0022667 0.001029 0.0044723 -0.0018544 -0.0012568 -0.0054389 -0.00060274 0.0082554 0.0035345 0.0011325 -0.0046836 -0.0025255 -0.0024736 -0.0012713 -0.0076973 -0.0043281 0.0053446 0.00904 -0.00090045 -0.0036071 0.0050187 -0.0044181 -0.0032693 -0.0053557 0.00063626 -0.003634 -0.0057087 -0.0029523 0.0071582 -9.0191e-05 -0.00069778 -0.0058939 0.0040265 -0.0026293 0.00041533 0.0019103 0.0038039 0.0025282 -0.00044197 0.0017182 -0.006697 0.0010956 -0.0067995 -0.00037424 0.00042204 -7.5993e-05 -0.0077182 -0.0053981 -0.0044802 0.0068079 0.0040245 0.00048698 0.000592 0.00013559 -0.0033629 -0.0031668 0.0012038 -0.0032489 0.0015446 0.00087218 -0.0052475 -0.00052937 -0.00065399 0.0013464 0.00032507 -0.0021929 -0.0038854 0.0032741 0.0029336 0.00036539 0.0040683 -0.00055883 -0.0018206 0.0046829 -0.001918 0.0032417 -0.0048221 0.0036034 
시켜줘 -0.00010448 0.0027481 -0.0012103 0.0015095 -0.0012469 0.0012367 -0.00064293 -0.00011496 -0.0022616 -0.0057204 -0.002378 0.0015079 -0.00097738 -0.00019402 -0.0040623 0.00091854 -0.0023305 0.0024646 0.0041579 0.0032702 2.6847e-05 0.0025179 0.00017136 -0.003981 -0.0025404 0.0010904 0.0022677 0.00067784 0.0035992 0.0020319 0.0017312 0.00191 0.0026073 -0.0010605 0.001455 0.0012854 -0.0011776 0.00096978 0.00079534 0.00012904 0.00071886 -0.00010677 0.0036075 -0.00088032 0.00062377 -0.00037633 -0.0011246 0.00056403 0.002046 0.00080571 0.0024683 0.002744 -0.002639 -2.3071e-05 0.0020533 -0.0046815 -0.0010242 0.0031765 0.0017206 0.0019842 -0.0005507 -0.00022212 0.0009029 -0.0011161 -0.0009876 -0.001843 -0.0014695 -0.0022756 0.0011795 7.2279e-05 0.0016345 0.0010151 -0.0015317 0.00015706 -0.001907 0.0019847 0.0046961 -0.0015438 0.001543 0.00017014 -0.0017497 -0.00025493 0.0021346 0.0042077 -0.0022818 0.002618 -0.0013225 0.0019841 -0.00013863 0.00331 -0.0025405 -0.00042804 -0.0012574 -0.00049543 0.00049087 -0.00073713 -0.0027198 -0.00070816 -0.0002217 -0.00070049 
시켜 0.0011907 0.00074069 -0.00091925 0.0019695 0.0034988 -0.0028439 0.00099003 -0.0032967 -0.0027174 0.0028271 0.0045676 -0.0018082 0.00014939 0.00074246 0.0061354 -6.225e-05 -0.0034688 -0.00083604 0.0013728 0.0018372 0.005984 0.0022795 -0.0046846 0.00016433 -0.0010307 0.001415 1.8485e-06 -0.0040967 -0.0015967 0.0035212 0.0037189 0.0022848 0.00070354 0.0015607 0.0037335 -5.7222e-05 -0.0058761 0.0025078 0.001145 -0.0055604 -0.0036196 0.00061568 -0.0020761 0.0019465 -0.0024482 0.0036568 0.0013446 0.0027125 0.0024548 -0.00050414 0.00081667 0.0036515 -0.0031622 0.0008645 -0.00090018 0.0021584 0.00023273 -0.0021807 0.0011467 0.0037688 -0.0036424 0.003142 0.0021812 0.00047621 -0.00088816 0.002365 -0.0011755 -0.0010224 -0.00063793 0.004501 -0.0016869 -0.00091938 0.0086974 0.0026313 -0.0038789 0.0009305 0.002039 -0.0013542 0.0057649 -0.0030794 0.0018296 -0.004105 0.0026069 -0.0040752 -0.0033674 -0.0013432 -0.00064956 -0.0035942 -0.0016608 -0.0050372 -0.0075865 -0.0011962 0.0011572 0.00088832 -0.0033284 -0.0033086 0.0005401 0.0012266 -0.0049259 -0.0014248 
시켜줄래 0.0014805 0.0031548 -0.0019226 -0.00032741 0.0001272 -0.0013326 4.3379e-05 0.0014589 0.00076025 -0.00094453 0.00051282 0.00066696 0.00063489 -0.0028874 -0.00082468 -0.00065837 -0.00037562 0.001526 0.004262 0.0023323 0.00075898 -0.0012996 0.00099878 -0.0012346 -0.0025921 0.00095081 -0.00029856 -0.00071748 -0.001334 0.0025301 -0.0011862 0.0028724 -0.0025537 -0.0030212 0.0022062 -0.00016576 3.9648e-05 0.00013578 1.8889e-06 0.0031758 -0.00047853 -0.00011047 0.00085277 0.0022954 2.4165e-05 0.0026918 -0.0018152 0.0011523 -0.0012042 0.00072108 0.00086964 0.0024642 -0.0019522 -0.00069687 -0.00083169 -0.003976 0.00018485 7.3259e-05 -0.0011911 0.0019673 -0.002402 0.0024366 -0.00057444 0.00019341 0.001174 0.0014771 -0.002011 0.0022129 -0.0017608 0.00097714 -0.0011219 -0.00069639 0.0028042 0.00055487 -0.0010122 -0.0012207 -0.002812 0.0017014 0.00052101 0.0028969 0.00090016 -0.0017188 0.0024716 -0.0013872 -0.00086004 0.0021833 0.00028063 -0.0022897 0.0012242 -0.00041193 -0.0018288 -0.00050371 0.0018645 0.00041972 -0.0017101 -0.0016744 -0.001624 -0.00067563 -0.0026805 -4.2322e-06 
피자좀 -0.0014929 -0.0033044 0.00019198 -0.0006542 -0.00016636 -6.2563e-05 0.001147 0.0012557 -0.0019498 -0.0003388 -0.00039788 0.0022311 -0.0010016 -0.0014955 -0.0012213 0.0022501 0.00089332 -0.0042352 -0.0018292 -0.00030444 -0.00086451 -0.0025172 -0.00059163 0.0013397 -0.00037939 -0.0016131 0.0010017 0.00036332 0.00016136 -0.0019293 -0.0025358 -0.0045622 1.6049e-05 0.00064195 -0.0006644 -0.0022506 -2.1385e-05 0.00055789 0.00098081 -0.0015119 0.0011881 0.0040631 0.00033204 -0.00093444 -0.00198 0.00041555 -0.0044999 0.00029783 0.0013722 0.0051948 -0.00053482 -0.00036394 -0.0035486 0.00085682 -0.0026554 0.00070658 -0.0034908 0.002387 -7.1169e-05 0.0039203 0.00061236 -0.0015316 0.0016095 -0.0029103 0.00018438 -0.0011596 0.0013487 0.0028657 -0.0011238 -0.0027325 0.00096795 -0.00070635 0.0017695 0.00049768 0.0011831 0.0042717 0.001212 0.0022297 0.0014828 0.0023147 -0.00091869 0.0034442 0.00086848 -0.001668 -0.0012105 0.0022197 0.0032409 0.00025398 -0.0023426 -0.00022308 0.00078609 0.004442 0.0053953 -0.0027298 4.7146e-05 -0.001588 -0.0032275 0.00066478 0.0011651 0.00096748 
.. 0.0064766 -0.00094972 0.0062994 -0.0028404 0.0023393 0.0005611 -8.5291e-05 0.00078546 0.0010026 0.0024266 0.0073558 0.00039267 -0.0023809 -0.0016685 0.0039471 0.0029736 0.0038516 -0.0010299 -0.0040669 -0.0011255 0.00073307 -0.0022357 0.0026136 0.0011976 -0.00040497 -0.0039719 0.0050889 0.0032107 -0.0025602 0.0013892 0.0017422 -0.0027926 -0.0022739 -0.002468 -0.0010408 -0.0025497 -0.0036195 -0.00094367 -0.0033985 0.0020506 0.0018744 0.00072731 0.0004904 -0.0050399 0.00067403 -0.0025194 0.0043484 0.004533 0.0015818 -0.00024862 0.00066977 -0.00067831 -0.00027402 0.0017631 -0.00071702 -0.002149 0.0015168 0.00094773 -0.0050531 -0.0030152 0.002453 0.0029884 0.0067529 -0.0037819 -0.0020566 -2.7229e-05 -0.0073148 0.0044087 0.00093099 0.0011918 0.00088364 0.00041547 -0.0041325 -0.00074342 0.0038444 0.00058563 -0.0007789 -0.0020614 0.0025864 0.0041052 0.0054409 -0.0017416 7.0685e-06 0.00051199 -0.0014584 -0.0024549 0.0064812 -0.0016178 -0.0012156 -0.00052894 -0.0016531 -0.0024963 -0.0020345 -0.0019278 0.0050215 0.0038792 -0.0012851 0.0018291 -0.0014076 0.00083452 
가져와 -0.0016548 0.0024796 0.0007977 0.0016062 -1.8465e-05 0.00033373 0.0027067 0.00067631 0.0056983 -0.00036722 0.001536 0.0012497 -0.00055244 -0.00096859 -0.0059765 0.0015533 0.0019803 0.00099983 0.0007454 0.0036043 -0.0017455 0.00094475 -0.0027824 0.0027009 -0.00071115 0.0039381 0.0014085 0.0023244 0.00018615 -0.00028598 0.0011015 0.0010097 -0.0024975 -0.00066825 0.00046979 -0.00058831 0.00076432 0.0025241 -0.0033269 0.0025511 0.0067421 0.00081065 0.00028939 0.0023008 0.0012146 0.00079089 -0.00011545 0.0012337 0.0032468 -0.0029673 -0.0040833 0.00023875 -0.0028496 0.0036271 -0.0037266 -0.0015577 -0.0015213 -0.0016029 0.0018916 0.0042428 0.0015638 0.005156 -0.0012701 0.00013845 0.0033039 0.00051705 0.0050737 -0.0035614 0.0038801 -0.0016959 0.00014074 -0.00047624 0.00029045 0.00026051 -0.00039808 0.0019483 0.00081927 0.0010023 0.00074548 0.0024258 0.0041918 -0.003777 -0.0044784 -0.0018376 -0.0012125 0.0033616 0.0044521 0.00032764 -0.0017346 -0.0017257 -0.0034904 0.0033151 0.0024529 0.0016246 0.0033976 0.0015379 -0.00094815 -0.0017887 0.00022607 -0.002774 
내놔 -0.0011325 0.0036544 -0.00032479 -0.0030459 0.00064619 -0.0033594 -0.0022777 -0.0035713 0.0014143 -0.0042078 0.004185 0.0064532 -0.0041695 0.00085422 0.0012589 -0.00033951 0.0016774 -0.0023939 0.00062358 0.00040339 -0.0018944 -0.0019197 0.006106 0.0042244 0.00017998 -0.0059095 -0.0027647 0.0016425 -0.00031153 0.0037672 -0.001226 0.0029672 -0.001917 -0.00069418 0.0028792 -0.0051562 -0.0010034 0.0015331 -0.0034154 0.0068666 0.0011357 -0.0042083 0.0048108 -0.0020714 -0.0027879 -0.0048446 0.0034326 0.0057463 -0.0013987 -0.00090223 -0.002438 0.00027829 0.0045742 -0.0015011 -0.0030641 -0.001236 0.0049408 0.0034416 -0.0037255 0.0010054 0.0030809 -0.0024328 0.0018201 0.00031256 -0.0071188 0.0022224 -0.0035386 0.001784 -0.00086659 0.0036454 -0.00078221 0.00037626 0.0039426 0.00037512 -0.0010451 -0.0027763 0.0012656 -0.0027571 0.0001231 0.0019359 0.0033279 -0.0020502 0.0039727 0.00081593 -0.0035569 0.00020892 0.0051457 0.0011425 -0.0024576 -0.00060186 0.0043602 -0.0045085 0.0023459 -0.00074607 0.0024279 0.0021991 -0.0034834 0.0043649 0.0018472 -0.0053959 
얼마예요 0.001403 0.00096357 0.0013643 -0.00017215 0.0013466 -0.00034724 -0.0027546 -0.00012765 0.00098043 0.0017046 -0.00010005 0.0013856 -0.002854 -0.00082948 0.0024104 -0.0025869 0.0016884 0.0025973 -0.003774 -0.00077595 -0.0013279 -0.0029148 0.0011845 -0.0018613 0.00010785 0.0014863 0.0016643 0.00076435 -0.0019532 0.0019359 -0.0016103 -0.0012516 -0.00132 0.0022463 0.0016137 -0.0021422 0.00057717 -0.00029252 -0.0030543 -0.0032012 0.0001159 0.0031789 -0.0012146 -0.0029728 -0.0012818 0.0012441 0.00029947 0.0021021 0.00094057 -0.003009 0.00010484 8.4041e-05 -0.00082679 0.00056865 -0.0018893 0.0021008 0.00024158 0.0040026 -0.0013849 0.0034657 0.0012915 0.00089224 0.0014777 0.0012308 0.0026337 0.0014975 -0.0016128 0.00096094 -0.0013354 -0.0024222 -0.0014062 -0.00051494 -0.0021476 -0.0001867 0.0021798 -0.00030877 0.0034039 0.00058218 0.0019891 0.0002537 -0.00096371 0.0025933 0.00099799 0.0021288 0.0033847 0.00066619 0.0048751 0.0016998 0.0017168 -0.00019451 0.0020841 0.0019738 0.00085918 0.0012661 -0.0026344 -0.0015544 0.0014746 -0.00053266 0.0023238 0.00099985 
얼마 0.0059301 -0.0023673 -0.0029638 -0.001565 -0.0011328 0.00037 0.0033533 0.0052104 0.0032779 -0.0012757 -0.0026354 -0.00051594 -0.0028722 -0.0013288 0.00037106 0.0030903 -0.0019956 0.0037852 -0.0021957 0.0026518 0.0029547 0.0034929 -0.001729 -0.0021625 -0.0031701 0.0049993 -0.0015842 -0.0016908 0.0034028 -0.0015635 -0.001655 0.0045652 -0.0048854 0.001442 0.0012453 -0.0023223 0.0015359 -0.0024703 -0.0018048 -0.0037344 -0.0051979 -0.0039002 0.001877 -0.00068824 -0.0028575 -0.00050354 -0.0048497 0.0028019 -0.0011348 0.0020799 -0.00076393 -0.0017984 -0.0017152 -0.0042163 -0.0011088 -0.0035883 -0.0031547 0.0055803 -0.00073681 -0.00047985 0.0036092 0.0025283 -0.00089632 -0.0020181 0.0034291 0.0015011 -7.05e-05 0.0045769 -0.0053144 7.165e-06 0.0022885 -0.0006019 -0.0014189 0.0054674 -0.0026108 -0.002251 0.0051801 0.0037067 0.0019216 0.00071987 -0.0011263 0.00080727 -0.0073558 0.0045889 0.0015511 0.003203 0.0041546 0.0016361 0.0017441 -0.0052693 0.00086502 -0.0054899 -0.0010283 0.00036598 -0.0027069 -0.0037404 -0.0005789 0.0026739 -0.000273 0.00071513 
가격은 -0.0010754 1.4471e-05 -0.00072452 -0.0013498 0.0023052 0.00075096 -0.0012456 0.003065 0.0013273 -0.0035711 0.0014245 0.0029647 -0.00033975 -0.00087895 0.0042705 0.0010249 -0.0019637 -0.00091269 0.00067522 0.00074382 -0.0026764 -0.00085127 0.0021374 0.0040536 0.0002374 -0.0028161 -0.0030033 0.00085117 -0.0004507 -0.0014775 0.0035189 0.0021844 0.00059358 0.0017258 -0.0015626 0.00074959 -0.0019702 0.0007918 0.00069708 -0.0016847 0.0002669 -0.0026049 -0.0053951 -0.00070935 0.0030293 0.00019153 0.00028356 0.00024798 0.0033237 -0.00059972 -0.0019161 -0.0011839 0.00097459 0.0012064 -0.0011623 -0.00054947 0.0043651 -0.00097579 -0.0019865 -0.0024764 0.0018947 2.4378e-06 0.0024366 -0.0034219 -0.0017202 0.0011581 0.00071781 -0.0008729 0.0035595 -0.00031102 -0.0017955 -0.00060497 0.0005264 0.001595 -0.0018641 1.0446e-05 -0.00037936 0.003769 -0.00038944 0.0023948 0.00055449 -0.0020242 -8.7393e-05 0.0020576 -0.00058064 -0.0024977 0.0027267 -0.0015644 0.0010526 0.0019934 0.001523 -0.0006599 0.0023487 0.00012967 -0.00050903 0.0044657 -0.00090924 0.00086991 0.00087487 -0.0028049 
주문할래 -0.00088661 -6.8669e-05 -0.0005832 -0.002233 -0.00080574 0.0022839 -0.0025069 0.0013192 1.9617e-05 -0.0029564 0.00090938 0.0016524 0.0034878 0.0039605 -0.0003674 0.0012443 0.00085576 -0.0014776 -0.00068652 -0.00053091 0.00012655 0.0028548 0.00048229 0.00079714 -0.00099264 0.002173 -0.0023308 -0.0013826 -0.0032951 0.00082577 -0.00019432 0.00049041 0.00065698 0.0015496 0.00043855 0.00014314 -0.0018276 -3.1176e-05 0.00023466 0.00074034 -0.00012133 -0.0020252 -0.0031945 -0.00080169 0.00066405 -0.003074 0.00095412 -2.415e-05 -0.0023632 0.0010262 -0.0021496 -0.0011468 -0.00069978 0.0018295 -0.0021055 -0.0012255 0.0026676 -0.0027021 -0.0013603 -0.0016352 0.0020407 0.00071932 -0.0027011 0.0020971 -1.3224e-05 0.0007891 0.0011679 -0.0003216 -0.0011686 0.00050134 7.9421e-05 -0.00087377 -0.0013023 -0.0010292 -0.00088016 -0.0024447 -0.0016897 0.0017876 0.0012952 0.0021381 0.00067381 0.0013469 -0.00085395 0.00011707 0.00051723 0.00064139 0.00057962 -0.0013164 0.0018653 0.00094418 0.0031182 0.0015649 0.0018187 -0.00010258 -0.00083316 0.0013249 -0.00058475 0.0009705 0.0025794 -0.0004145 
알려주세요 0.00060556 -0.0012401 -0.0021514 -1.0927e-05 -0.00052436 0.0010223 -0.00084564 0.0016184 -0.0017433 -0.00026733 -0.0023038 -0.0021474 -0.001228 0.0006916 -0.00057194 0.00026166 -0.00022891 -0.0015272 -0.0010946 -0.00088426 -0.0012358 0.00025208 0.0025034 -3.5389e-05 -0.00085705 -0.0017454 -0.0015637 0.00081679 -0.0010265 -0.0018365 0.0029881 -0.00058694 0.00029641 0.0018978 -0.0016844 0.00061252 0.0016259 -8.1083e-05 -4.0688e-05 -0.0016054 6.7429e-05 -0.001242 0.00011964 -0.00048029 0.0012262 0.00065231 -0.00030786 0.0035937 -0.00026078 0.00078965 -0.0015613 -0.0028732 0.00045384 0.0027344 0.00077941 -0.0017277 0.00082657 -0.00035386 0.0004406 -0.00015398 0.002608 -0.00089887 0.00056429 -0.0034902 -0.00019126 -0.0010137 -0.0043952 0.0042486 0.00106 -0.00022325 0.00081639 -0.00076446 -0.00042381 -0.0010743 -0.002391 0.0017344 0.0031508 -0.0010101 0.0001377 -0.0005605 0.00098442 0.00054939 -0.00084748 -0.0015753 -0.001902 0.0009833 -0.00025621 0.002229 -0.0011553 -0.0016276 -0.0006874 -0.00070298 0.0012717 -0.0033778 -0.0016725 -0.00017492 -0.0015954 0.0024911 -0.00038918 -0.00087297 
얼마나 -0.0014421 -0.0015262 -0.0004254 0.00068159 -0.0039883 -0.00099889 4.1895e-05 0.0031013 0.0013238 0.0026285 -0.0036348 -0.0033221 0.0010717 0.0034881 0.00055244 0.0022949 -0.00019765 -0.0017272 -0.00031654 -0.00060905 0.0029269 0.00010212 0.0017839 0.0014472 -0.00025106 0.0020803 0.00075798 -5.3005e-05 -0.0012164 -0.00078853 0.0017538 0.00046396 -0.0016246 0.0022389 0.001908 -0.0043308 0.0028623 0.0024691 -0.0012537 -0.0040365 0.0009503 -0.00027988 0.0043231 0.00080598 -0.0034803 -0.00028044 -0.0033356 0.0027648 -0.0012168 0.0016154 -0.0029058 0.0016397 0.00078028 0.0015804 -0.0018926 -0.0050764 0.0006977 0.00082854 -6.0711e-05 0.0021746 -0.00051506 -0.0024696 0.00037113 -0.0011359 0.0011616 0.0021849 0.0014686 0.0005554 -0.0018933 -0.0027733 -0.0031796 0.0025978 0.00080361 -0.0051047 0.00050713 -0.00021271 0.0045553 -0.0022089 0.001668 -0.0038242 -0.00014147 0.0032976 -0.0009261 -0.0012278 -0.00099948 0.0030874 0.0016857 -0.0025542 0.00088745 -0.0020618 0.0015117 0.0004189 0.00040748 0.0011964 -0.0018727 -0.0016825 -0.0013305 0.0028524 0.0011166 0.0053109 
냅니까 -0.0019444 -0.00051777 -0.0056837 -0.0014994 -0.0026161 0.00031118 0.00026068 0.00078613 0.00051066 -0.0030115 -0.00013505 -0.0018371 -0.0008645 0.00038167 0.0030474 -0.0042727 -0.0016513 -0.0049544 0.00053366 0.0027274 -0.0015287 0.0023114 0.00017498 0.0023855 0.0012591 -0.0016891 -0.003914 -0.0006335 0.0028116 0.00419 -0.00021762 0.001897 -0.0012115 -0.001866 -0.0028278 0.0010148 -0.00097332 -0.0019251 0.0019965 0.0046046 -0.00060784 -0.00073526 -0.0027204 0.0014571 -0.00074047 -0.0033214 -0.0030926 0.00079678 -0.001556 -0.001275 0.0027553 0.00099866 -0.0025461 -0.0017038 0.0022016 -0.0043793 0.0019052 -0.0013968 -0.0021756 -0.0015345 0.00049253 -0.00079734 0.0014782 0.00013964 -0.0016284 0.00090313 0.0010437 0.0006859 -0.003751 -0.0012006 -0.00026967 0.00015681 -4.9062e-05 0.0020562 -0.0018882 -0.00081673 0.00017137 0.0017236 -0.0016996 0.0019976 0.00030997 0.00051946 -0.00033172 0.0026861 0.002169 2.0828e-05 0.0032359 -0.0019315 -0.00032802 0.0017021 0.00017128 0.00054963 0.0027962 0.0051448 0.0022616 0.0020179 -0.00035252 0.00077803 -0.0018755 0.0040078 
알려줘 0.0013132 -0.0019451 -0.0018715 -0.00044012 0.00078588 -0.000769 -0.0054134 0.003261 -0.0006408 0.00078358 -0.0017013 -0.00040367 0.0036872 -0.0017852 -0.0029803 -0.00010419 0.0025966 -0.0030941 -0.0029488 -0.0014103 0.00096037 0.003566 0.0021062 -0.003316 0.00040386 0.00086867 0.002602 -0.00082071 0.00019493 0.0042289 -0.0026095 0.0030944 -0.002377 -0.00034649 -0.0015311 0.00029867 -0.0026723 -0.00034735 0.0014053 0.00029222 -0.0016436 -0.0017023 0.00080557 -0.002625 0.0001536 -0.0012723 0.0019438 0.0022882 0.0037269 0.0014434 -0.00077336 -0.0017253 -0.00294 0.00059474 0.00051163 0.00059546 -7.9792e-05 0.00036334 0.00076287 0.0013111 0.0021708 0.0019254 -0.00071933 0.0011322 0.0013097 -0.00056367 0.0043894 -0.00078907 -0.0010539 0.00094151 0.0030611 0.001089 -0.0026734 0.0013089 -0.0024314 0.0023786 -0.0018891 -0.0045404 -0.0024197 -0.00064216 -0.0039718 0.0014451 -0.00092705 0.0015498 0.00068589 -0.0023132 0.0042373 0.0029769 -0.00083641 0.0016073 -0.0016531 4.5891e-05 -0.00065558 0.0036607 -0.0018656 -0.0018596 -0.0014526 -0.00066534 -0.001709 0.001526 
말해줘 -0.0010435 0.0041565 0.00070866 0.00081871 -0.0004501 0.00024305 -0.0042841 -0.0032487 -0.00060966 0.0034484 -0.0012463 0.00098861 -0.0013984 0.0031673 0.00071988 0.00033736 0.0024654 -0.00010181 -0.0014637 -0.0013267 -0.0036383 -0.0024225 0.0024246 -0.00020312 -0.0007704 0.00059618 0.0010957 0.00028511 -0.00018856 0.0015086 -0.0037089 0.00016324 -0.0015199 -0.00041003 0.0015828 0.002016 -0.0013081 -0.0024309 -0.00045772 0.0021435 0.0011792 0.0045253 -0.0011252 0.0003398 -0.0014232 0.00037123 -0.00095383 0.0046588 0.0010637 -0.00094449 -0.0017665 -0.00067321 -0.00060383 0.0027345 -0.0019684 0.0013916 0.0017122 0.0031031 -0.0037263 0.0013429 0.00020238 -0.0012778 -0.0013949 -0.00048519 0.0019925 0.0019295 -0.0013411 0.0020385 0.00097948 0.00069755 0.0039037 -0.00067294 0.00092285 -0.00075513 -0.0018037 0.0040154 0.00054947 -0.0024945 -0.0015858 0.00075745 0.0005957 0.0012822 0.0019039 -0.00075148 -0.00043702 0.0023485 0.00081266 0.0026933 -0.0013401 0.00069194 -0.0001687 0.0053804 0.0016 -0.00017387 0.00022934 0.0017484 0.0054681 -0.002076 0.0030803 0.00013384 
얼만데 -0.0041493 0.0054149 -0.0019377 -0.0018756 -0.0028074 -0.00050587 0.0011487 -0.000702 0.00048064 -0.0044173 -0.0014794 0.0018591 0.0031325 0.00024737 0.00070876 -0.0033433 -0.0020856 -0.0055262 -0.0029206 -0.001062 -0.0023786 0.00059035 0.0034785 0.0040411 -0.0023723 -0.0029596 -0.0052762 0.0010328 -0.00026851 0.0050616 -0.00092019 -0.002662 -0.00064609 -0.001076 -0.00093951 -0.0031826 0.00086035 0.0011259 -0.00084649 0.005612 0.0024948 0.0023874 0.00069507 0.0036361 -0.0016345 -0.00023301 -0.00081188 0.00098842 0.001589 -0.0016614 -0.001121 -0.00076217 -0.0016622 -0.0020714 0.0024896 0.0056108 -0.00078984 0.0032854 -0.00080931 -0.0031486 -0.00035399 -0.0029226 0.0019685 -0.0029082 -0.0054191 0.0028812 -0.0030502 0.0043118 -0.0044729 -0.00058563 -0.0008702 -0.0011577 0.0064775 0.0012098 -0.0039942 0.0028647 -0.0012746 -0.0006353 0.0005262 0.0010584 0.0027679 0.00039251 0.0013404 0.0010821 -0.0032799 0.0034289 0.0050048 0.0011824 -0.0015533 0.0045367 -0.0016583 0.0010258 -0.0013287 -0.00099515 5.582e-05 0.0027607 0.0011673 0.0014768 -0.00024015 -0.00059864 
얼마인데 -3.8656e-05 -0.0036871 -0.00054131 0.00016806 -0.00065741 0.00062303 -0.0011555 0.0041142 -0.003515 -0.0021777 -0.00014971 0.0015191 -0.0021301 -0.0011692 -0.001999 -0.0012488 0.00075771 0.0023047 -0.0024148 -0.00023033 0.0015469 4.2388e-05 -0.0031473 -0.0010922 -0.0020397 -0.0017194 -2.3292e-05 -0.0010502 0.003009 -0.00010764 -0.00067192 -0.0028864 0.0010213 -0.0018662 -0.00018171 0.00091595 -0.00017425 -0.0019512 0.00056438 -0.0004925 0.0034552 0.00082826 -0.00075859 -0.0017363 -0.0019912 0.00036025 0.0018054 0.0010396 0.0036374 0.00067974 0.00048675 0.0013065 -0.0024547 -6.8968e-06 -0.0022188 -0.001207 0.00017443 0.00053015 0.00020765 -0.00036574 0.00090706 0.00062464 0.0033325 -0.0011838 0.0019821 -0.00033442 -0.00027294 -0.0010441 -0.0012642 -0.0020493 -4.2409e-05 -0.0020209 -0.00096297 0.0020297 0.00017006 0.001286 -0.0002285 -0.00068102 -0.00054584 0.0021393 0.00032735 0.0043402 0.00050309 0.0009104 0.001348 -0.00033605 -0.0011757 -0.0015152 0.001339 0.00092177 -0.0029053 -0.00040933 0.0039514 -0.0002771 0.0008806 -0.0019398 0.0010125 -0.0010204 0.00039579 0.0025212 
