50 100
</s> -0.012632 0.016 -0.014453 -0.0048915 0.017355 0.0069716 0.0046367 -0.0061551 0.029179 0.026024 -0.010252 0.0068151 0.015815 0.018033 -0.0085436 -0.00095858 0.0016334 0.0064246 -0.0015826 -0.014214 0.0029422 0.015219 0.0081674 -0.013403 0.0074624 -0.013904 0.013487 -0.013711 -0.011007 0.019901 -0.0067693 -0.00064563 -0.017344 -0.014338 -0.027952 -0.003538 0.0012763 -0.014183 -0.00012972 -0.0093587 0.016619 0.020732 0.0093036 0.007763 -0.0035126 0.0024204 -0.0024092 -0.0034484 -0.015388 0.012762 -0.019881 0.017877 -0.015289 0.0089598 -0.0079368 -0.0075171 -0.0013315 0.0010944 0.0067524 0.0072767 -0.01091 0.013772 0.021298 0.01783 -0.011596 -2.5206e-05 -0.016541 0.0093731 0.014768 0.0066111 -0.016209 0.0059473 -0.0050094 1.871e-05 -0.004844 -0.0063146 0.026453 0.019402 0.0090597 -0.011795 -0.013512 0.011231 0.020582 -0.018043 -0.0082622 -0.014756 -0.00059042 0.0071066 -0.011175 -0.011932 0.02016 0.0068398 0.028192 -0.022771 0.00099422 -0.021092 0.0085733 0.022684 -0.011332 -0.0045478 
? 0.0025736 0.0046417 0.0085972 -0.009099 0.00627 0.0077637 -0.0064884 0.0013717 -0.0040347 -0.0027207 -0.00040422 -0.0066124 -0.004997 0.0018025 -0.005772 -0.0071222 0.0034486 0.006131 -0.0069154 -0.00032409 -0.0049881 0.009403 0.0038145 0.00723 -0.0086454 -0.005812 -0.010165 -0.00075061 -0.0018791 -0.0076094 -0.0049662 -0.00074976 0.004333 -0.005746 -0.0057215 -0.0021166 -0.0071866 0.0046441 -0.00044255 -0.0026564 -0.010297 0.0089551 -0.00519 0.003022 0.0089344 0.0018616 0.0079789 -0.0030968 -0.0036747 0.0031397 -0.00057428 -0.0020307 0.0026785 0.0047599 -0.0087424 0.0037625 -0.0095149 0.00046124 0.0084362 -0.0026881 0.00015407 0.0031681 0.0051414 0.0076314 0.0048961 -0.0035402 -0.0067716 -0.0054296 -0.0059874 -0.0057464 0.0017792 0.0049535 0.0058996 -0.0074648 -0.0022975 -0.002632 -0.0045437 0.0024206 0.0061199 0.0060657 0.00071417 -0.0059685 0.0021218 0.0031323 0.0048231 0.0038791 -0.0019902 -0.010091 -0.0043536 0.0076091 0.0025374 0.0025195 0.0018124 0.0022037 0.0093625 0.0027993 -0.00070519 0.001807 -0.0064202 -0.0069596 
주문 0.00549 -0.0047268 -0.0043362 -0.0045908 0.0052766 -0.0048831 -0.0091509 -0.011915 0.017405 0.015878 -0.013457 -0.0007907 0.00077347 -0.0015482 -0.0045393 0.0049632 0.0029625 -0.0028063 -0.008549 0.00080437 0.008845 -0.0031992 -0.0053423 -0.00027883 0.00035024 -0.0043587 0.0099863 -0.013421 -0.012018 0.0061432 0.0031362 0.0081594 -0.0080042 -2.9147e-05 -0.016053 -0.008223 -0.0083094 0.00669 0.0095193 0.0073012 -0.0047822 0.0098871 0.0071326 0.0022689 0.0041871 0.0047775 0.0089777 0.0081266 0.0032312 0.011441 -0.0067439 0.003086 0.0029668 -0.0040748 -0.012601 0.0071374 0.00073414 -0.0086217 -0.0056202 -0.0025205 0.0079393 0.011977 0.012669 0.011571 -0.0095431 0.0028797 -0.0092559 -0.00079178 0.0066001 -0.0086755 0.0047917 0.0057084 0.0030054 -0.010018 -0.010927 0.0024163 0.015598 0.00019277 0.013199 -0.011069 0.0068045 -0.0004252 -0.0025429 -0.0087451 -0.0033509 -0.0095697 -0.0028156 0.012244 0.0033234 -0.0070265 -0.0020666 0.00022247 0.014595 -0.0085923 0.002971 -0.0061844 -0.0011848 0.010599 0.0034609 0.0077427 
피자 -0.0015032 0.012624 -0.0092206 -0.0045697 0.0055647 0.010268 -0.0064571 -0.0027269 0.013466 0.012971 -0.0076291 0.010454 -0.0047315 0.0085144 0.0033915 -0.0054084 -0.006374 -0.0074954 0.006875 0.00056916 0.0099409 0.012055 0.00086983 -0.0015154 -0.0063741 0.0017225 0.012315 -0.0063002 -0.012758 -0.00095756 0.0064087 0.0061073 -0.0041075 0.0054927 -0.0091641 0.0068097 0.0014028 -0.0063389 -0.0010786 0.0030864 0.004811 0.004916 -0.001835 -0.0045008 -0.00049857 -0.0041501 0.0081655 -0.0011434 0.001674 0.010366 -0.014475 -0.0024484 -0.0010501 -0.0049565 -0.0046791 -0.0061856 -0.0013769 0.0026683 0.0058724 0.0023637 -0.010079 0.0060908 0.0087979 -0.0035377 -0.010078 0.002026 -0.0030648 -0.003825 0.001147 -0.0036841 0.0060002 0.0047386 4.6822e-05 0.0037071 -0.0019905 0.0075162 0.011304 0.013366 0.010391 -0.010773 -0.00090955 0.005149 0.01255 0.0017076 0.0083791 -0.0027415 -0.0017061 0.010125 -0.012344 -0.01202 0.0053566 -0.0052008 0.0083885 -0.0022014 -0.0062606 -0.0088706 0.0012487 0.0095096 -0.004852 0.0011019 
. -0.0049527 0.0062157 -0.00111 0.0011142 0.011306 0.010185 0.0042913 -0.01039 0.0083914 0.0068436 -0.0017611 -0.0040237 -0.0037181 0.0043992 0.0081025 0.00091897 0.0030187 -0.0022197 -0.0061312 0.0080293 0.0089657 -0.0017067 -0.0041014 -0.01035 0.0032732 0.0026705 0.011173 0.0020844 0.0059163 0.0084738 0.0054481 -0.0083997 -0.0092775 -0.0029938 -0.0019304 0.0065906 -0.0093782 0.0084348 0.0060676 0.00033599 -0.0025577 -0.00044118 0.0085182 0.010239 0.004834 -0.0099272 -0.00056372 0.0089386 -0.0030417 -0.0014584 -0.0071107 0.0066053 0.00338 0.00090273 0.0082838 0.0069531 -0.0056079 0.0049085 -0.0091432 0.0098731 0.002282 0.0031237 -0.0020812 0.00075385 0.0059924 0.0052727 -0.0060138 -0.0082401 -0.0046442 0.004208 -0.0050337 -8.1985e-05 -0.0075016 0.0068855 -0.0056703 -0.0045431 -0.0041997 -0.0081583 0.0061803 -0.0036992 -0.0085131 0.0027469 0.0024582 0.0019807 -0.0011273 -0.0040576 0.0023543 0.0065897 -0.0057785 0.0061164 0.0071966 0.0010517 0.012023 -0.0026825 0.002204 0.0057485 -6.9008e-05 -0.0067105 -0.0073045 -0.0064107 
수 0.0089483 0.0057548 0.0053857 -0.0047786 0.0062146 0.0040761 -0.0080592 -0.0033622 -0.0067645 0.010903 -0.00073258 0.0042057 -0.0046517 -0.00049807 -0.0068201 0.0040393 -0.0064012 -0.0082381 0.0071336 -0.007114 -0.0067092 0.0026403 0.006629 -0.0036288 0.0026981 0.0057435 0.0010213 -0.007516 -0.0091166 -0.0056765 -0.0069061 0.007036 -0.0054833 -0.0018129 0.002216 0.0060215 -0.0073859 -0.0055547 -0.0081334 0.0087106 -0.0056225 0.00082311 -0.0038302 0.0037873 0.0079442 -0.0030443 -0.0027523 -0.0097596 -0.0058327 0.009019 -0.0069511 -0.0076168 -0.010367 0.0067945 0.0035973 0.0023796 0.0016917 -0.00054109 0.0007292 -0.0020271 -0.0089112 -0.0030066 0.0098592 -0.0025895 0.0041402 0.0026179 -0.010573 -0.0060698 -0.004636 0.0077251 -0.0027215 0.0071293 0.0095881 -0.0099718 -0.0036892 -0.002561 0.0045388 -0.0068295 -0.0052013 -0.0041597 0.0048341 0.0056923 0.0035763 0.0091407 0.0063221 -0.0019823 -0.0094318 0.001995 -0.0094352 0.0088994 -0.00017903 -0.001474 -0.0064674 0.0008511 0.00035692 -0.00094095 -0.0083884 0.00056787 -0.0064669 -0.0079499 
가격 0.0080437 -0.0020214 0.010002 -0.0078957 -0.0056554 0.0028975 0.0044806 -0.00073376 -0.0021051 -0.00213 0.0019696 0.0052453 -0.010842 -0.01115 -0.0044121 0.00829 -0.0018268 -0.0022094 0.00083267 0.0059484 0.006949 0.0079383 0.0013942 -0.0034142 0.0016744 0.0066643 -0.007499 0.00089192 0.001932 0.0076733 -0.0065894 -0.010328 -0.0047114 0.0028929 0.0067561 0.0063859 0.0047533 0.0045002 -0.00035807 0.0014446 -0.005235 0.0045355 0.0044292 -0.0057735 0.0075987 -0.0062334 0.0092192 -0.0076495 0.00088793 -0.0076488 0.0070846 0.0051073 -0.0047804 -0.00037918 0.0059725 -0.0030103 -0.00084296 0.003111 0.0075465 -0.0026719 0.00033594 0.0050525 -0.011552 -0.010928 -0.0046967 0.0060824 -0.0084547 0.0034307 -0.0019447 0.009834 -0.0069845 0.0013266 -0.0050748 -0.0028778 0.0020288 0.0011473 -0.002841 -0.009576 -0.0093944 -0.0016701 0.0072384 0.0069071 0.0022837 -0.0049541 0.0074275 -0.004138 0.0079497 0.0042252 0.01031 0.0016521 -0.0031306 -0.004964 -0.0061049 0.0011641 -0.0064644 -0.0060778 -0.002382 -0.0061196 0.0091649 -0.0088916 
부탁해 -0.007034 -0.0027836 -0.0090768 -0.0068815 0.0097269 -0.0021008 -0.004194 0.00051473 0.0027928 -0.005121 0.0026515 -0.0082683 0.00074794 0.010362 0.0059552 -0.0011691 -0.0050995 0.0010297 0.0019285 0.0043443 0.0017972 -0.0028774 -0.0064732 0.00206 -0.0054342 -0.006515 -0.0035023 0.0042774 -0.0054474 0.0032245 -0.00077609 0.0077223 0.0084524 0.003441 -0.011126 0.0047848 0.0077934 -0.0095119 0.0083179 0.0020932 0.0058357 0.0068467 0.00077118 0.0072473 0.005081 0.0054301 0.0077859 0.0078067 0.0055401 0.010562 -0.0076928 0.00027641 0.0049152 0.0088283 0.0017507 -0.0019299 0.00015652 0.00096341 0.0059963 -0.0068254 -0.0014965 -0.0072141 0.01072 -0.0076525 -0.0072315 -0.0074105 0.0019522 -0.0021807 -0.0080179 -0.0047516 -0.006641 0.0063158 -0.0088099 0.0010181 0.0078768 0.0082963 -0.0045884 0.0076025 -0.0035428 -0.0036777 -0.0027951 -0.0036678 0.0086892 0.0071839 0.00055913 0.0084782 -0.00094226 0.0050453 2.0699e-05 -0.0039472 0.01056 -0.0032146 -0.0073084 -0.0058736 -0.0099723 -0.0070202 -0.0030399 -0.0085292 0.0064321 -0.0030627 
가능 0.0057167 -0.004906 0.0077899 -0.0037639 0.0082433 -0.0093722 -0.0020531 0.0022349 -0.0070591 -0.0023288 -0.0093511 -0.0023273 -0.0034701 0.010581 0.0038089 -0.0068819 0.001633 0.0051802 0.0082991 -0.0011712 -0.0084198 -0.0021146 0.0036319 -0.0064461 -0.00023681 -0.0040411 0.0099536 -0.0097805 0.0081085 0.0059745 0.0018631 0.0099789 0.0042743 -0.0028031 -0.008322 0.0022676 0.0084814 0.0036108 0.0017428 0.0094043 -0.0079487 -0.0086673 0.009976 0.0074773 0.0075359 -0.0079611 0.0038959 0.0052101 -0.0035625 0.010634 -0.00457 0.0053035 -0.0069501 0.0076941 -0.0021852 0.007108 -0.001035 -0.0093215 -0.0039884 0.0053618 -0.0030136 0.0021926 0.0070957 0.010769 -0.0032336 -0.0068743 0.0080181 -0.0043793 -0.0043928 -0.003296 0.0030616 -0.0084151 0.0021184 0.0083021 0.0088808 0.007261 -0.0052088 0.0067995 0.0092104 0.0089926 -0.0019401 -0.0026819 -0.0010708 -0.0082989 0.008626 0.0063722 0.0051229 0.0029002 -0.00033634 0.0016178 -0.00045242 -0.0047124 0.0098715 0.0053084 -0.0047293 -0.0031915 -0.0022956 0.010414 0.0071213 -0.0037863 
배달 -0.0075695 0.00025685 0.000923 0.0066344 -0.00014785 0.0076115 0.0044622 0.00027023 -0.0019217 -0.0049565 -0.0081137 -0.0044543 0.0072759 -0.0082808 -0.008136 -0.0060153 -0.0038779 -0.0097762 0.0022391 -0.0045383 -0.0040041 -0.0018874 0.0027495 -0.0049598 -0.0084046 -0.0011805 0.0083616 -0.0089171 0.0044586 -0.0056355 0.0025179 -0.0068277 0.0033732 -0.0063093 -0.0063265 -0.0019993 -0.0057874 0.0077817 0.00091865 -0.00013483 0.0039417 0.0081785 -0.0015058 0.0045368 -0.0010034 0.00050798 0.005009 -0.0020458 -0.0016504 -0.00050542 -0.0025735 -0.0069432 0.00076219 -0.0015136 0.0046924 0.0042404 0.0029379 0.0090598 0.010032 0.0060973 -0.0052929 0.0034545 0.0016625 0.0062056 -0.0046462 -0.0069826 -0.0041705 0.0095137 -0.0028578 0.0047338 0.0028462 -0.0045119 0.0014374 0.005826 -0.00042774 0.005542 -0.0011564 0.0023535 0.0077143 -0.002318 0.0079904 -0.0055463 0.0069269 -0.01036 -0.0071028 0.00092379 -0.010108 0.0057264 -0.0022816 -0.00098969 0.0036631 0.0079111 0.012061 -0.0066995 -0.0092025 -0.0046266 -0.0083454 0.0026145 -0.0055163 -0.010193 
할 0.0063307 0.0026117 -0.0066958 0.0077688 0.0099673 0.0015595 -0.001981 -0.0018007 0.00037531 -0.0014388 0.0079902 0.00095843 0.00048389 0.0012878 -0.0024523 -0.003058 -0.0004534 -0.0068625 0.0088079 0.006457 0.0030317 -0.00098447 0.009605 -0.01039 -0.0045277 -0.0080444 0.0081687 -0.0039931 -0.0043611 0.0022776 0.009743 -0.0075926 -0.00078764 -0.0035816 0.0055077 -0.0080924 -0.00016828 -0.0011178 -0.0011573 -0.0091955 -0.0044796 -0.00057246 -0.0085665 -0.0026505 0.0068571 0.010003 -0.0025788 0.0053498 -0.0069908 0.0011657 -0.010525 -0.0038254 0.0062923 -0.00078002 0.0029446 -0.0073553 0.0013092 0.0093892 0.0069691 0.0012563 0.0057719 0.0062985 0.0046767 0.0072221 -0.0043634 0.0096664 0.0037571 0.00095042 -0.004453 0.0094491 0.0086854 0.0094919 0.0059977 -0.0075439 -0.002841 -0.0018748 0.0012927 0.0082152 0.0048655 -0.0057647 -0.0029716 0.0060931 -0.002953 -0.003657 0.0094264 -0.0068667 -0.0039782 0.00079499 -0.0075238 -0.0028253 -0.0045401 0.0033582 0.00807 -0.0091244 -0.0098556 -0.0098691 0.005937 -0.0019577 -0.0056225 0.0037791 
가능한가요 0.0083564 0.0066963 -0.0053644 0.0086424 -0.0036054 0.0059898 0.0099066 0.00065593 -0.0073628 -0.0041383 -0.0073155 0.0015173 0.0075445 -0.00033681 0.0060495 -0.00079046 0.00018261 -0.0076762 0.00034491 0.0018756 0.0033344 0.0064135 0.0010688 0.006068 -0.0067763 0.0055836 -0.0034091 0.0045397 -0.010121 0.0040156 0.0038753 0.0088739 -0.0023295 -0.010224 0.0004732 0.00045775 -6.7035e-05 -0.0028224 -0.00060823 0.0018301 0.0037124 0.0053285 0.0072058 0.0085778 0.0047626 0.0014262 -0.00084192 0.0015147 -0.0073394 0.0081681 -0.0070856 0.00066891 0.0037725 -0.0079788 0.0086744 0.004385 0.0023335 -0.0035199 0.0069394 -0.0097564 0.0058226 0.0027579 0.0080648 0.0087593 0.007829 -0.0042783 -0.0039298 0.0044788 -0.0070234 0.0020675 -0.0053134 0.00089882 0.0089833 0.004918 -0.0064146 0.0030974 -0.00155 -0.002129 0.0079407 -0.0091441 0.0066085 0.004088 -0.0059072 0.0054002 0.0059475 0.0054149 0.0089059 0.0018768 0.0012637 -0.0096471 -0.0022337 0.008797 0.00047618 0.0091437 0.0052648 -0.0011329 -0.0088852 -0.0018905 -0.0095629 -0.0061869 
주문할래 0.0014952 -0.0062838 -0.0077324 -0.0056023 0.0096822 0.00087661 -0.0092292 -0.0039422 0.005162 -0.0020585 -0.0028426 0.0091898 0.010286 0.0087722 0.0029859 -0.0010969 -0.00083828 -0.0033909 0.0075574 -0.0050743 0.0089411 0.00022961 0.0048022 0.0012887 -0.00304 -0.0079586 0.0074054 0.0075443 0.0070544 -0.0036916 0.0015782 0.003336 0.0063665 0.0015398 -0.010443 0.0034286 0.0085157 -0.0069208 -0.0065891 -0.0018379 0.0065183 -0.004502 0.0096821 -0.0070741 0.0075115 -0.0077672 -0.0003952 0.0085062 0.001413 0.0020896 0.0037223 -0.0090444 -0.0013423 -0.0051282 -0.0038207 -0.0058179 -0.0078882 -0.0037147 -0.0074527 -0.0041278 0.0029641 0.0069644 0.0062847 -2.5785e-05 -0.0087203 0.0069987 -0.009434 0.00015524 0.0051483 -0.0053768 0.0038529 0.0068615 0.0057577 -0.0048143 -0.0019075 -0.0081965 0.0044208 0.0098264 0.0016315 0.0066245 0.00093254 0.0020305 0.0036557 -0.0051841 0.0051497 0.00052027 0.00067703 -0.001791 -0.0057862 0.00041717 0.0022501 -0.0089631 -0.00020963 -0.0095737 -0.0035248 -0.0075888 0.0052547 -0.0082117 -0.00067092 -0.0076836 
주문이요 0.003246 -0.0031804 0.0049767 0.0068944 -0.004772 0.0062272 0.0033857 -0.0062921 0.0090724 0.0033332 0.0020022 0.0050195 -0.0083218 0.0056995 -0.0028852 0.0061545 0.0054357 0.008295 -0.0097186 -0.0035477 -0.0027271 -0.0039309 -0.004676 0.00087308 0.0053894 0.003213 0.0087945 0.0045559 0.0063072 0.0020367 0.0059316 0.00060547 -0.0029958 -0.0053596 0.0069767 0.0071256 -0.0083348 -0.0090905 0.0047048 -0.0036095 0.0088485 0.0022757 -0.00057504 0.0050729 0.0062235 -0.0055024 -0.0087848 0.0011678 0.0036525 -0.0029153 -0.0012849 0.0079023 -0.009038 0.0041405 -0.0099331 -0.0025474 -0.0073522 0.0041281 -0.0098663 0.0047247 -0.0089889 -0.0045446 0.0034923 0.010488 -0.0026281 -0.0056 -0.0053256 0.00098578 0.005155 -0.0028571 -0.0095369 0.0063235 0.0044901 -0.00083796 -0.0053476 -0.007718 0.0089808 -0.0086155 -0.0061801 -0.0021447 0.0051977 0.0046221 -0.0073235 0.0065339 -0.0024263 0.0067679 0.0074376 -0.0074891 -0.0033602 0.005036 -0.0062329 0.0051092 0.0058985 -0.0070209 -0.0020563 0.0008433 -0.0021992 -0.0015583 0.0093164 -0.0032909 
하고 0.001791 -0.0081879 0.0019956 0.0076306 0.0066561 -0.0093582 0.002387 -0.0038496 0.002536 0.0040735 -0.0046359 0.0090372 -0.0093912 -0.0033342 -0.0050341 -0.0027069 -0.00024644 0.0080713 -0.005097 0.0097274 -0.0064593 0.0064861 0.0010465 -0.0066493 0.0021092 0.004852 0.0079149 -0.0099939 0.0055493 0.0053216 -0.0043581 0.0078656 -0.0083048 -0.0071306 0.0083453 -0.0050056 0.00034462 0.0050631 -0.0057462 -0.0090417 -0.0065579 0.0067167 -0.0046887 -0.00011329 -0.0017487 -0.0010803 0.0097234 -0.0055667 0.0083772 0.0032675 -0.0080265 0.0070276 -0.0033561 -0.0016367 -0.0062331 -0.0064827 0.00014594 -0.0028737 0.0026345 0.0045577 -0.0069352 0.002851 -0.0089921 0.0070465 0.0085385 -0.0068171 -0.00068122 0.00082429 -0.0017013 0.0031118 -0.0083994 -0.0026092 0.004196 -0.0095502 -0.0091939 0.0091807 0.0090228 0.0083044 -0.0034081 0.0082732 0.005102 -0.0079104 -0.0010084 0.0076762 -0.0024653 -0.0049391 0.005582 0.0023253 -0.0035666 -0.0091817 0.0085941 0.0033265 -0.0046194 0.0035287 -0.0080735 -0.0097379 -0.00287 0.0013335 0.0011975 -0.0011129 
싶어요 0.0026682 0.0068334 -0.0043059 -0.0087112 0.0040266 0.0065941 -0.0064174 -0.0074512 -0.0032278 0.0072733 0.0053764 -0.0087375 0.0020066 0.0029657 0.0060714 0.0099807 -0.0027079 0.00035758 -0.0073562 -0.0072661 0.0089588 -0.0086881 -0.0092359 0.0092046 0.00032265 0.0031882 -0.0049132 0.0090252 -0.009803 -0.0052379 0.0041103 0.0079574 0.0090679 -0.0066555 -0.0075577 -0.0059138 -0.0094746 -0.0054429 0.0011048 0.0095865 1.609e-05 0.0056337 0.0097272 0.0066152 -0.0042738 -0.0081281 0.0031728 0.0099618 0.0012789 0.0081082 -0.0043678 0.0099628 0.00049857 -0.0034407 0.0054008 0.0073979 -0.0028635 -0.0069126 0.0073315 -0.0035309 0.0043649 -0.0059829 -0.006275 0.0046417 0.005682 -0.0062483 0.0088435 0.0016443 -0.0059281 0.0066341 0.0069051 0.0083652 -0.009927 -0.0066004 0.0078722 -0.003571 -0.0026385 -0.0083969 0.0026573 0.002029 0.00026952 0.010036 0.0037192 0.0025832 -0.0023584 -0.0075178 0.0044349 -0.0088946 0.0010275 -0.010138 -0.0091439 0.0054089 0.0056231 -0.0040768 -0.001506 0.0053402 -0.0043808 -0.0024093 0.0054579 0.0026214 
주문가능 0.0036411 0.0024817 -0.0043653 0.0013075 0.0042191 0.0069627 -0.0063834 -0.0042769 0.0094859 0.0059326 0.0061677 0.0061161 -0.0048073 0.0049574 0.0035722 -0.0060338 0.001884 0.0034239 -0.0061576 -0.0026539 -0.00080491 0.0061529 0.0098436 0.0059187 0.00090963 0.0023268 0.0070977 -0.0014187 -0.003076 0.0053355 0.0098699 -0.0015111 0.00051936 -0.0080451 -0.010575 -0.0068696 -0.00099315 -0.0040713 0.0091577 -0.00076144 -0.0069115 0.0095601 0.0060634 0.0072339 0.0041831 0.0085197 -0.00040076 0.0057293 0.0067345 -0.00045313 0.0053865 0.0028786 0.0010874 -0.0062246 -0.00092418 -0.0011878 0.0092843 -0.0027475 -0.0014968 0.0012385 0.0036556 -0.0092646 0.0098395 0.0027499 0.0018418 0.0042294 0.0082901 0.0018771 0.0054843 -0.0039945 -0.0044401 0.0043962 0.0089473 0.006249 0.0058295 -0.00033433 0.0030861 -0.0022004 0.0084253 0.0052265 -0.0060202 0.0015167 0.0020354 0.007949 0.0018971 0.0057133 -0.0094278 -0.0084359 0.0062401 0.0048741 0.0084386 0.0070334 0.0098674 0.0090699 0.0034888 -0.010483 -0.00096967 0.0062656 0.0056272 -0.0027628 
! 0.0070096 -0.0071823 0.00040307 0.0019564 -0.00073456 -0.0086885 -0.0079087 0.005414 0.0062694 -0.008044 -0.0027697 0.0028416 -0.0060039 0.00034027 -0.0098676 0.0097792 0.0075941 0.00039545 -0.001082 -0.0095369 0.0047894 -4.4128e-05 -0.0090609 -0.0046474 -0.0055299 0.0069778 0.0030958 -0.0082001 -0.0024257 0.0050651 -0.0043587 -0.0034116 0.00067672 -0.0039922 -0.00055768 -0.003631 0.0066606 0.00077592 0.0024082 -0.0064594 0.0077126 0.0025972 -0.0026238 0.0040677 0.0033073 -0.0069476 0.0056908 -0.0050654 -0.0056525 -0.0038232 -0.0083754 0.0032215 -0.0054 -0.0037516 0.0075746 -0.0068905 0.0042398 0.0018526 -0.0020045 -0.00093483 -0.0093747 -0.0059312 0.0086173 0.0097515 -0.003807 0.0074351 0.004985 0.009555 -0.001922 0.007213 -0.0070865 0.0062997 0.0012594 0.00077832 0.0004805 -0.0090002 -0.0015335 0.0082629 0.0077385 0.0080186 0.0095029 -0.0021563 -0.0014763 -0.010084 0.0036972 -0.00088563 0.0012236 -0.0016728 0.006584 -0.0088664 0.0093233 -0.0064411 0.0076802 0.0026765 0.00036808 -0.0042185 -0.0025789 -0.0015118 -0.0051723 0.0055227 
주문하겠습니다 0.0062673 0.0083568 -0.007502 -0.00808 0.002189 -0.0075368 -0.0036844 0.0079418 3.0337e-05 0.0046715 -0.0065144 -0.0021449 0.0044166 0.0090046 0.0065566 0.0065184 -0.0052408 -0.0032704 0.0028607 -0.004244 0.0026076 0.0020879 -0.00021147 0.0025669 -0.0029043 -0.0031425 0.0081273 -0.010196 0.0011727 -0.0081777 -0.003717 -0.0077546 0.0056667 -0.0053066 -0.004513 -0.0053132 0.0020786 -0.0082205 -0.0079952 0.004478 0.0059111 7.7314e-05 0.0011961 -0.0030867 0.0015916 -0.0093751 -0.0073858 0.0089141 -0.0018906 -0.0041048 -0.009254 0.0095199 -0.0086634 0.0058083 -0.0081935 -0.0016856 -0.0055156 0.0089435 0.0081699 0.0092266 0.0084912 6.5308e-06 0.0091158 0.0092557 -0.0010475 0.0027797 0.005977 -0.0035625 -0.0072621 0.0029851 -0.0048367 -0.00071978 0.0037792 -0.0011686 -0.00046156 0.001932 0.0076143 0.001209 0.0015435 -0.0029438 0.0050353 -0.0092022 0.0055362 2.4969e-05 0.0083085 0.0092782 0.00025385 0.0067814 0.0050071 -0.0006064 0.0018868 0.0077554 0.010093 -0.0095957 -0.0074524 -0.0031781 -0.0057755 0.0038921 -0.0033976 0.0038321 
주문부탁드립니다 0.0035552 -0.0038531 0.0071019 0.0065008 0.0088205 0.0089161 0.0010164 -0.0011204 0.00066034 0.005065 -0.0080556 -0.0093239 0.0030893 0.0039785 0.0016692 0.001217 -0.0045631 -0.006079 -0.0088491 -0.010325 0.0057896 0.0040041 0.0086287 0.0041414 -0.0052856 -0.0078003 -0.0031013 0.0059306 0.0018054 0.0030237 0.0036738 -0.0004565 0.005233 0.0062918 -0.0045081 -0.00074555 -0.0086234 0.0071162 -0.0026652 -0.008806 -0.0013161 0.0051843 -0.0073419 0.0087228 0.0051105 0.0094438 0.00011038 -0.0085961 7.433e-05 -0.0080811 -0.0051612 0.0052221 0.0021019 0.00054123 -0.0054802 0.0050512 0.0067594 -0.0028956 0.0054209 -0.0079133 -0.0090793 0.0013463 -0.0082675 0.0021045 0.003925 -0.0032398 0.003974 0.0079799 0.0032927 0.009158 -0.0080942 -0.0017222 -0.0047845 -0.0060884 -0.0055046 -0.0020803 0.007466 0.0065859 0.0062469 -0.0018593 0.0083146 0.0025494 0.0010826 -0.00012211 -0.0091666 0.0055805 -0.0080046 -0.00075858 0.0053781 -0.0097993 0.0063518 -0.0014206 0.0073603 -0.0087513 -0.0043825 -0.0001764 -0.0056729 0.0085216 0.0024059 0.0062643 
있을까요 0.002052 -0.0087154 0.0047503 0.0094689 -0.0072316 0.0026455 0.0056942 0.003407 0.010025 -0.001741 -0.0046624 0.0014274 0.0049142 0.0065023 0.0032878 0.0061374 0.002773 -0.0047758 0.0071796 -0.0044417 -0.0098207 -0.001812 0.0067153 0.00092019 0.0040357 -0.004906 -0.002322 0.002391 -0.0043635 -0.0063362 -0.0017159 -0.0032104 -0.004874 0.0027427 -0.0091995 -0.005184 0.0089405 0.0053063 0.006911 0.0090589 -0.0077765 0.0021848 0.00081039 0.0086094 0.0059514 0.0063486 -0.0046208 0.00099612 0.0035994 0.0086766 0.0038945 -0.0062936 -0.0095007 0.00095216 -0.0058011 -0.0036498 0.0078698 -0.0026132 -0.0043635 0.006373 -0.0095477 0.0021959 -0.0037717 0.0056713 -0.0086262 -0.0032851 0.0030373 0.0025009 -0.0022804 -0.0065062 -0.0098616 0.0092079 0.0068942 0.0094323 -0.0066607 0.007578 0.0065314 -0.00040585 5.5416e-05 -0.0080173 0.0065335 0.007947 -0.0037552 -0.0077536 0.0043465 0.001287 -0.0030444 0.0090535 -0.0017459 -0.0093304 0.0056466 0.009135 0.005779 0.001592 -0.0087884 -0.0059024 -0.0026227 -0.0093577 -0.0074509 -0.0045075 
있어 0.0029218 0.0081102 -0.0034836 -0.0082976 0.0025861 0.0057751 -0.0098028 0.0022663 -0.0062125 -0.0049295 -0.0019343 0.0087546 -0.0014076 0.0083105 -0.0043242 0.0052411 0.0049652 0.0016824 0.0098151 -0.0057507 0.0087082 -0.0083902 0.0096635 -0.00058725 -0.00042995 -0.0049557 0.0060689 -0.0039683 -0.0076462 0.0017387 0.0094904 0.0076405 0.00056114 0.008184 -5.7904e-05 -0.0094875 -0.0047144 -0.0029059 -0.0087527 0.0042217 0.0053713 0.0093769 -0.002714 -0.00015973 0.0032638 -0.0077696 0.0047637 0.0030825 -1.4799e-05 -0.008352 -0.0023289 0.0067615 0.0035284 -0.0057051 -0.0057794 -0.0036915 -0.0026468 -0.0075906 -0.00042174 -0.00074221 -0.0062235 -0.00010328 0.0046616 0.0014157 -0.0090737 -0.009803 0.0052058 0.00015077 0.0061643 0.0034739 -0.0096631 -0.00048913 -4.5556e-05 0.00059939 -0.0047099 0.0048468 -0.0090908 0.002733 0.001303 0.0027323 3.6408e-05 -0.0046645 0.0024954 -0.0076039 0.0034881 0.0086288 0.00018748 0.00027647 -0.0044533 -0.0070542 0.0079181 -0.0047106 -0.006207 -0.0056377 0.0091603 -0.010224 0.0014802 0.0015901 0.0080196 -0.0062423 
주문해줘 -0.0032271 0.0071849 0.0073125 0.0065286 -0.0072948 0.007194 1.6545e-05 0.0023184 0.0098161 0.0056156 -0.0010181 -0.0032848 0.0006824 0.0026338 -0.0076297 0.0085348 0.0067163 0.0072598 -0.0070493 0.0061427 -0.0010921 0.010242 -0.0093225 -0.0024725 0.0010803 0.0034077 0.0071049 0.0072527 -0.0088998 -0.0030633 0.0063382 -0.00061631 0.0089788 0.0015868 0.0028523 0.0069565 0.006868 0.0080301 -0.0060974 0.0046382 -0.0081057 0.0019278 -0.0092927 0.0027162 0.0064712 -7.9369e-05 0.0098818 -0.0043553 -0.0067216 -0.0073867 0.0079811 0.0099792 0.0038117 0.0090487 -0.0030856 -0.0091573 -0.0048725 0.0082182 0.0081213 0.002408 -0.0038001 0.00078235 -0.0048344 0.0065289 0.0036816 -0.0093028 0.0089473 0.0012489 0.0072518 0.0022903 0.0034317 -0.0026184 -0.0077665 -0.0080802 0.00091551 -0.0040476 0.0011465 -0.0084379 -0.0015463 -0.001999 -0.0032622 0.0041848 -0.0018456 0.0012247 -0.0098746 -0.00076335 0.0097046 -0.0025729 -0.00074088 -0.0082384 -0.0033177 -0.0085168 0.00011945 -0.0091337 0.0049792 0.002623 0.00082301 0.001577 0.0046535 -0.009757 
해줄 -0.0053776 0.0052433 -0.0025374 0.0083601 -0.0016521 0.0092048 -0.0057506 -0.0056801 0.0046405 -0.0068787 -0.0015167 -0.0061647 0.0033936 0.010086 -0.0082896 0.0080264 0.0075236 -0.0081312 -0.0080477 0.003981 -0.0016331 0.002968 -0.0062356 0.00043499 -0.0090286 -0.0053105 -0.0091474 0.0030423 0.0018891 -0.0039536 0.0055339 -0.0096189 0.0069973 0.0059363 0.0069483 -0.0092571 0.0077191 0.0069274 -0.0052873 0.0023967 -0.0079902 -0.0077457 -0.0022201 0.0051158 0.0028003 0.0081992 0.0062106 0.0030664 0.0075902 -0.0096192 0.0087127 0.0053053 -0.0034772 -0.0038016 -0.0076614 -0.0053657 -0.0042132 0.0043191 -0.0017803 0.0073368 0.0076665 0.0091879 -0.0035353 -0.0037661 -0.0045838 -0.0027487 -0.0074173 -0.0019937 -0.0068975 -0.0098245 0.0040681 0.0049394 -0.0024438 0.0013658 0.00052038 -0.0011859 -0.00098515 -0.009129 -0.0039832 0.0058175 -0.00021997 -0.0053068 -0.0050057 0.0074099 0.0063902 0.008873 0.00082409 0.00746 -0.0059257 0.0086433 -0.0024595 -0.0039952 0.0092961 -0.0031968 0.0032361 0.0057366 0.0099892 0.0060011 0.0055501 0.0074268 
있어? 0.0054975 0.0027692 -0.0096423 0.0019554 0.0052684 0.0017976 -0.0046496 -0.0056929 0.0029017 0.0078672 -0.0079325 0.0025273 -0.0013642 0.001656 0.0019837 0.0080698 -0.0036151 0.0052599 0.0042798 0.00092765 0.0035546 0.0014859 0.00085054 -0.0040862 0.0069939 -0.0014157 0.0063743 -0.0036983 -0.0068031 0.009799 -0.0018935 -0.00054215 0.003234 0.0072818 -0.0042967 0.0049975 0.0018951 -0.00029792 -0.0026931 0.0024926 -0.0019336 -0.0064692 0.0032931 -0.0059179 -0.0039462 -0.0094073 -0.006082 -0.0032309 -0.0072883 0.00084751 0.0075181 -0.0042591 0.0058316 -0.0083463 0.0039886 0.0078743 0.0097219 -0.0039118 0.0088171 -0.0033862 0.0036024 -0.0027431 -0.002646 0.0085852 -0.0045096 0.0024692 0.0063648 -0.002611 0.0094914 0.0096228 -0.0067716 0.0058106 -0.0028174 0.0040893 -0.0080215 -0.0097376 -0.0051464 0.006448 0.0005132 0.0037275 -0.0037476 -0.0023665 -0.0074789 -0.0067309 -0.002034 0.006866 0.0031719 0.0049423 -0.0049753 0.0040405 0.010307 0.001268 0.00062711 -0.0038248 0.0060373 -0.010018 -0.0034451 -0.0080562 0.00013857 0.0050795 
ㅈㅁ 0.0041568 -0.0045406 0.0025807 0.0072038 -0.0058424 -0.0083872 -0.0079366 -0.003054 0.0098313 -0.0050564 -0.0060541 0.0091656 -0.0073318 -0.0077004 -0.0089087 0.0088046 0.0028124 -0.0074084 -0.0082303 0.0067706 0.0020121 0.0020547 -0.0003866 -0.0037153 0.0033851 0.001375 0.0043795 -0.010623 -0.0077234 0.00081387 0.0084422 -0.0037881 -0.0089219 -0.0066246 -0.011258 -0.0045922 -0.008531 -0.0097422 0.0034536 0.0013772 -0.0064505 0.0056349 0.0035981 -0.00073142 -0.0092633 0.0068855 -0.0042354 -0.0081205 -0.0057797 -0.005599 -0.0056926 -0.0027456 0.0084029 0.0086518 0.0024801 0.0081553 -0.0068801 -0.00040083 0.001075 0.0016949 0.0063285 -0.0088046 0.0015523 0.0033384 -0.010566 -0.0096158 0.007215 0.0036667 0.0031824 -0.0040597 -0.0088434 0.0048289 0.00016776 0.0071862 0.0028445 0.0023376 0.0017653 0.0059014 -0.0018425 -0.0011115 -0.0044534 -0.0070884 0.00013699 -0.00081235 -0.0060167 0.0048555 -0.0042568 -0.0014558 -0.0078736 -0.0092896 -0.0079171 -0.0068057 -0.0070118 0.0026442 0.00061533 -0.01035 -0.0049211 0.00088956 -0.0077506 -0.0012829 
주문하고 0.00088809 -0.00061366 0.001746 0.0088068 0.0041029 0.0046155 -0.00080671 -0.0065356 0.0011009 0.0031778 0.0031453 0.0011414 -0.0027384 -0.0032784 0.00096508 -0.0071762 -0.0050802 0.0096524 0.0020932 -0.0038689 -0.0023418 -0.0036833 -0.0063016 0.0085219 -0.0073152 -0.0060056 -0.0053662 -0.010219 -0.0016535 -0.0067621 -0.0092105 0.00082281 0.0069151 0.0060488 -0.0062854 0.00078755 0.00026147 -0.0016388 -0.00031557 0.006218 -0.001591 0.0073764 -0.0039802 0.0065812 -0.0095179 -0.0014005 0.0011281 0.0052775 0.0096676 0.0093484 -0.0098735 0.0034491 0.00080998 0.0065936 0.0059981 -0.0079993 0.00026841 -0.0081276 0.0066272 -0.00046921 0.0059558 -0.0044675 0.0095153 -0.00059756 0.0071831 -0.0028297 -0.0016191 0.0084565 -0.0051661 0.0015628 -0.0096431 -0.0092796 0.0082331 -0.00061658 0.0010052 0.0029762 0.0090422 -0.0089469 0.010147 0.0026222 -0.0018601 0.0021175 0.0088331 0.0015383 0.0031307 -0.00066084 0.0080651 0.0061636 -0.0054584 -0.0026066 0.004703 -0.0088835 0.0097865 0.0075984 -0.00077545 -0.0091251 0.0012635 0.0019536 -0.0045537 0.0066722 
싶어 -0.0058095 -0.0081647 -0.0025239 0.0010282 0.0092942 0.0082568 0.00758 0.00053233 0.0026979 0.010119 -0.003668 0.0053831 -0.0072381 -0.0016055 -0.0094943 -0.0083794 0.0006628 -0.0090504 0.00087531 -0.005241 -0.0027185 0.0039867 0.0041489 -0.00056809 0.0044321 0.0053311 -0.0026416 0.0012031 -0.0026929 0.0092985 -0.0012543 0.0081466 -0.0094842 -0.0054972 0.007515 -0.0044568 -0.0071557 -0.0060027 0.0069074 -0.0076678 -0.0082708 -0.00011553 -0.0024514 0.0078955 0.00089898 -0.0022103 -0.0059405 -0.0061368 0.0069477 0.0052642 0.0084033 -0.0068176 0.0017631 0.004734 -0.0089129 -0.0078035 -0.00843 0.0011331 -0.006851 0.0098221 0.0095198 0.0092384 -0.0025627 -0.0084396 -0.0017261 0.0030546 -0.0017447 -0.0063868 -0.0090009 0.008755 0.0092494 -0.0057297 -0.0087768 -0.0018986 -0.0036387 0.0096325 0.0090344 -0.0059736 -0.0088768 0.0064699 0.0088159 0.0092044 0.0082802 0.0086914 0.003944 -0.00027118 -0.0083991 -0.0019802 0.0088578 -0.008223 -0.004392 -0.001368 0.0035994 0.0085571 0.0057859 0.0016133 -0.0096599 0.0035171 0.0028252 -0.0069105 
배달할래 -0.0029926 0.010575 0.0073167 0.0050102 -0.002195 -0.0054548 -0.0021942 0.0060943 -0.0027332 0.0035715 -0.002561 0.0033307 0.0018432 -0.003374 0.0046801 0.0043595 0.0073708 -0.0014053 -0.00039053 0.00019628 0.0023822 0.0048476 -0.0041527 -0.0023986 0.00095216 -0.0060958 0.0060219 0.0019345 -0.00094506 0.0048106 5.5174e-05 0.00097859 0.0081487 0.0036434 0.0019841 -0.0071008 -0.0023857 -0.0055696 0.00088916 -0.0099798 0.0084098 0.0078092 -0.001032 -0.0024672 -0.0044006 -6.5701e-06 0.0078475 -0.00080451 0.0034055 0.0034622 0.0065558 -0.0065086 0.0084794 0.0068988 -0.0050336 0.0068314 -0.00585 -0.0083113 0.0029395 0.0013541 0.0041485 0.0029149 -0.0082685 0.010433 0.0072956 -0.0074311 -0.0062151 0.0054803 -0.0048212 -0.0061814 0.0040726 0.010386 -0.0085232 0.0046231 -0.0050123 -0.0013324 0.010607 0.0082145 -0.0055173 0.0051061 -0.0075915 -0.0058022 0.0005119 0.0033515 0.003414 -0.0012764 0.0025977 0.00097358 -0.0095654 0.0087958 0.00073943 -2.9092e-05 0.010113 0.0031148 -0.0081937 0.0059336 -0.0090267 -0.0083664 0.0062342 -0.0094856 
한가요 -0.0021436 0.0092339 -0.0072693 -0.0074788 -0.0029077 0.0069454 0.0018222 0.00092702 0.000686 0.0036714 0.0037537 0.0072293 -0.0077203 0.0034848 0.0068867 -0.0057799 -0.0040577 -0.00067274 0.0036775 -0.0008548 -0.0076673 0.0025316 0.0045679 0.0053561 0.00030528 -0.0027935 0.0094107 -0.0001445 -0.00037839 0.0081118 -0.0073046 0.010049 0.00020199 -0.0058453 0.0078504 0.0022035 -0.0030538 -0.0002728 0.0041199 -0.0032373 0.0053246 0.0053793 0.0022597 0.0084135 0.0016219 -0.0052979 -0.0046718 0.0046217 -0.0043988 -0.0028669 0.0038863 0.004621 -0.0049215 -0.0018025 -0.0073968 -0.00037427 -0.0087009 0.0023617 -0.0036155 0.0070705 0.0031417 -0.0066368 0.0046988 -0.0003688 -0.0096705 0.0056518 0.0049025 -0.0073881 -0.0007167 0.0038536 0.003365 -0.0087817 -0.0057492 0.0023561 0.0035587 -0.0047265 -0.0046551 0.0094519 -0.0075367 -0.0092312 -0.0047586 0.0049128 0.0019274 0.0011902 0.0065494 -0.00046272 0.0095544 0.0061657 0.0040969 -0.010021 0.0092627 -0.00055204 -0.00093994 0.0062151 -0.0048499 0.0090114 0.0060455 -0.0088786 0.0053807 0.0039395 
해도 -0.0038001 -0.0095783 0.006739 -0.0050982 -0.0056197 -0.0088983 -0.0060093 -0.0037359 -0.0078932 0.0053426 0.0019214 -0.0086796 0.0086618 0.0029872 0.0057919 -0.0093108 -0.005649 0.0056318 -0.008584 0.0081412 2.7758e-05 0.0077368 -0.0046371 -0.00725 0.0028549 0.0011162 -0.002884 0.0024301 0.0067375 0.00016587 -0.0091697 0.0067595 0.0034482 0.0072707 0.0092381 0.00064994 0.0022774 0.0047548 0.0077559 0.0081287 -0.003553 0.0019876 -0.0075202 -0.0036403 -0.00085838 -0.0049062 0.0027569 0.0041215 0.0089522 -0.0036966 0.007365 -0.0051955 6.5493e-05 -0.0039765 -0.0051549 0.0043642 -0.0031846 0.0024132 0.0075022 0.0058141 0.0076907 0.002078 -0.0022239 -0.0040126 0.0058273 0.0057714 0.0077753 0.00038399 -0.0068659 -0.0049987 0.0036383 -0.0014662 0.005382 0.00043189 0.00057928 0.00010259 0.0030621 -0.0072783 0.0098583 -0.0092139 -0.0071519 -0.0067469 0.0040154 -0.004088 0.0079889 -0.0026762 -0.0085882 0.0021983 -0.0064786 -0.0065249 -0.0041209 -0.006381 0.0068242 -0.0085603 -0.0043742 0.0090435 -0.0038636 -0.0078283 -0.004674 -0.0099402 
돼 -0.0062306 -0.0090984 -0.0044182 -0.0021294 -0.0087422 -0.0068298 0.005289 0.0038221 0.0091725 -0.0035325 -0.0036174 -0.00018421 -0.0051723 -0.0057714 -0.0054354 -0.0056588 -0.0088245 5.9944e-06 -0.0069368 -0.0045917 -0.0070819 -0.0068274 -0.0074184 0.0051539 2.1073e-05 -0.0053124 0.0059589 -0.0026302 -0.0025087 0.0092022 0.0079927 -0.0045737 -0.00096382 -0.0064415 -0.0046946 0.0021736 -0.0061692 -0.0071939 0.004221 0.0087685 0.0015651 -0.0039165 0.0096464 -0.006169 0.003472 -0.0022843 0.0035446 -0.0094758 -0.0045322 -0.0080736 0.0086836 0.0016175 -0.00079123 -0.0083361 -0.0020121 -0.0015552 -0.00035136 0.0041682 0.0062851 -0.00082262 -0.009924 -0.00045598 -0.004625 0.0033388 -0.0095725 0.0030394 -0.0052869 0.0075151 -0.009011 -0.0078405 -0.0017251 0.0099286 0.008539 -0.00015373 0.0026289 -0.0067477 -0.00073455 -0.0011132 0.0022803 -0.0075614 0.0081049 0.0037276 -0.0065473 0.008029 0.0038004 0.0057844 -0.0050631 0.0056536 -0.010166 0.0063049 0.0053003 -0.0059819 -0.00092799 -0.010328 -0.0040231 0.0077678 -0.0042608 0.0099198 -0.0094678 0.0092467 
시켜줘 0.0063603 -0.0035012 -0.007882 0.0064612 0.0084658 0.003744 0.0031788 -0.0060822 -0.005874 -0.0051858 0.00050214 0.0063028 -0.0081236 -0.0026774 -0.0085831 0.0066437 -0.0090246 0.0039894 0.0054273 0.0089831 0.0036295 0.0086295 -0.0036551 -0.0093266 -0.0066792 0.0029392 0.0094008 0.0046223 0.0087913 0.0022841 0.009007 0.0061678 0.0006507 -0.00471 -0.00089552 0.0037703 0.0038283 -0.0002395 0.0030644 -0.0068981 0.0020062 0.0042719 -0.00082556 0.0068315 -0.008569 -0.0080523 -0.0033499 -0.0047903 -0.0041478 -0.0083315 -0.00023782 0.0013887 -0.0065192 -0.00316 0.0059476 -0.010045 -0.0033856 0.0099232 -0.00086805 0.0029579 0.0064779 -0.0037773 0.0045563 -0.00098821 0.0044942 0.0027995 -0.006618 0.0012603 0.0080413 -0.0029672 0.0074061 0.0039675 0.0084446 0.0050276 -0.0098864 -0.009114 0.010063 0.0048745 0.0075707 0.0050938 -0.0031823 0.0011518 0.00644 0.0066273 -0.0058436 0.0044326 0.0018626 -0.00093518 0.0062251 0.00070687 -0.0090488 -0.0089256 -0.0057697 -0.0097886 0.0032885 -0.005406 0.0002832 -0.0048655 0.0036097 -0.0024376 
시켜 -0.00018236 -0.0023327 0.0037088 0.0005677 0.0057708 0.001873 0.0063415 -0.0081962 -0.0057885 0.0042659 0.0073517 -0.00036533 -0.0032627 0.0017776 0.0093573 0.000196 -0.007809 -0.0053393 -0.0065381 -0.0051656 0.0068699 0.0049135 -0.0030894 -0.005911 0.004969 0.0045912 -0.0036814 -0.0085938 0.0044265 0.0042259 0.0071008 0.0040303 -0.008219 0.0049186 -0.0069179 -0.0082559 -0.0073217 0.009577 0.0028978 -0.010027 -0.0050295 -0.0055626 0.001782 0.0037123 -0.0048984 0.0025861 0.0044571 0.0071394 6.2303e-05 0.00060812 0.009143 -0.0025962 -0.0036582 2.588e-05 -0.0075842 0.0065779 -0.0047339 -0.0042649 0.0070499 0.0088746 -0.0088703 -0.0027438 0.00014642 0.0035776 -0.0044673 -0.001243 0.0049899 0.0016751 -0.0091287 0.0034637 -0.007278 -0.0037109 0.0093423 0.0027596 -0.0071872 -0.0061734 0.0034445 -0.0076311 0.010322 -0.01041 0.00089472 -0.0062589 -0.0015453 -0.0097841 -0.0062634 -0.0079599 -0.0036063 0.0022436 0.0070486 -0.0053081 -0.0064987 -0.004457 0.0084532 0.0023319 -0.0039995 -0.005741 -0.0048442 0.0095833 -0.0079861 -0.0037915 
시켜줄래 0.0080847 -0.006309 -0.00095082 -0.0044063 0.0090989 -0.0030268 -8.9598e-05 0.0074752 0.00015853 -0.0031731 0.0088063 0.0081333 0.007987 -0.0038463 0.001025 0.0082217 0.0084999 -0.0047898 0.006333 -0.0047543 0.0023086 -0.00028695 0.0018725 0.0016452 -0.0082564 0.0010744 -0.00036415 -0.0016649 0.0086616 0.0044586 -0.0049462 0.0028002 -0.010069 0.0073375 0.00035355 0.00056076 0.0036274 -0.00619 -0.0069097 0.0094861 0.0045574 0.002229 0.0078963 -0.0077533 -0.0065167 0.0061395 0.0067046 0.00082232 -0.0065175 0.0065485 -0.00016163 -0.0027854 -0.0057843 0.0024425 -0.0089472 -0.0041795 0.004157 0.0082581 0.0024063 0.0071159 -0.0022824 0.0050846 -0.0027879 -0.00048456 0.0042838 0.0016269 -0.006893 0.0082374 0.0084182 -0.00031537 -0.0079243 -0.0094308 0.0044709 -0.0030739 -0.0017818 -0.009963 -0.0072908 0.0098004 0.0080042 0.0033135 0.00043928 -0.0076771 -0.0040949 -0.0032691 0.0057734 0.0054224 -0.00037319 0.0041692 -0.0039705 -0.00073023 -0.0093482 -0.004281 0.0019648 -0.001654 0.0025746 -0.0053508 -0.0052406 0.0025948 -0.0073679 -0.0012 
피자좀 0.0064419 -0.004811 0.0039541 -0.0021462 0.0038586 0.0092523 -0.0018056 0.0034288 0.00016301 0.0046039 -0.0062505 0.0011238 0.0041307 0.0088113 0.0045527 0.008678 0.0055555 -0.0078328 -0.0041042 0.0061696 -0.00098777 -0.0085211 -0.0042973 0.0041573 0.0068202 -0.0052097 -0.0057644 -0.0036401 0.0035201 -0.00068447 0.0053226 -0.0071467 0.0020512 0.0077039 -0.0069908 -0.0064124 0.0077563 0.0018665 -0.0052455 -0.0087874 -0.0079853 0.0090498 -0.0039972 -0.0051273 0.006511 -0.0081822 -0.0083537 -0.0048648 0.0082285 0.0073681 0.0047574 0.0092372 0.0018062 -0.0027656 -0.0086903 0.0052907 -0.0071708 0.0052156 -0.006909 -0.0006718 -0.0012036 -0.0036878 0.005375 -0.0010925 -0.0066165 -0.0087734 0.0074799 0.0082848 -0.0036271 -0.0038398 -0.0054152 -0.0091751 0.0030667 -0.001621 0.0096154 0.0098331 0.007536 -0.0028499 0.0054288 0.0012746 0.0046652 -0.0075665 -0.0056485 0.0036849 -0.0070207 0.0043028 0.0086633 0.0037421 0.0026065 -0.0015536 -0.0048511 -0.0023401 0.010466 -0.0026215 0.0053844 0.0049272 -0.0060936 0.006548 -0.0072116 -0.0078184 
.. 0.0051878 -0.0075653 0.0075319 -0.0053855 0.0090668 0.0093626 -0.004512 0.0062822 0.0063395 0.01083 0.0049872 -0.0022155 0.0008685 -0.0016535 -0.00487 0.004873 0.0064648 -0.0092388 -0.0084567 0.0064078 -0.0051702 -0.0049966 0.0064779 -0.0066564 -0.00052926 -0.0055506 0.0026154 -0.00227 -0.0085928 0.0037726 0.005039 0.0027154 -0.006037 -0.0024954 8.7738e-05 0.0025696 -0.0074889 -0.008916 -0.0045539 0.0018004 -0.0013862 -0.0063429 -0.0014801 -0.0056677 -0.0024151 0.009488 0.0039814 -0.0013763 0.0074268 0.0096629 0.0091429 0.0081266 -0.0057851 0.0072214 0.0015103 -0.0030167 -0.0069671 4.1831e-05 -0.0029291 -0.0094403 0.0037159 0.0034316 0.0096681 -0.0090385 0.0073413 -0.007958 -0.0094667 0.0045822 0.00047612 -0.0087889 0.0019073 -0.0017793 -0.0085107 0.0058655 0.00054461 0.0070588 -0.0015799 -0.0068444 0.0042011 0.0086826 0.0079035 0.0082609 3.7643e-05 -0.0095138 -0.0044726 -0.0089761 0.0092882 -0.007727 -0.0026297 -0.0036322 0.0017226 -0.0082777 -0.0035286 0.0027735 0.00256 -0.0026663 0.0079586 -0.0032896 -0.009584 0.0058059 
가져와 0.0013842 0.0054942 0.0046408 -0.0022539 -0.0053813 0.0097381 0.0029108 0.0026191 -0.0025949 0.0022441 -0.0010285 0.0071198 -0.0096129 0.0037259 -0.0097936 0.0064017 0.0074398 -0.0035759 -0.0036408 -0.006508 0.0078539 0.0060824 -0.0051913 0.0018745 0.008614 -0.00046132 -0.0079035 -0.0051881 -0.00048957 -0.0068118 0.00065686 -0.0060875 -0.00055242 -0.0044295 -0.0063757 -0.0017645 0.0060808 0.0046098 -0.0066424 -0.00067844 0.0061419 0.0075952 -0.0011822 0.0082595 0.0052569 0.006398 -0.008406 -0.0062677 -0.00883 0.0013229 0.0044616 -0.0094062 -0.0070491 0.0011815 0.00092114 -0.0039797 -0.0064334 0.002164 0.0058677 0.0047525 0.0051359 0.0095978 0.003948 0.0015402 0.0052891 0.00010424 0.0035727 -0.0034234 0.0066233 -0.0038163 -0.00057722 -0.0048235 -0.0070015 0.0063391 -0.0012401 0.0066063 0.0069634 -0.0060448 0.0051109 0.00058456 -0.0093245 -0.0076888 -0.0056657 -0.0069489 0.0052344 -0.0017866 0.0085026 -0.0040576 -0.0063376 0.0036743 -0.007603 0.00012471 0.0025573 -0.0015005 0.0029832 -0.0042757 -0.0023751 0.0099123 0.0073199 0.0027917 
내놔 9.598e-05 0.0016806 -0.0086707 -0.0087974 0.0016373 0.0026031 -0.00046799 -0.0040905 0.0055339 -0.0038346 0.0049604 0.0075915 -0.00038112 0.0060851 -0.0093851 -0.0056883 -0.0086788 -0.0088891 -0.00026113 0.0062683 0.0081892 0.0014353 0.0085947 -0.0039091 -0.0017726 -0.010465 -0.0012899 0.00074218 -0.0013678 0.0064223 -0.0075681 0.0079962 -0.009024 0.003123 -0.0042136 -0.0048444 0.0027477 0.0014432 -0.0077748 0.0048168 -0.00060251 -0.0076527 0.0055346 -0.0020032 -0.0023444 -0.0051329 0.0041992 -0.0011252 0.00017668 0.0095893 -0.0050651 -0.0045758 0.0087639 -0.0095976 -0.0103 -0.0052073 0.0017174 0.0056026 -0.008934 -0.002477 0.004037 0.005331 0.00036977 -0.0033537 -0.0042422 0.0087731 -0.0025097 -0.00095295 0.0042771 -0.0015034 0.0050754 0.010009 -0.00053265 0.0050398 -0.0051772 -0.0027411 0.0038283 -0.0027144 -0.0043475 -0.010168 0.0062527 0.0036032 0.0051455 -0.0063479 0.0044226 0.0014664 0.0013316 -0.0088067 -0.0026173 0.0023531 0.0056307 -0.0033156 0.010768 -0.0018589 -0.0028898 0.00024867 -0.0073117 0.0034656 -0.0033777 -0.0088409 
얼마예요 -0.0041746 -0.0024475 0.004668 -0.006694 0.0069882 0.0048135 -0.0046291 -0.0018343 -0.00010641 0.007307 0.0090776 0.0084071 -0.0081732 -0.0044125 0.0076162 -0.0051514 -0.00087722 0.0037726 -0.0049211 -0.0051218 0.0084956 -0.0049722 0.0017867 -0.0072268 0.00072846 0.0055234 0.0057924 0.010327 -0.0023319 0.0093035 0.0036409 0.0096385 -0.0050266 0.0095561 0.0043337 0.0015081 0.0091844 0.0063259 -0.0071138 -0.0091593 -0.0039152 0.0065237 -0.0074391 -0.0021621 0.0074938 -0.00056228 0.0022412 0.0041726 0.00098704 -0.0008572 -0.0057779 0.0045457 -0.002236 -0.0033237 0.0039979 0.0043949 0.010082 -0.0053125 0.0095456 -0.0024872 -0.0094207 0.0047576 0.0037355 0.0020096 0.0077426 -0.0059538 -0.0011162 0.0052544 0.0075821 -0.0083161 0.00083608 -0.0061808 -0.0037522 -0.0024323 -0.0049651 -0.0089034 -0.009894 0.0043569 -0.00011019 0.0057894 0.0036155 0.0052292 -0.0036521 -0.0071786 0.008375 -0.0054824 0.0083712 0.0051871 -0.0071865 0.0034196 -0.0096897 0.0026246 -0.0043586 0.008412 -0.0049884 -0.008885 -0.0021254 -0.0021753 0.0095229 0.0036642 
얼마 0.0098951 -0.00257 0.0003556 0.0049489 0.0009481 0.0039861 0.002696 0.0043255 0.0061456 -0.0046793 0.0043885 0.005994 -0.0073242 0.0050136 -0.0065917 0.0044616 -0.0028598 0.0056872 0.0015174 0.0098659 0.0018415 0.0056455 0.00082331 -0.0029803 -0.0084045 0.0071702 -0.010609 0.0026542 0.0028999 0.0027255 -0.0070867 0.0088235 -0.0021177 0.00026998 -0.00064295 -0.0050076 0.0033335 -0.0092827 -0.00039267 0.0075839 -0.0064761 -0.0082274 0.0086399 0.0029797 -0.0098936 -0.0036927 -0.0056574 0.00066313 -0.0076652 0.0015934 0.005595 -0.0087285 0.0056166 0.003083 -0.00012394 -0.0096878 -0.0033594 0.0032879 -0.0051187 0.0025752 0.0024363 0.0030822 -0.0056337 -0.008661 -0.007494 -0.0025296 -0.0034944 0.0039183 0.0060984 0.006882 0.0019293 0.0054902 0.0031329 0.0048212 -0.0094879 -0.0090073 0.0089163 0.0082938 0.00048457 0.0024467 -0.0089281 -0.0053192 -0.0065785 0.003976 -0.0014201 0.010179 0.0063694 -0.0081256 0.001762 -0.0054871 -0.0018833 -0.0075046 -0.0049098 -0.0045688 0.0049292 -0.0072723 -0.0055707 -0.001181 0.0033477 0.0078349 
가격은 0.00048775 -0.00051722 -0.00028799 -0.0036323 0.0075604 -0.0072679 0.0031442 0.0081323 -0.0073424 -0.0045156 -0.0087814 0.0082367 0.0012334 -0.010024 0.00936 -0.0092431 -0.0058636 -0.0095055 0.0062513 0.0059039 0.0068173 0.00043331 0.0030972 0.0092756 0.001573 -0.0031997 0.0020092 -0.0027681 0.0072415 -0.0086547 0.009924 0.0047067 0.00044014 0.0042476 -0.0030363 -0.0024156 -8.267e-05 -0.0036925 0.0012232 0.0027984 0.0011708 -0.0040346 -0.0017227 -0.0069172 0.0035656 0.0010309 0.0023042 -0.0066586 0.010291 0.0072681 -0.007524 0.00073663 -0.0047297 -0.0072489 0.0061649 -0.0098161 0.0021464 0.0074816 -0.00062978 -0.00084324 0.0006378 -0.0082524 0.0090351 -0.0078975 0.0011924 0.0039203 0.0033383 -0.0075419 0.0066462 -0.0072332 -0.0068513 -0.0084201 2.8079e-07 0.007983 -0.0096826 0.0011145 -0.0029117 0.0051259 -0.0065289 0.0066676 0.0061282 -0.0064982 -0.0042096 0.00035003 -0.0053227 -0.0065788 -0.0049988 -0.0031824 -0.0072173 0.0057131 0.00075332 -0.0073168 0.0058869 -0.0068805 -0.0041204 0.0034432 -0.0032002 -0.0091126 -0.0085786 -0.0010979 
주문하고싶어요 -0.0091444 0.0013276 0.0070114 0.0020989 0.0027255 0.0088713 -0.0048267 -0.0040106 0.010783 0.00026884 0.004293 -0.00056962 0.0060933 -0.00018594 -0.0097442 0.0059126 -0.0018112 -0.0090715 0.0065424 0.00034364 -0.0020843 0.0095801 0.0069653 -0.0051236 -0.0084982 0.0075892 0.0087691 0.0023692 -0.009953 -0.0019227 0.0075934 0.0056912 -0.0063417 -0.0089016 -0.00014327 -0.00012513 0.006991 -0.0017347 0.0037246 -0.0081315 -0.00054248 -0.0034485 -0.0047579 -0.0057697 0.004979 -0.0073449 0.010059 0.0045862 -0.0089198 -0.00095847 -0.0061998 -0.0046382 -0.0015444 0.0091718 -0.00057764 0.0020851 -0.0085254 -0.0085684 0.0078363 -0.009715 -0.0093076 -0.0032301 -0.0043309 0.0046545 -0.0087216 0.0001471 -0.0036534 -0.0023736 0.0051103 -0.0061885 0.0085295 0.0010865 0.0036347 0.0027989 -0.0084321 -0.0090453 -0.0013631 -0.0081047 0.0072205 0.0025362 0.0073905 0.0091323 0.0070334 -0.0081829 -0.007444 0.0015298 -0.0083495 0.0023575 -0.00038694 0.0094746 0.004687 -0.0058818 -0.0020763 -0.010235 0.0035277 0.0022021 -0.00075218 0.007171 0.0068247 0.0033116 
알려주세요 -0.002145 -0.0015707 0.0023915 0.002218 -0.00033275 0.0053608 -0.00502 -0.0091364 -0.0094339 -0.0017954 0.0013795 -0.0093116 -0.0011885 -0.0079316 -0.00040916 -0.01002 -0.0069122 0.0013827 0.0050038 0.0031416 -0.0018018 -0.0047098 0.0056755 0.0014322 0.0078232 -0.0060902 -0.0064289 -0.0084456 0.0071512 -0.010014 -0.0038832 -0.0073358 -0.0079811 -0.0057814 -0.0068675 0.00081278 0.0020344 -0.0080386 -0.0052197 0.00072812 -0.006452 -0.004327 -0.010271 0.0091587 -0.0037267 -0.0086892 0.0096881 -0.00079531 0.0032101 0.0013856 0.0081464 -0.0071419 0.0086937 -0.0019329 -0.0076129 -0.00689 0.0040847 0.0080574 -0.0084578 -0.0022625 -0.0097044 0.0017255 -0.0010961 0.0055252 -0.0069872 0.009862 -0.007741 0.0061443 -0.0059678 0.0047114 -0.0026188 -0.0034536 0.002898 -0.0066558 -0.00055791 -0.0072536 0.0060967 0.006302 -0.0057015 0.0082189 -0.0011902 -0.0063116 -0.003737 -0.0091688 -0.006186 -0.0080389 -0.0098734 0.0037888 0.00964 -0.0063612 0.0053474 -0.0081986 0.0086902 -0.0052572 0.0064182 -0.0066513 -0.0069373 -0.0099306 -0.0052715 -0.0044897 
얼마나 -0.0058761 -0.009169 0.0023753 -0.0055581 -0.0066625 -0.0063865 0.00065149 -0.0070515 0.0017768 0.0071976 0.0033004 -0.0043208 0.0080388 0.0065335 -0.0067799 -0.0021643 0.0054649 -0.0037365 0.0057061 -0.0063427 0.0095701 0.0018026 -0.0020655 0.0051784 -0.0068359 0.0059906 0.00014901 0.0021006 -0.0075092 -0.0029277 0.0075504 -0.0069994 -0.0069453 0.004871 0.0091792 -0.0085453 0.0022609 0.0040241 -0.010014 -0.0073838 -0.010016 -0.0026021 0.0056925 0.0024327 -0.0096472 -0.0080165 -0.0051786 0.0013387 0.0086017 0.0036289 -0.0064743 0.0048443 -0.00094607 0.0095731 0.0047483 -0.0083294 -0.0062367 0.00040079 -0.00035395 -0.0085033 -0.000964 0.0030838 -0.003828 0.0049021 -0.0040115 -0.00029402 0.010163 -0.00083763 0.0045811 -0.0053872 -0.0093208 0.00557 0.0039001 -0.0038057 -0.0086408 -0.0030988 -0.0049367 0.0029552 -0.0043694 -0.0061342 0.0010192 0.0066192 -0.0044619 0.0038525 -0.00091812 -0.0052921 -0.0030592 -0.0066671 0.0066678 -0.0023181 0.0035173 0.007938 0.0032612 0.010215 0.00030005 -0.0027631 -0.00016658 0.0079949 0.0036617 0.0037864 
냅니까 0.0017858 -0.0067758 -0.0046231 0.0027737 -0.0078567 -0.0067221 -0.00074797 0.0017904 0.004379 0.0020032 0.009727 -0.00050327 -0.0056995 0.007708 0.0070349 -0.0062365 -0.0035979 -0.0068167 -0.0058279 -0.0092693 -0.0036223 0.0042077 -0.0081293 0.0017793 -0.0039135 -0.004817 -0.0047586 -0.0060412 -0.0014209 0.0091032 0.0068225 0.0097883 -0.008144 -0.0034811 -0.0026096 -0.00042463 -0.0029912 -0.0054103 0.0048956 0.0018163 -0.004494 -0.0090494 -0.0042305 0.0013111 0.0063674 0.0056175 -0.0066543 -0.0048756 0.0035835 -0.0086376 -0.0092524 0.0068471 -0.0074799 -0.0046964 0.0090672 -0.007419 -0.0069746 -0.00025964 0.0016464 -0.0018748 0.0045176 -0.0032085 0.0071615 0.0094449 0.0079846 0.0049877 0.0055366 -0.0015411 0.00057863 0.00012065 -0.00062064 0.0078444 -0.0053145 0.00051887 -0.0082881 0.0045504 0.0051397 0.0061906 0.0064745 0.0011941 -0.0032327 0.0015129 0.0050179 0.0077785 0.0092256 -0.0094771 -0.0033574 -0.006977 -0.0021664 -0.0040396 0.00012945 -0.00012354 0.0026793 0.0057887 0.0082651 -0.00010547 -0.0090047 0.0041079 -0.0024097 0.00015657 
알려줘 0.008268 -0.0074463 -0.0038998 -0.0010355 -0.0049682 -0.0099078 -0.0092155 0.0051663 -0.0053902 -0.0058595 -0.0080058 -0.0036431 0.0062459 0.0048776 -0.0090194 0.0053395 -0.0030312 -0.0070951 0.0015851 0.0068299 -0.0014647 0.0072582 0.0097699 0.0081134 -0.010005 0.0019096 0.0068524 0.006341 0.0046044 0.0079552 -0.0063283 -0.0041814 0.00025189 0.0037674 -0.00089476 0.0094377 -0.0046688 -0.0076928 -0.0049414 -0.0042663 -0.010065 -0.0079799 0.0019923 0.00056383 -0.0061733 -0.007983 0.0012771 0.0049493 0.0081914 0.0081496 -0.0010689 -0.0081327 -0.0034996 0.0060853 0.0059169 0.0092213 0.0097466 0.0049162 0.0013167 -0.0041914 -1.8916e-05 -0.0001411 -0.0036427 -0.0017393 0.0088952 0.0039885 0.0089129 0.0017802 0.00048922 0.0096601 -0.0020375 0.0085153 -0.0067158 0.0048851 -0.0039913 0.0012886 0.001711 -0.0074393 0.0061855 -0.0083363 -0.0018477 0.0045019 -0.00025957 -0.0024181 0.008788 0.0065926 0.0036497 0.0030111 0.0024714 0.0091509 -0.0012138 -0.0029583 -0.010887 0.0074806 0.0027473 0.0045478 -0.0096332 -0.0012039 -0.0021873 0.0022428 
말해줘 -0.0061807 0.0071953 0.0064936 -0.0046373 -0.0077363 -0.0080598 -0.0055414 -0.0080709 0.00016199 -0.00059975 0.0045721 0.0069663 0.0013536 0.0081384 -0.0010042 -0.0039867 -0.0063347 0.0049591 -0.0002403 -0.0090982 -0.0028283 -0.010222 0.0031653 -0.0025533 -0.0087481 0.0011919 0.0036907 -0.0084548 0.0091937 0.0068975 -0.0074053 0.0036837 -0.0050738 0.0050004 0.0075163 0.003945 0.0072605 -0.0060999 -0.0020033 -0.0045161 -0.0065818 -0.0043308 0.00050429 -0.0034409 -0.0083425 0.00028542 -0.0055023 0.0097055 0.0041472 -0.0091618 -0.0026289 2.6634e-05 -0.0080547 -0.0092972 0.0023654 0.0076102 0.0065468 0.009027 0.0095797 0.0058137 -0.0073074 -0.00034159 -0.0074609 -0.0078871 0.01034 -0.001091 1.6492e-05 -0.0077981 0.0083976 -5.3662e-05 0.0058069 -0.0081954 0.0056534 0.0034332 0.00063115 0.0095908 -0.0033805 -0.0035164 -0.0080131 -0.0023631 -0.0065953 -0.00054545 0.0066096 -0.0073248 0.00055358 -0.0065421 0.0033265 -0.0083394 0.00042982 0.0050911 0.0026656 0.0045796 -0.0084245 0.0037512 0.0089483 0.0074583 0.007438 0.00080118 0.0066515 0.0057871 
얼만데 -0.0061025 0.0093519 -0.0050678 0.0057839 0.0050849 -0.0067715 0.0042067 -0.006846 -0.0015334 0.0023668 -0.0038598 -0.0031599 0.0053104 -0.0067377 -0.0050623 0.0036722 0.0015783 -0.0024443 -0.0037586 -0.006459 -0.0090841 0.0033984 -0.0023005 -0.0019483 0.0062652 -0.0072673 0.00049667 0.0090631 -0.0021399 0.0079585 -0.0091016 -0.0063591 0.002946 0.0013678 -0.0089864 -0.0072747 0.0088893 -0.0072124 0.0031732 0.0014173 -0.0038402 0.0037671 0.0062331 0.0060057 0.0013198 0.0061519 0.0069567 -0.0057264 -0.0021209 -0.0048784 0.0027813 -0.0011043 0.0012989 -0.0070396 -0.00549 0.0044813 -0.0068682 0.0063272 0.0086076 0.0063875 0.0017454 0.0036317 -0.0091633 -0.010089 -0.0089216 0.0012456 -0.0071002 0.0061733 -0.009188 -0.0078936 -0.0091054 -0.0084077 0.0038237 -0.0072107 -0.0081469 0.0042864 -0.010413 0.0010823 0.0083729 0.0032438 -0.0053144 -0.0046936 -0.0051099 0.0001699 -0.0089016 -0.0023356 0.0059792 0.00058741 0.010196 0.0098755 0.0067393 0.0032025 0.0017517 -0.0037253 0.0086319 0.0085563 0.0028565 -0.0089336 -0.0018473 0.0034743 
얼마인데 0.0025575 -0.0054435 0.0050314 -0.00090559 2.4954e-05 -0.0056207 -0.0033076 0.0091163 -0.0018664 -0.0011765 -0.0062421 -0.00090127 -0.0034202 0.00085385 -0.0086063 0.0048289 -0.0029649 0.0067661 -0.002186 -0.0070425 0.0044829 -0.0069892 0.002332 0.0052773 -0.0035852 -0.0059501 -0.0049008 0.010071 0.0081446 -0.0040125 0.007387 -0.0052721 -5.6842e-05 -0.0013895 0.006377 0.0080186 0.0096466 -0.0049648 -0.0012607 -0.0028978 0.0070466 0.0030016 -0.0036745 -0.0092635 -0.00072144 0.0023138 0.0075765 -0.0009537 0.0066169 -0.0053455 -0.0084542 -0.0068035 0.003559 -0.0055909 0.00063446 0.0002314 0.006548 -0.0067419 0.0092709 -0.009628 0.002227 -0.0026198 0.0070014 0.0093272 0.0023978 0.0063661 -0.0051567 -0.0065329 0.0038407 0.0066543 0.0037893 -0.0019773 -0.0074952 0.0036595 -0.0035154 0.0029305 -0.0081949 -0.0069853 -0.010041 -0.0034938 0.0095305 0.0011042 0.0061976 0.0067066 -0.0089763 -0.005567 -0.0023299 0.00065095 0.0070807 0.0098405 -0.008669 0.004724 0.0041013 0.010216 0.0080962 -0.0091542 -0.0037148 -0.00019076 -0.0059824 -0.0061512 
