61 100
</s> -0.0093412 0.018449 -0.016579 -0.013207 0.01599 0.0081839 0.0029242 -0.005117 0.038853 0.033514 -0.012003 0.011514 0.014469 0.01658 -0.015292 0.0030954 -0.00073392 0.0054813 -0.0047503 -0.018932 0.0066112 0.022088 0.010093 -0.011112 0.0090101 -0.01996 0.007538 -0.019386 -0.019224 0.026135 -0.013802 -0.0024733 -0.024249 -0.013426 -0.036135 -0.0070666 0.00057093 -0.016976 -0.00021589 -0.010505 0.016911 0.03385 0.0075832 0.0044673 -0.0022229 0.0070831 0.0015137 -0.011973 -0.015327 0.013439 -0.022435 0.023851 -0.020333 0.0074551 -0.011026 -0.012682 -0.0011651 0.0019644 0.014219 0.0026469 -0.01297 0.019459 0.026611 0.017895 -0.017697 0.0027621 -0.023817 0.015814 0.018604 0.010431 -0.022936 0.013893 -0.0050859 -0.0069501 -0.0091921 -0.0048297 0.035522 0.025188 0.0077307 -0.018387 -0.010323 0.014733 0.025682 -0.02159 -0.0068237 -0.020977 0.00087383 0.0087136 -0.008989 -0.018667 0.022378 0.0057745 0.029494 -0.02704 0.001686 -0.029879 0.0089836 0.02872 -0.014463 -0.0038139 
? 0.0027351 0.0049386 0.0094843 -0.011944 0.0082442 0.0074592 -0.0080263 0.0017981 -0.0031891 -0.0013372 -0.0021329 -0.0073571 -0.0043323 0.0030347 -0.008393 -0.0083627 0.0029293 0.0072769 -0.0072732 -0.002594 -0.0056707 0.013155 0.0063441 0.0080143 -0.010675 -0.0080812 -0.011769 -0.0028277 -0.0038242 -0.0069164 -0.006979 0.00017049 0.0039118 -0.0068066 -0.010068 -0.0044119 -0.0055343 0.0032979 -0.00082309 -0.0038959 -0.012175 0.01136 -0.005425 0.0036826 0.0093255 0.0024842 0.0099611 -0.0041443 -0.0050933 0.0052037 -0.0021864 -0.0013879 0.0014436 0.0056705 -0.011976 0.002932 -0.010342 -0.00068622 0.011978 -0.0036367 -0.0013289 0.0051341 0.0081271 0.010209 0.0032593 -0.0047025 -0.0084171 -0.0043589 -0.005381 -0.0066392 0.0011919 0.0057254 0.0068286 -0.0088045 -0.0035243 -0.0024731 -0.0034366 0.006793 0.0086652 0.0070045 0.00029063 -0.0064922 0.0038435 -0.00010638 0.0050087 0.0029986 -0.0024533 -0.011268 -0.0045188 0.0068521 0.0036236 0.0023844 0.0037622 0.0016932 0.011152 -0.00039735 -0.00090569 0.0057421 -0.006846 -0.0067272 
주문 0.0071904 -0.0015163 -0.0069514 -0.011528 0.0074806 -0.0027381 -0.011009 -0.012125 0.027126 0.024531 -0.017231 0.0027927 0.001254 2.2508e-05 -0.010701 0.007636 0.00117 -0.003874 -0.010426 -0.0038646 0.012102 0.0046969 -0.002406 -0.00020338 0.00055774 -0.010102 0.0078299 -0.019962 -0.020781 0.012164 -0.0016924 0.0083172 -0.014326 -0.00082981 -0.026627 -0.01171 -0.00803 0.0026533 0.0090591 0.0061767 -0.0037376 0.021674 0.0071739 0.00151 0.0049086 0.0083228 0.013098 0.0020713 0.001264 0.015546 -0.011838 0.0088537 -0.0022173 -0.0042895 -0.017866 0.0024371 7.327e-05 -0.008558 0.0017101 -0.0050471 0.0048609 0.018413 0.020258 0.014265 -0.016192 0.0037425 -0.016337 0.004434 0.010458 -0.0065632 -0.00079537 0.012129 0.002632 -0.014768 -0.014823 0.0039247 0.025913 0.0083123 0.016186 -0.017246 0.0077203 0.0032507 0.0043549 -0.014964 -0.0024283 -0.015789 -0.0020703 0.014773 0.0024588 -0.014622 0.0017372 -0.00060453 0.020327 -0.014358 0.0037578 -0.016385 -0.00067665 0.019383 -0.00028801 0.0078931 
피자 -0.00039584 0.017397 -0.013189 -0.012004 0.0094616 0.013427 -0.0083917 -0.0039673 0.026146 0.024306 -0.012535 0.014929 -0.0034143 0.011653 -0.0033791 -0.0025192 -0.0080274 -0.0084082 0.0047116 -0.0049801 0.013965 0.020919 0.0042177 -0.0025244 -0.005491 -0.0051835 0.011667 -0.014068 -0.023098 0.0069055 0.0014027 0.0064684 -0.012118 0.0037178 -0.022273 0.0033647 0.001101 -0.011521 -0.0012711 0.0018597 0.0070086 0.019078 -0.00079521 -0.004491 0.00053379 -0.00049347 0.012513 -0.0073774 -0.001394 0.015919 -0.021624 0.0047886 -0.0072479 -0.0043776 -0.010572 -0.011166 -0.0022564 0.0027665 0.013779 0.00031748 -0.013747 0.013878 0.018318 0.00058729 -0.018 0.0030889 -0.011942 0.0019116 0.0060251 -0.0010934 -0.0010412 0.012213 -0.00067731 -0.0014249 -0.0066488 0.0086283 0.024296 0.022479 0.014118 -0.01879 -0.00068856 0.010145 0.021285 -0.0054914 0.0090294 -0.010206 -0.0010552 0.013997 -0.014472 -0.02098 0.010877 -0.0056566 0.016643 -0.010219 -0.0056108 -0.020928 0.0021981 0.019714 -0.0095883 0.00063259 
배달 -0.0046321 0.0019697 0.0018358 0.0079106 0.004286 0.0073625 0.0070102 -0.0088729 -0.0020821 -0.0034852 0.0046051 -0.0060702 -0.0067132 -0.0010874 0.014526 0.00078349 0.0042024 -0.0024247 -0.0048971 0.014 0.0066752 -0.011791 -0.0090949 -0.0087567 0.0050918 0.0095213 0.010069 0.010025 0.015009 0.0022952 0.0090519 -0.010608 -0.0035024 0.00038047 0.012843 0.010997 -0.010868 0.013877 0.0064932 0.0025093 -0.003363 -0.01128 0.0067735 0.0081234 0.0042474 -0.012098 -0.0050313 0.01219 0.001483 -0.0088317 0.00054243 0.0012827 0.0085626 -0.00088799 0.016235 0.010521 -0.0036863 0.0062246 -0.017038 0.010483 0.0066506 -0.0042794 -0.012578 -0.0061563 0.013125 0.0065686 0.0012638 -0.012398 -0.0085576 0.0043477 -0.00046238 -0.0048656 -0.0077503 0.0098633 -0.0017995 -0.0051649 -0.01461 -0.019319 -0.0013098 0.00060131 -0.0068935 2.23e-05 -0.0056513 0.010904 -0.0011655 0.0014781 0.0029194 0.0043098 -0.0024334 0.013119 0.0015557 0.001234 0.0019478 0.0043178 0.00036495 0.017174 -0.00069444 -0.01849 -0.0030712 -0.0059905 
부탁해 0.0090635 0.0059428 0.0052369 -0.0047278 0.005489 0.0042508 -0.0076463 -0.0032987 -0.0062601 0.011087 -0.00031298 0.0047233 -0.004824 -0.00091643 -0.0068141 0.0046574 -0.0062973 -0.0082813 0.0068756 -0.0071195 -0.0064056 0.0021886 0.0062467 -0.0036688 0.0035264 0.0057689 0.00084307 -0.0073256 -0.0089697 -0.0052637 -0.0071675 0.0064048 -0.0059496 -0.0016259 0.0027201 0.0063195 -0.0078023 -0.0052414 -0.0081354 0.0087766 -0.0051059 0.0014904 -0.0038729 0.0034303 0.0080618 -0.0029229 -0.0029645 -0.010326 -0.0056294 0.0083971 -0.0067217 -0.0069905 -0.010724 0.0066315 0.0042128 0.0021393 0.0019128 -0.00017728 0.00047965 -0.0021095 -0.0088235 -0.0029591 0.0094215 -0.0030157 0.0041812 0.0031318 -0.010857 -0.0056536 -0.0042456 0.0084844 -0.0033736 0.0075082 0.0092614 -0.010316 -0.0038379 -0.0026832 0.0050722 -0.0075344 -0.006135 -0.004825 0.0051385 0.0062428 0.0036982 0.0094014 0.0061745 -0.0024296 -0.0090722 0.0022449 -0.0090678 0.0086296 -7.343e-05 -0.0013714 -0.0066503 0.00047739 8.028e-05 -0.00090241 -0.0082043 0.00016021 -0.006511 -0.0081487 
. 0.0071516 0.0015266 0.0066679 -0.010957 -0.0013345 0.005393 0.0035975 -0.0024731 0.0066574 0.0055378 -0.0018233 0.0075937 -0.0086384 -0.0072963 -0.0076481 0.0092593 -0.002098 -0.0024583 -0.00039367 0.002468 0.0091962 0.012917 0.0032628 -0.0055274 0.0022937 0.002412 -0.0047153 -0.0041501 -0.0034237 0.012619 -0.0081565 -0.0096303 -0.0093806 0.00049605 -0.0022034 0.0044545 0.0042894 0.0014655 2.1315e-05 0.00014328 -0.0026248 0.01229 0.0060888 -0.0043551 0.0079839 -0.004919 0.011061 -0.0094207 -0.0018458 -0.0034139 0.0016601 0.0095665 -0.0083691 0.00073079 0.0020654 -0.0051478 -0.0018639 0.0029769 0.010833 -0.0021698 -0.0021392 0.0096881 -0.0048308 -0.0064469 -0.0092368 0.0061091 -0.013456 0.0063049 0.0012338 0.01072 -0.010721 0.004899 -0.0055293 -0.0044385 -0.00060189 0.0010976 0.0054727 -0.0038104 -0.0053931 -0.006089 0.0060953 0.0095776 0.0079253 -0.009728 0.0067516 -0.0081058 0.0078151 0.0070192 0.0076998 -0.0033308 0.0013068 -0.0045975 0.0014981 -0.0047196 -0.0063968 -0.012964 -0.0014845 0.00073248 0.0060311 -0.0096287 
수 -0.0066395 -0.0018289 -0.0097475 -0.0086745 0.010447 -0.0014975 -0.004736 0.0003323 0.0053952 -0.0027228 0.0015706 -0.0073832 0.00099557 0.010909 0.0042549 -0.00044467 -0.0055175 0.00079835 0.0014995 0.0030519 0.0026082 -0.00084039 -0.005604 0.0019475 -0.0053244 -0.0080618 -0.0039363 0.0025238 -0.0078089 0.0047971 -0.0020211 0.0077641 0.0067716 0.0031712 -0.013993 0.003897 0.0078418 -0.010558 0.0081469 0.001881 0.0060586 0.0099405 0.00084445 0.0071757 0.0053612 0.0063422 0.0088635 0.0062758 0.0048867 0.011716 -0.0091403 0.0018051 0.0035114 0.0089265 0.00036072 -0.003085 3.6311e-05 0.00095714 0.0079056 -0.00742 -0.0023751 -0.0054679 0.012747 -0.0068141 -0.0090271 -0.0072175 3.0754e-05 -0.00088683 -0.0069266 -0.0041389 -0.008147 0.0080019 -0.0089255 -0.00030308 0.0068394 0.0086191 -0.0018547 0.0096503 -0.0027966 -0.0053544 -0.0026235 -0.0026209 0.010537 0.0054615 0.00072138 0.006795 -0.00085347 0.005781 -0.00029171 -0.005878 0.011644 -0.003352 -0.0056912 -0.0075674 -0.0097548 -0.009752 -0.0028689 -0.0062056 0.0054928 -0.0031288 
가격 0.0061843 -0.0073363 0.010875 -0.0028847 0.0063457 -0.011264 -0.0020261 0.0037314 -0.013235 -0.0074222 -0.0074264 -0.0047562 -0.0043946 0.008713 0.0050027 -0.0085071 0.0017791 0.006264 0.0090204 8.5432e-05 -0.010651 -0.0040543 0.0038058 -0.0045632 -0.0017137 -0.0021333 0.0071926 -0.0069419 0.011611 0.0025988 0.0020048 0.0097671 0.0075112 -0.0018518 -0.0039897 0.0025495 0.0096295 0.0052643 0.0011608 0.009445 -0.010781 -0.013393 0.0087411 0.0070498 0.0074962 -0.0089109 0.0033284 0.0063007 -0.0024702 0.0084955 -0.0014447 0.0024501 -0.0049981 0.0076659 -0.00091639 0.0084435 -0.00074067 -0.0098025 -0.004878 0.0046929 -0.0021412 -0.00028495 0.0035664 0.0091625 -0.0004595 -0.0075727 0.010885 -0.0060162 -0.0063199 -0.0044136 0.0053437 -0.010981 0.0029428 0.0089204 0.010147 0.0069961 -0.010984 0.0047175 0.0076142 0.013084 -0.0015178 -0.005046 -0.0044379 -0.006671 0.0089296 0.0089874 0.0048952 -2.867e-05 0.0015109 0.0052464 -0.0028849 -0.0047834 0.0055603 0.0092461 -0.0036647 0.00045946 -0.0029829 0.0073084 0.0090442 -0.0032599 
하고 -0.0071296 -0.00044368 0.0014462 0.0069325 -0.0014659 0.0072047 0.0047244 0.00081349 -0.003414 -0.0063701 -0.007163 -0.0045334 0.0065767 -0.0093849 -0.0076125 -0.0059146 -0.0040552 -0.010007 0.0024153 -0.003862 -0.0042015 -0.0028195 0.0022863 -0.0043462 -0.0083281 -0.000417 0.0073643 -0.0079946 0.0052823 -0.0064349 0.0025703 -0.0071421 0.0039629 -0.0055035 -0.004483 -0.0015925 -0.0057705 0.008366 0.00078738 0.00018182 0.0035923 0.0071447 -0.0020345 0.0038065 -0.0011249 0.00049344 0.0047381 -0.0022557 -0.00085621 -0.001499 -0.0014061 -0.0076192 0.0012418 -0.0020743 0.0055663 0.0043152 0.0032426 0.0092903 0.0095891 0.0056992 -0.0048469 0.002662 0.00030229 0.0048134 -0.0039624 -0.0066958 -0.0034022 0.0092858 -0.0033684 0.0048063 0.0033472 -0.0048617 0.0014984 0.0058966 -2.2815e-05 0.0057937 -0.0024235 0.0012447 0.0066401 -0.0019399 0.0085511 -0.0058444 0.0059879 -0.0093397 -0.0068013 0.0014301 -0.0098944 0.0053075 -0.0015802 -0.00042306 0.002691 0.0076803 0.010266 -0.0055668 -0.0093498 -0.0034885 -0.0084996 0.0013336 -0.0050858 -0.0099368 
할 0.0065625 0.0032069 -0.0070635 0.0067011 0.010389 0.0019628 -0.0022681 -0.0018975 0.0018971 9.4577e-06 0.0073518 0.0014923 0.00064717 0.0016201 -0.0034529 -0.0026327 -0.00069434 -0.0069911 0.0085604 0.005653 0.003509 0.00023943 0.010135 -0.010458 -0.0044532 -0.0089358 0.0079267 -0.0050127 -0.0057215 0.0032021 0.008993 -0.0075735 -0.0017877 -0.0037538 0.0038453 -0.0086058 -0.00014158 -0.001705 -0.0012956 -0.0093282 -0.0043247 0.0012489 -0.0085183 -0.0026897 0.007036 0.010486 -0.0019426 0.0044321 -0.0073882 0.0018296 -0.011359 -0.00289 0.005408 -0.00074351 0.0021178 -0.0080571 0.0012338 0.0093876 0.0080808 0.00092661 0.0052118 0.007354 0.0058471 0.0077305 -0.0053804 0.0098 0.0025963 0.0017268 -0.0037922 0.0098389 0.0078007 0.010456 0.0059391 -0.0083263 -0.0034712 -0.0017162 0.0029294 0.0093902 0.0053228 -0.0067391 -0.0028516 0.0067429 -0.0018525 -0.0046925 0.0095212 -0.0078835 -0.0039074 0.0012151 -0.0076955 -0.0039506 -0.0038864 0.0032862 0.0090716 -0.010133 -0.0097114 -0.011446 0.00604 -0.00055483 -0.0061803 0.0037159 
싶어 0.0083949 0.0070475 -0.0056691 0.0082874 -0.0034305 0.0061766 0.0098814 0.00047172 -0.0063961 -0.0033921 -0.0075069 0.0018633 0.007606 -0.0001882 0.0056348 -0.00047475 0.00017221 -0.0076628 0.00010823 0.0015569 0.0036191 0.0067116 0.0011605 0.0059122 -0.0064495 0.0051595 -0.0034076 0.0041167 -0.01063 0.0046457 0.0034999 0.0086837 -0.0029865 -0.010382 -0.00020549 0.00036918 -0.00027403 -0.00306 -0.00056079 0.0017532 0.0039516 0.0063472 0.0073225 0.0086062 0.0049196 0.0016711 -0.00070662 0.0011082 -0.0075086 0.0083653 -0.0075925 0.0012919 0.0033379 -0.0078406 0.0085744 0.0041192 0.0023478 -0.0034157 0.0072354 -0.0098553 0.0056946 0.0032107 0.0085868 0.0089979 0.0073975 -0.0040431 -0.0045959 0.0048375 -0.006619 0.0024692 -0.0059896 0.0014628 0.008836 0.0044807 -0.006763 0.0030501 -0.00064663 -0.0018692 0.0078445 -0.0097856 0.0066285 0.0045258 -0.0053502 0.0050868 0.0058841 0.0048513 0.0089844 0.0021818 0.0011999 -0.010115 -0.0017948 0.0088917 0.0009932 0.0085155 0.005275 -0.0018429 -0.0087652 -0.0014711 -0.0098529 -0.0063162 
가능 0.0018657 -0.006936 -0.0073137 -0.0052882 0.0086095 0.00045731 -0.0090643 -0.0035726 0.0040224 -0.0032115 -0.0020997 0.0090642 0.0097007 0.0078249 0.0034186 -0.00091424 -0.00092925 -0.0035537 0.0076331 -0.0044968 0.0088049 -0.00055073 0.0043385 0.0017906 -0.0029711 -0.0073044 0.0066725 0.0082943 0.0077015 -0.0043207 0.0016509 0.0030822 0.0068996 0.002129 -0.0089177 0.0036861 0.0084855 -0.0064415 -0.0065946 -0.0016054 0.0062165 -0.005365 0.0092681 -0.0076026 0.0074349 -0.007747 -0.00061946 0.0084367 0.0021096 0.0012002 0.0046924 -0.0095605 -0.00088435 -0.0055878 -0.0031194 -0.0057319 -0.0076484 -0.0035967 -0.0078901 -0.0044568 0.0034109 0.0062603 0.0051609 -0.0010702 -0.0081639 0.0072256 -0.0087473 -5.9004e-05 0.0047058 -0.005296 0.0042449 0.0066451 0.0057753 -0.0048054 -0.0015798 -0.0080426 0.0033857 0.0089105 0.00074348 0.0070175 0.0013908 0.0017695 0.0028234 -0.0043127 0.0053735 0.00094955 0.00083687 -0.0021311 -0.0051523 0.00090809 0.0014669 -0.009127 -0.0016616 -0.0086565 -0.0036572 -0.0066531 0.0051135 -0.0093273 -0.00021585 -0.0074279 
배달할래 0.0035035 -0.0050799 0.0062127 0.0096839 -0.0076653 0.0050068 0.0044057 -0.0056271 0.0046006 -0.0010207 0.0045146 0.0040785 -0.0095907 0.0033499 -0.00020343 0.0061483 0.0058286 0.0080441 -0.0091108 -0.0010243 -0.0036212 -0.0080087 -0.0067278 0.001606 0.0059264 0.0061216 0.0082709 0.0077874 0.009897 -0.00068815 0.0074973 -0.00014091 -0.00043843 -0.0038605 0.013049 0.0087994 -0.0088733 -0.0068384 0.0048609 -0.0026482 0.0084059 -0.0023559 -0.0013766 0.0041969 0.0059157 -0.0063509 -0.010541 0.0025903 0.0055878 -0.0059227 0.0019571 0.0055275 -0.0067469 0.0032733 -0.0067836 -0.0010899 -0.0065479 0.00457 -0.013075 0.0049064 -0.0071328 -0.0076438 -0.00084732 0.0075647 0.00025229 -0.005156 -0.0021436 -0.00076543 0.003379 -0.0029293 -0.0074361 0.0043233 0.0044423 0.00042266 -0.0036723 -0.0078452 0.0045864 -0.013068 -0.0090569 -0.00027186 0.0059583 0.0033604 -0.010776 0.010159 -0.0023432 0.0091681 0.0075995 -0.0084117 -0.0019468 0.0078022 -0.0087268 0.0050778 0.0016413 -0.0039969 -0.0028405 0.0055531 -0.0025556 -0.0063849 0.011125 -0.0029639 
주문하고싶어요 0.0019813 -0.0079052 0.0016649 0.0069776 0.0068213 -0.0091454 0.0021899 -0.0038468 0.0034764 0.004908 -0.0049659 0.0094292 -0.0094145 -0.0032206 -0.0055635 -0.0024317 -0.00048283 0.0078565 -0.005268 0.0093563 -0.0060887 0.0072452 0.00125 -0.0066006 0.0021085 0.0043223 0.0077102 -0.010641 0.0046128 0.0058812 -0.0047464 0.0079608 -0.0089006 -0.0071242 0.0073538 -0.0053504 0.00036232 0.0046222 -0.0057534 -0.009101 -0.006434 0.007812 -0.0047263 -0.00024965 -0.0017658 -0.00067673 0.010115 -0.0061541 0.0082692 0.0037045 -0.0084893 0.0075272 -0.0037876 -0.0017434 -0.006762 -0.0069699 7.3719e-05 -0.0028586 0.003335 0.0042884 -0.0071903 0.0034291 -0.008237 0.0071911 0.0078689 -0.0067462 -0.0012736 0.001321 -0.0013836 0.0032478 -0.0088416 -0.0019649 0.0041533 -0.0099411 -0.0095256 0.0094179 0.010035 0.0091277 -0.0030748 0.0076211 0.0052002 -0.0075678 -0.00035964 0.0071711 -0.0023208 -0.0055028 0.0056635 0.0026038 -0.0036904 -0.010009 0.0088733 0.0031615 -0.0041263 0.0030414 -0.0080531 -0.010704 -0.0028431 0.0021976 0.00082019 -0.0010044 
주문하겠습니다 0.00277 0.0072547 -0.0046382 -0.0095368 0.0044974 0.0068487 -0.0066157 -0.0075289 -0.0019169 0.0084062 0.0048119 -0.0083973 0.0022223 0.0033542 0.0053351 0.010188 -0.0028275 0.00040738 -0.0076687 -0.0079944 0.0092777 -0.0077598 -0.0087704 0.0091698 0.00036356 0.0023383 -0.0050599 0.008185 -0.010725 -0.0043993 0.0035007 0.0079397 0.0082444 -0.0069095 -0.0090493 -0.0064074 -0.0095075 -0.0059127 0.0011073 0.0093137 0.00019726 0.0071854 0.0098197 0.006697 -0.0041259 -0.0077259 0.003611 0.0093283 0.00095002 0.0086373 -0.0051495 0.010811 -0.00020648 -0.0033598 0.0046645 0.0069208 -0.0029483 -0.006955 0.0081555 -0.0037454 0.0039199 -0.0051511 -0.0052284 0.0052701 0.0048966 -0.0061681 0.0078979 0.0023008 -0.0053717 0.006878 0.0060593 0.0091075 -0.0099282 -0.0071793 0.0072961 -0.0035054 -0.0013041 -0.0072997 0.0031414 0.0013266 0.00029884 0.010436 0.0046103 0.0017119 -0.0023799 -0.0082712 0.0044527 -0.0086107 0.00091711 -0.011001 -0.0084607 0.0054793 0.0066101 -0.004919 -0.0013169 0.0040629 -0.0042772 -0.0012349 0.0049336 0.0026117 
싶어요 0.0038819 0.0025074 -0.0043952 0.00088196 0.00406 0.0069807 -0.0064805 -0.0041278 0.0097487 0.0061676 0.0061238 0.006315 -0.0049875 0.0047946 0.0032647 -0.0058545 0.0016925 0.0032913 -0.0062375 -0.0027956 -0.00064876 0.0065434 0.0099525 0.006109 0.00087687 0.0021032 0.0066624 -0.0016722 -0.0035358 0.0055472 0.0095511 -0.0015332 0.00026499 -0.0078798 -0.010879 -0.0070525 -0.0009247 -0.0042636 0.009109 -0.00076472 -0.0069922 0.010093 0.0059024 0.0070175 0.004169 0.0088024 -0.00015642 0.0052527 0.0068092 -0.00038034 0.0053328 0.0030756 0.0008862 -0.0063714 -0.001142 -0.001511 0.0093022 -0.0027049 -0.0010367 0.00095462 0.0035528 -0.0090304 0.010064 0.0025839 0.0015335 0.0043063 0.0080428 0.002169 0.0055776 -0.0038821 -0.0046761 0.0047457 0.0089375 0.0059702 0.0056864 -0.00011888 0.0034492 -0.001823 0.0084143 0.0049348 -0.0058495 0.0016544 0.0022694 0.0077746 0.0020776 0.0054507 -0.0093311 -0.0083875 0.0063458 0.004478 0.0084355 0.0068813 0.0098009 0.0090238 0.0035235 -0.010936 -0.0010007 0.0065996 0.0054903 -0.0026469 
주문가능 0.0072249 -0.0069774 0.00015701 0.0013429 -0.00072822 -0.0085215 -0.0080552 0.0054934 0.0070313 -0.0073938 -0.0029925 0.0032133 -0.0060982 0.00032853 -0.010352 0.010042 0.0073235 0.00015643 -0.0012115 -0.0098451 0.0051012 0.00063779 -0.0088744 -0.0045425 -0.0055394 0.0065307 0.0027718 -0.0087326 -0.0032333 0.0055441 -0.0047658 -0.0033799 0.00014855 -0.0038983 -0.0013372 -0.0039211 0.0067138 0.0004024 0.0023772 -0.0065247 0.0077886 0.0035785 -0.0027394 0.0038652 0.0032944 -0.0065703 0.0060488 -0.0056932 -0.0056814 -0.0035224 -0.0087176 0.0036391 -0.0057951 -0.0038926 0.0071674 -0.0073858 0.0041923 0.0019034 -0.0013321 -0.001242 -0.0096032 -0.0054476 0.0092159 0.0097432 -0.0044026 0.00753 0.0044551 0.010041 -0.0016672 0.0073799 -0.0075023 0.0069023 0.0012245 0.00040327 0.00016816 -0.0087322 -0.00067689 0.0089907 0.0079302 0.0074264 0.0096528 -0.0018551 -0.00091236 -0.01049 0.0038729 -0.0013838 0.0013296 -0.001445 0.0065373 -0.0095945 0.0095169 -0.0066273 0.0079613 0.0023261 0.00036716 -0.0050744 -0.0025858 -0.00079429 -0.0055014 0.0056295 
ㄱㄴ 0.0064843 0.0084027 -0.0075577 -0.0085385 0.0020797 -0.0075075 -0.0038046 0.0080818 0.00034761 0.0049254 -0.0065915 -0.0019558 0.0042784 0.0088562 0.0062241 0.0066703 -0.0054343 -0.0034109 0.0027702 -0.004411 0.0027669 0.0025086 -8.3413e-05 0.0027475 -0.0029646 -0.0034102 0.0077081 -0.010486 0.0007143 -0.0079588 -0.0040657 -0.0077914 0.0053977 -0.0051794 -0.0049024 -0.0055208 0.0021387 -0.0083947 -0.0080426 0.0044349 0.0058415 0.00067144 0.0010415 -0.0032982 0.0016028 -0.0091002 -0.0071129 0.0084457 -0.0018446 -0.0040096 -0.0093571 0.009716 -0.00887 0.0056695 -0.0084196 -0.0020039 -0.0055289 0.0089856 0.0086541 0.0089397 0.008397 0.00028059 0.0094029 0.0091446 -0.0013739 0.0028742 0.0056604 -0.0032561 -0.0071632 0.003092 -0.0050737 -0.0003386 0.0037905 -0.001479 -0.00065045 0.0021305 0.0080159 0.0016486 0.0015822 -0.0032364 0.0052042 -0.0090892 0.0058219 -0.00019298 0.0084748 0.0089868 0.00032745 0.0068395 0.0050888 -0.00099836 0.0019353 0.0076157 0.010084 -0.0096859 -0.0074007 -0.0036654 -0.0058019 0.0042558 -0.0035949 0.0039279 
ㅈㅁ 0.0037784 -0.0035494 0.006765 0.0056182 0.0090712 0.0090883 0.0007317 -0.0011101 0.0018469 0.0060423 -0.0085337 -0.0089308 0.0031396 0.0041266 0.000935 0.0014529 -0.0047732 -0.0062059 -0.0091326 -0.01088 0.0061547 0.0049333 0.0089601 0.0042417 -0.005329 -0.0085616 -0.0034001 0.0050756 0.00079269 0.003705 0.0030629 -0.00042237 0.0044938 0.0061898 -0.0058494 -0.0012517 -0.0086217 0.0066916 -0.0026544 -0.0089825 -0.001216 0.0066336 -0.0073709 0.0085871 0.0052131 0.0099284 0.00062643 -0.0092865 -0.00010271 -0.0075762 -0.0057717 0.0058592 0.0015349 0.00045604 -0.0061996 0.004519 0.0066385 -0.0029202 0.0062635 -0.0082609 -0.0093609 0.002141 -0.0072468 0.002487 0.0031179 -0.0031016 0.0030931 0.0085989 0.0037354 0.0092866 -0.0086967 -0.00091925 -0.0047309 -0.0066959 -0.0060338 -0.0018693 0.0087185 0.0076633 0.0067012 -0.0025662 0.0084711 0.0028505 0.0018776 -0.00086101 -0.0090391 0.0048642 -0.0079578 -0.00048125 0.0053091 -0.010674 0.0068067 -0.0015074 0.0080645 -0.0093925 -0.0042308 -0.0013784 -0.0056148 0.0096224 0.0018996 0.006362 
주문이요 0.0021147 -0.0081926 0.0042942 0.0086283 -0.0066706 0.0029618 0.0054543 0.0032512 0.011535 -0.00043449 -0.0053217 0.0018518 0.0051537 0.0069366 0.0024976 0.0063283 0.0026112 -0.0047993 0.0068597 -0.0051658 -0.0094281 -0.00073449 0.0071496 0.0008111 0.0040577 -0.0057896 -0.0023174 0.0014176 -0.0054298 -0.0054388 -0.0022972 -0.0031642 -0.0057664 0.0024283 -0.010857 -0.0056765 0.0088836 0.0047844 0.0069382 0.0087683 -0.0075216 0.0038364 0.00093072 0.0086821 0.0060844 0.0067617 -0.0041328 0.00034916 0.0031938 0.009326 0.0029956 -0.0054561 -0.010212 0.0010371 -0.0066074 -0.0041568 0.007715 -0.0026461 -0.0034866 0.006185 -0.009984 0.0031265 -0.0025492 0.0063803 -0.0095156 -0.0031741 0.0019828 0.0031662 -0.0016934 -0.0062969 -0.010636 0.010036 0.0069186 0.0088399 -0.0072807 0.0076326 0.0080764 0.00081106 0.00067253 -0.0088431 0.0065246 0.0083822 -0.0027428 -0.0086569 0.0043378 0.00046382 -0.0030542 0.0094392 -0.001988 -0.010283 0.0063617 0.0091523 0.0069246 0.00063776 -0.0086391 -0.0072814 -0.0025088 -0.0080255 -0.0080556 -0.0045239 
! 0.0029792 0.0086314 -0.0039407 -0.0091374 0.0031404 0.0060882 -0.010039 0.0021137 -0.0047092 -0.0036308 -0.0025904 0.0091786 -0.0011694 0.0087412 -0.0051086 0.0054312 0.0048025 0.0016621 0.0094925 -0.0064714 0.0091043 -0.0073161 0.01009 -0.00069323 -0.00040766 -0.0058327 0.0060719 -0.0049344 -0.0087033 0.0026371 0.0089114 0.0076868 -0.00032491 0.0078736 -0.0017071 -0.0099747 -0.0047684 -0.0034285 -0.0087266 0.003929 0.0056336 0.011021 -0.0025915 -9.16e-05 0.0033883 -0.0073629 0.005251 0.0024365 -0.00041557 -0.0077124 -0.0032205 0.0076018 0.0028217 -0.0056236 -0.0065799 -0.0041977 -0.0028028 -0.0076236 0.00045226 -0.00093092 -0.0066569 0.00082024 0.0058747 0.0021152 -0.0099586 -0.0096947 0.0041588 0.00081718 0.0067524 0.0036826 -0.010436 0.00032819 -2.927e-05 1.4202e-05 -0.0053223 0.0049016 -0.0075545 0.0039468 0.0019155 0.0019139 2.5206e-05 -0.0042347 0.0035067 -0.0085028 0.0034743 0.0078115 0.00018369 0.00065839 -0.0046891 -0.0080061 0.0086307 -0.0046987 -0.0050699 -0.0065863 0.0093107 -0.011596 0.0015945 0.0029199 0.0074228 -0.006256 
주문부탁드립니다 -0.0029728 0.0073251 0.0073502 0.0058169 -0.0074368 0.0072865 -5.0369e-05 0.002553 0.0103 0.0060501 -0.0011653 -0.0030358 0.00064367 0.0025233 -0.008206 0.0087783 0.006533 0.0072615 -0.007225 0.0056556 -0.00093476 0.01088 -0.0089729 -0.002218 0.0010896 0.0029166 0.0064043 0.0068965 -0.0094649 -0.0026408 0.0057141 -0.00077957 0.0085375 0.0016656 0.0021838 0.0066189 0.0069883 0.0077481 -0.0062551 0.0044884 -0.0081594 0.0029247 -0.0094257 0.0024885 0.0064924 0.00025012 0.01023 -0.0051197 -0.0067798 -0.0073265 0.0078405 0.01049 0.0033169 0.0089561 -0.0034419 -0.0096152 -0.0048712 0.0082285 0.0089121 0.0020258 -0.0040785 0.0012496 -0.0045233 0.0065426 0.0032287 -0.0092362 0.0084109 0.0018339 0.0075642 0.0025702 0.0028531 -0.002138 -0.0078179 -0.0085575 0.00061253 -0.0038813 0.0017686 -0.0078084 -0.0015642 -0.0023534 -0.0030627 0.0044594 -0.0013588 0.000681 -0.009778 -0.0012742 0.0098671 -0.0025998 -0.00053849 -0.0088185 -0.003126 -0.0085837 0.00024998 -0.0094 0.0051624 0.0018451 0.00084703 0.002186 0.0043916 -0.0097159 
있을까요 -0.005233 0.0054923 -0.0026908 0.0078224 -0.0015156 0.0093748 -0.0058778 -0.0056906 0.0053198 -0.0062217 -0.0018021 -0.0058879 0.003434 0.010182 -0.0087614 0.0082386 0.007376 -0.0082162 -0.0081602 0.0035962 -0.0013993 0.0035517 -0.0059837 0.00044797 -0.008994 -0.0057132 -0.0093377 0.0025662 0.0012486 -0.0035253 0.0051427 -0.0096126 0.0065164 0.0058943 0.0061885 -0.0095017 0.0077388 0.0066406 -0.005361 0.0023435 -0.0079235 -0.0068838 -0.0022079 0.0050487 0.0028543 0.0084314 0.0065134 0.0025798 0.0074405 -0.009328 0.0083588 0.0057296 -0.0039045 -0.0038248 -0.0080404 -0.0057098 -0.0042354 0.0043114 -0.0012363 0.0071442 0.0074029 0.0096744 -0.003021 -0.0035969 -0.0050674 -0.0026722 -0.0079635 -0.0016015 -0.0065921 -0.0096331 0.0036443 0.0053951 -0.0024691 0.00099833 0.00022757 -0.0010802 -0.00022006 -0.0085681 -0.0037976 0.005358 -0.00012565 -0.0050029 -0.0044905 0.0069286 0.0064569 0.0083896 0.0008705 0.0076455 -0.0059652 0.0080952 -0.0021849 -0.0040509 0.0097011 -0.003619 0.0033011 0.0049932 0.010017 0.0066567 0.0052891 0.0074216 
있어 0.0056392 0.0029755 -0.0097598 0.0014682 0.0053828 0.0019354 -0.0047807 -0.0056985 0.0034672 0.0084099 -0.0081703 0.0027387 -0.001337 0.0017298 0.0015513 0.0082572 -0.0037408 0.0051887 0.004177 0.00059525 0.0037492 0.0019909 0.0010785 -0.0040558 0.0070033 -0.001788 0.006157 -0.0041062 -0.0073629 0.010161 -0.0022503 -0.00055749 0.0028353 0.0072601 -0.0049457 0.0047674 0.0019244 -0.00053085 -0.0027611 0.0024442 -0.0019137 -0.0057135 0.0032814 -0.0059792 -0.0038704 -0.0091794 -0.0057941 -0.0036589 -0.0074059 0.0010894 0.0072194 -0.0038916 0.0054648 -0.0083689 0.0036526 0.0075718 0.0097086 -0.0039142 0.0093178 -0.0035773 0.0033871 -0.0023095 -0.0022032 0.0087267 -0.004935 0.0025432 0.0058798 -0.0022746 0.0097389 0.0097879 -0.0071375 0.006228 -0.0028363 0.0037326 -0.0082799 -0.0096399 -0.0045091 0.0069316 0.00065538 0.0033372 -0.0036492 -0.0021116 -0.0070443 -0.0071497 -0.0019561 0.0064453 0.0032073 0.0050959 -0.0049915 0.0035859 0.010537 0.0012241 0.00096181 -0.0041896 0.0061023 -0.010668 -0.0034133 -0.0074983 -7.3911e-05 0.005084 
주문해줘 0.0044955 -0.0034567 0.0016857 0.0053223 -0.004858 -0.0076505 -0.0085113 -0.0033404 0.012781 -0.0023653 -0.0072818 0.010131 -0.0069935 -0.0069532 -0.010628 0.0095116 0.0023737 -0.0076905 -0.0087022 0.0053928 0.0029697 0.0042654 0.00050933 -0.0039315 0.0034725 -0.00034397 0.0041604 -0.012585 -0.010257 0.0025904 0.0072218 -0.0036827 -0.010742 -0.0070136 -0.014488 -0.005561 -0.0085239 -0.010898 0.0033546 0.001077 -0.00605 0.0089742 0.0037783 -0.00074439 -0.0089843 0.0078169 -0.0030965 -0.0096 -0.0065177 -0.0042239 -0.0073698 -0.0010828 0.0069198 0.0087236 0.00091886 0.0069517 -0.007073 -0.00041533 0.0030658 0.0011541 0.0054098 -0.006879 0.0038793 0.0043844 -0.012529 -0.0093971 0.0051367 0.0050405 0.004333 -0.0034732 -0.010398 0.0066477 4.756e-05 0.0058895 0.0017329 0.0026555 0.0048219 0.0082215 -0.00080717 -0.002939 -0.0043386 -0.005975 0.0022005 -0.0027022 -0.0058351 0.003064 -0.0041772 -0.00058476 -0.0083309 -0.011416 -0.0066439 -0.0069221 -0.0049911 0.0007184 0.00076884 -0.013319 -0.0047112 0.0034761 -0.0088253 -0.001337 
해줄 0.0010472 -0.00026746 0.0014679 0.0081104 0.004378 0.0048334 -0.0010113 -0.006597 0.0021143 0.004085 0.0027303 0.001499 -0.0026579 -0.0030867 0.0003126 -0.0069027 -0.0052537 0.0095461 0.0019127 -0.0043638 -0.0020131 -0.0028895 -0.0059663 0.0084879 -0.0072794 -0.0066197 -0.0055532 -0.010914 -0.0025611 -0.0061342 -0.0096931 0.00082679 0.0062583 0.0059411 -0.0074154 0.000423 0.00027111 -0.0020655 -0.0003622 0.0061069 -0.0014887 0.0085909 -0.0039442 0.0065348 -0.0094441 -0.0010291 0.0015311 0.0046742 0.0094261 0.0097893 -0.010438 0.0040355 0.00028485 0.0066177 0.0054605 -0.0084405 0.00020875 -0.0081339 0.0073808 -0.00070596 0.0056455 -0.0037999 0.010303 -0.00028319 0.0064704 -0.0027557 -0.00235 0.0089821 -0.0047574 0.001794 -0.010233 -0.0086188 0.0081851 -0.0011018 0.00061747 0.003121 0.010105 -0.0081121 0.010448 0.0019779 -0.0017957 0.0025036 0.0095597 0.00086618 0.003202 -0.001302 0.0081032 0.00644 -0.0055759 -0.0033797 0.0051117 -0.0089433 0.01041 0.006965 -0.00070788 -0.010206 0.001325 0.0028611 -0.004935 0.0066697 
있어? -0.0056505 -0.0078185 -0.002802 0.00033177 0.0095693 0.0084747 0.0073754 0.00047098 0.0037112 0.011026 -0.004083 0.0057407 -0.0071576 -0.0014138 -0.010147 -0.0081059 0.00048934 -0.0091568 0.0006948 -0.0057359 -0.0023898 0.0047804 0.0044842 -0.00060213 0.0044679 0.004717 -0.0028286 0.00050765 -0.0036005 0.0099264 -0.0017369 0.0081506 -0.010141 -0.0056049 0.006385 -0.0048213 -0.0071461 -0.0064294 0.0068608 -0.0077789 -0.0081685 0.001099 -0.0024154 0.0078491 0.00097277 -0.0018389 -0.0055375 -0.0067401 0.0067062 0.0057051 0.0078393 -0.0062311 0.001238 0.0047582 -0.0094505 -0.0082447 -0.0084897 0.0011268 -0.0060975 0.0095853 0.0092095 0.009906 -0.0017754 -0.0081253 -0.0024388 0.0031285 -0.0024756 -0.0058613 -0.0085921 0.0089863 0.0086593 -0.0050689 -0.0088248 -0.0023838 -0.0040264 0.0097773 0.010098 -0.0051388 -0.0085751 0.0058255 0.0088803 0.0095906 0.0090068 0.0080193 0.0040153 -0.00091239 -0.008361 -0.0017038 0.0087402 -0.0089962 -0.0039834 -0.0014278 0.004223 0.0079238 0.0058534 0.00053268 -0.0095983 0.0044246 0.0024438 -0.006913 
주문하고 -0.002666 0.010664 0.0072919 0.0043121 -0.0022974 -0.0054239 -0.0023683 0.0062444 -0.0022669 0.0040086 -0.0027322 0.0035798 0.0017266 -0.0035372 0.0041062 0.0046345 0.0071394 -0.001529 -0.00051705 -0.00016456 0.0025979 0.0054316 -0.0038728 -0.0021702 0.00092029 -0.0065466 0.0053813 0.0015016 -0.0016412 0.0051875 -0.00050988 0.0009137 0.0077329 0.0037817 0.001333 -0.0074321 -0.0023028 -0.0058525 0.00079411 -0.010018 0.0082968 0.0087529 -0.0011727 -0.0027024 -0.0043446 0.00039742 0.0082437 -0.0014935 0.0033977 0.0036386 0.0063656 -0.0061517 0.0081078 0.0067942 -0.0053944 0.0064247 -0.0058204 -0.0083194 0.0036929 0.00093288 0.0039757 0.0033722 -0.0078783 0.01037 0.0067751 -0.0073382 -0.0067358 0.0059628 -0.0045995 -0.0059552 0.0036224 0.010937 -0.008548 0.0040984 -0.0052883 -0.0010783 0.011231 0.0088021 -0.0055241 0.0046593 -0.0073446 -0.0055546 0.00095879 0.0028972 0.0035968 -0.0017617 0.0026862 0.0010601 -0.0094055 0.0082179 0.00084575 -0.00015043 0.010171 0.0028701 -0.0081057 0.0051378 -0.0090553 -0.0078118 0.0060313 -0.0094082 
해도 -0.0020126 0.00948 -0.0074544 -0.0079766 -0.0027277 0.0070947 0.0016801 0.00089092 0.0013738 0.0042956 0.0034544 0.0074713 -0.0076674 0.0036036 0.0064308 -0.0055935 -0.0041828 -0.00074521 0.0035479 -0.0012028 -0.0074373 0.0030925 0.0048066 0.0053629 0.00031375 -0.0032242 0.0092356 -0.00061958 -0.0010342 0.008559 -0.0076698 0.010066 -0.00025212 -0.005916 0.007061 0.0019494 -0.0030447 -0.00057581 0.0040967 -0.003306 0.0053817 0.0062611 0.0022832 0.0083925 0.0016953 -0.0050282 -0.0043684 0.0041952 -0.0045568 -0.0025423 0.0034825 0.0050279 -0.0052787 -0.0017874 -0.0077631 -0.00067521 -0.0087328 0.0023421 -0.0030581 0.0068741 0.0029429 -0.006163 0.0052557 -0.00015484 -0.01016 0.005699 0.0043703 -0.0070153 -0.00044935 0.0040242 0.0029372 -0.0083119 -0.0057821 0.0019955 0.0032718 -0.0046023 -0.0039151 0.010026 -0.0073391 -0.0096981 -0.0046917 0.0051882 0.0024391 0.00072935 0.0066187 -0.00091193 0.0095945 0.0063644 0.0040369 -0.010573 0.0095481 -0.00058236 -0.00052177 0.0057946 -0.0047915 0.008248 0.0060667 -0.0082656 0.00512 0.0039251 
돼 -0.0036868 -0.0092799 0.0064963 -0.0056137 -0.0053583 -0.0087194 -0.0061727 -0.0038197 -0.0070658 0.006089 0.0015697 -0.0084052 0.008749 0.0031827 0.0053122 -0.0091005 -0.0057599 0.0055649 -0.0087367 0.0077624 0.00030271 0.0083527 -0.0043919 -0.007288 0.0028859 0.00064037 -0.0029867 0.0018976 0.0060048 0.00068324 -0.0095292 0.0067982 0.0029298 0.0071646 0.0083306 0.00037698 0.0022747 0.004404 0.0077457 0.0080454 -0.0034561 0.0029505 -0.007461 -0.0036311 -0.0007779 -0.0046287 0.0030727 0.0037036 0.0087552 -0.0033038 0.0068763 -0.0047273 -0.00032422 -0.0039329 -0.0055734 0.0040441 -0.0032351 0.0023775 0.0080674 0.0056348 0.0074722 0.0026075 -0.0015735 -0.0037248 0.0052901 0.0058211 0.0071834 0.00077267 -0.0065519 -0.0048302 0.0031646 -0.00094332 0.0053396 5.4191e-05 0.0002529 0.00020818 0.0039255 -0.0066476 0.010115 -0.0097357 -0.00712 -0.0064313 0.0045909 -0.0045917 0.0080423 -0.0031731 -0.0085503 0.0024408 -0.006592 -0.0071333 -0.0037752 -0.0064106 0.0073566 -0.0090691 -0.0043103 0.0081988 -0.0038242 -0.007133 -0.0049681 -0.0099594 
시켜줘 -0.0061579 -0.0081124 -0.0052633 -0.0034322 -0.0077438 -0.006217 0.0048562 0.0034222 0.011732 -0.00123 -0.0047274 0.00058488 -0.0047678 -0.0049563 -0.0066776 -0.0052121 -0.009066 -0.00012526 -0.0073732 -0.0056607 -0.006326 -0.0050905 -0.0067751 0.0048205 0.00014048 -0.0066748 0.0061646 -0.0042215 -0.0045079 0.010736 0.007145 -0.0043715 -0.0024548 -0.0069496 -0.0073972 0.0014643 -0.0062644 -0.0081913 0.0042897 0.0084973 0.0020324 -0.0012301 0.0099561 -0.005957 0.0036861 -0.0016409 0.0043649 -0.010411 -0.0052229 -0.0068335 0.0071317 0.0029776 -0.0019003 -0.0081141 -0.0032611 -0.0023628 -0.00059206 0.00409 0.0077095 -0.0010592 -0.010589 0.0010654 -0.0026113 0.0044264 -0.011109 0.0031491 -0.0069626 0.0085109 -0.0080898 -0.0074502 -0.0029922 0.011307 0.0084131 -0.0010398 0.0017264 -0.0065846 0.0018262 0.00072287 0.0032311 -0.0090704 0.0079979 0.0046154 -0.0048236 0.006572 0.003855 0.0044003 -0.0050325 0.0064677 -0.01073 0.0046027 0.0064786 -0.0059944 0.00097702 -0.011964 -0.0039145 0.0054485 -0.0040841 0.011967 -0.010369 0.0091069 
시켜 0.0065264 -0.0027497 -0.0085439 0.0052582 0.0090957 0.0042027 0.0028195 -0.006296 -0.0038441 -0.0033801 -0.00035092 0.0069921 -0.0079341 -0.0021664 -0.0096666 0.0070329 -0.0093417 0.0038409 0.0050882 0.0080915 0.0042697 0.010108 -0.003118 -0.0094487 -0.0066189 0.0018223 0.0093231 0.0033464 0.0070693 0.0035308 0.0082321 0.0062929 -0.00058412 -0.0050047 -0.003051 0.0031942 0.003801 -0.0011034 0.003077 -0.007073 0.0023237 0.0065171 -0.00065227 0.0068432 -0.0083997 -0.0074692 -0.0026023 -0.0057661 -0.004644 -0.007407 -0.0014216 0.0024869 -0.0074569 -0.0031108 0.0049336 -0.010825 -0.003538 0.0098941 0.00045528 0.0026145 0.0058829 -0.0025258 0.0061206 -0.00028948 0.0031661 0.0029584 -0.0080196 0.0021459 0.008765 -0.0026301 0.0063503 0.0051936 0.0083754 0.0042126 -0.010631 -0.0089081 0.012131 0.0064296 0.0082478 0.0038001 -0.0031482 0.0019207 0.0078388 0.0054921 -0.0056891 0.0032752 0.0019179 -0.00028944 0.0058461 -0.00074161 -0.008158 -0.0090207 -0.0044359 -0.011052 0.0033855 -0.007341 0.00040947 -0.0031757 0.0028594 -0.0024551 
시켜줄래 1.1021e-05 -0.0018742 0.0032966 -0.00029355 0.0060982 0.0021675 0.0060926 -0.0082823 -0.0045222 0.0053986 0.0068389 0.00012092 -0.0032243 0.0020232 0.0086113 0.00048229 -0.0080823 -0.0054635 -0.0067467 -0.0057351 0.0073216 0.0059362 -0.0027293 -0.0059141 0.0049736 0.0038706 -0.0038853 -0.009406 0.0032604 0.0050143 0.0065478 0.0041043 -0.00903 0.0048072 -0.0082866 -0.0086378 -0.0073104 0.0090063 0.0028786 -0.01014 -0.0048683 -0.0040583 0.0018251 0.0036362 -0.0048034 0.003002 0.0049881 0.0063945 -0.00021197 0.0011664 0.0084193 -0.0018973 -0.0042852 -1.1806e-05 -0.0082443 0.0059945 -0.004818 -0.0042609 0.0079972 0.0085638 -0.0092623 -0.0019263 0.0011366 0.0039189 -0.0053539 -0.0011011 0.0040595 0.0022845 -0.0086601 0.0036978 -0.0079629 -0.0028559 0.0093188 0.0021733 -0.0076956 -0.0060018 0.0047917 -0.0065847 0.01072 -0.011276 0.00098147 -0.0057461 -0.00062805 -0.010498 -0.0061075 -0.0087336 -0.0035484 0.0026383 0.0068685 -0.006297 -0.0059865 -0.0045749 0.00919 0.0015589 -0.0039217 -0.0070418 -0.0047711 0.010677 -0.0084758 -0.0037648 
피자좀 0.008178 -0.005356 -0.0017828 -0.0057113 0.010003 -0.0023921 -0.00047354 0.0071516 0.0025581 -0.0010303 0.0077944 0.0089415 0.0082728 -0.0031063 -0.00017366 0.008612 0.008164 -0.0049243 0.0059705 -0.0057826 0.0030567 0.0014603 0.0024952 0.0013811 -0.008197 -0.00020664 -0.00025544 -0.0031582 0.0067515 0.0058946 -0.0057322 0.0029732 -0.011512 0.0069169 -0.0022154 -7.6138e-05 0.0035685 -0.0071773 -0.0068843 0.0092034 0.005003 0.0047991 0.0081364 -0.0076402 -0.0063515 0.0067305 0.0075238 -0.00019683 -0.0071696 0.0076701 -0.0016091 -0.001517 -0.0068875 0.002567 -0.010143 -0.0050605 0.0039243 0.0082608 0.003866 0.0068679 -0.0030291 0.0065244 -0.00090067 0.00044643 0.00277 0.0017734 -0.0085194 0.009213 0.009281 4.1788e-05 -0.0091322 -0.0080684 0.0044228 -0.0039097 -0.0026633 -0.009818 -0.0048469 0.011632 0.0089176 0.0018416 0.00037012 -0.0068151 -0.002414 -0.0045977 0.0058813 0.0041166 -0.00035059 0.0049356 -0.0045115 -0.002377 -0.0082525 -0.004363 0.0036791 -0.0032017 0.0026822 -0.0075964 -0.005066 0.0045861 -0.0082939 -0.0013072 
.. 0.0066062 -0.0040003 0.0032449 -0.003395 0.0045674 0.0097907 -0.0021685 0.0031886 0.0022736 0.0064917 -0.0071339 0.0018626 0.0043193 0.0093868 0.0034313 0.0090694 0.0052061 -0.007978 -0.0044409 0.0052438 -0.00030148 -0.006929 -0.0037268 0.0040028 0.0068675 -0.0063707 -0.0058271 -0.0049744 0.0017474 0.00059712 0.0045515 -0.0070085 0.00075316 0.0073939 -0.0092713 -0.0070147 0.0077249 0.00097849 -0.005239 -0.0090264 -0.0076459 0.011404 -0.0038371 -0.0050948 0.0066691 -0.0076037 -0.0075821 -0.005879 0.0076968 0.0083328 0.0035134 0.010378 0.0008076 -0.0027118 -0.0097664 0.0044538 -0.0073594 0.0052108 -0.0055245 -0.00099295 -0.0018627 -0.0023902 0.0070375 -0.00034849 -0.0080068 -0.0086163 0.0060122 0.0092005 -0.0028662 -0.0034985 -0.0065183 -0.0078946 0.0030312 -0.002442 0.0088107 0.010018 0.0097258 -0.0011995 0.006185 -7.3195e-05 0.0046773 -0.0067782 -0.0041542 0.0024968 -0.0068779 0.0031029 0.0087097 0.0044067 0.002199 -0.0030735 -0.0039184 -0.0024494 0.011885 -0.0039618 0.0054961 0.0028813 -0.0059521 0.0083288 -0.0080286 -0.0078719 
ㅍㅈ 0.005313 -0.0060503 0.0061973 -0.0074519 0.01062 0.010433 -0.0050771 0.005795 0.010226 0.01431 0.0033782 -0.00090455 0.0014751 -0.00037097 -0.0067477 0.0055685 0.0060354 -0.0094588 -0.0090247 0.004734 -0.0040011 -0.0022886 0.0074974 -0.0071391 -0.00037181 -0.0076359 0.0028465 -0.0046662 -0.011558 0.0061325 0.0038009 0.0029485 -0.0084031 -0.0031844 -0.0040672 0.0015289 -0.0075421 -0.010541 -0.0045695 0.0013099 -0.00060581 -0.0022055 -0.0010273 -0.0054798 -0.0021757 0.010394 0.0052068 -0.0029685 0.0063481 0.011519 0.0068326 0.010256 -0.0076137 0.0074839 -0.00042733 -0.0044105 -0.0073448 8.7336e-05 -0.00067745 -0.0097604 0.0024822 0.0057319 0.012704 -0.0074917 0.0049394 -0.0077892 -0.012065 0.0062276 0.0019209 -0.0081969 -0.00013245 0.00028876 -0.0086162 0.0045749 -0.0008143 0.0072473 0.0023514 -0.0039142 0.005697 0.0063736 0.0077507 0.0096287 0.0027112 -0.011706 -0.0043865 -0.011054 0.0093697 -0.0064861 -0.0035242 -0.0062657 0.0034956 -0.0083739 -0.00066218 0.0002215 0.0027569 -0.0062606 0.0082415 -7.4451e-05 -0.011129 0.0055607 
가져와 0.0015378 0.0063495 0.0039298 -0.0035974 -0.0045656 0.010365 0.0025835 0.002426 -0.00033375 0.004291 -0.0019034 0.0079068 -0.00931 0.0043792 -0.01098 0.0068739 0.007166 -0.0037204 -0.0040044 -0.0075103 0.0085386 0.0077164 -0.0045411 0.0016507 0.0087196 -0.0017139 -0.0079612 -0.006577 -0.0023067 -0.0053953 -0.00017626 -0.0059947 -0.001991 -0.0047875 -0.0087827 -0.0023801 0.0060755 0.0036068 -0.0067126 -0.00094879 0.0065593 0.010071 -0.00096268 0.0082719 0.0053886 0.0070111 -0.0076356 -0.0073432 -0.0094243 0.0023734 0.0031928 -0.0080867 -0.0082023 0.0013177 -0.00018809 -0.0048926 -0.0066424 0.0022064 0.0073001 0.004439 0.0044017 0.01099 0.005695 0.0023144 0.0038823 0.00022007 0.0019858 -0.0023786 0.0075016 -0.0034269 -0.0018342 -0.0035654 -0.0071172 0.0055153 -0.0020416 0.0067664 0.0092526 -0.004331 0.0058981 -0.00076667 -0.0093445 -0.0068099 -0.0040882 -0.0083005 0.0053216 -0.0030989 0.0086339 -0.0034029 -0.0067796 0.0020734 -0.0065923 2.2262e-05 0.004096 -0.0029584 0.0031302 -0.0064473 -0.002172 0.011795 0.0064052 0.0027015 
내놔 0.00024529 0.0025609 -0.0093603 -0.010137 0.0024253 0.0032395 -0.00078565 -0.0042808 0.0077509 -0.001801 0.004096 0.0083899 -0.00010152 0.006738 -0.010578 -0.0052247 -0.0089509 -0.0090349 -0.00060095 0.0052662 0.0088798 0.0030676 0.0092428 -0.0041387 -0.0016484 -0.011685 -0.0013584 -0.00062994 -0.0031627 0.0078014 -0.0084082 0.0080771 -0.010453 0.002776 -0.00658 -0.0054258 0.0027668 0.00047003 -0.0078784 0.0045651 -0.00018777 -0.0052179 0.005746 -0.0019847 -0.0022003 -0.0045391 0.0049498 -0.0022104 -0.0004345 0.010629 -0.0063248 -0.0033006 0.0076079 -0.0094621 -0.011374 -0.0061204 0.0015209 0.0056562 -0.0075136 -0.0027769 0.0032997 0.006727 0.0020851 -0.0026094 -0.005615 0.0089103 -0.0040782 5.2465e-05 0.0051668 -0.001105 0.0038452 0.011237 -0.00066395 0.0042296 -0.0059708 -0.0025748 0.0060928 -0.0010477 -0.0035882 -0.011515 0.0062132 0.0044771 0.0067058 -0.0076897 0.0045239 0.00015309 0.0014681 -0.0081642 -0.0030653 0.00079555 0.0066237 -0.0034162 0.012279 -0.0032933 -0.0027392 -0.0018942 -0.0071132 0.0053381 -0.0042619 -0.00894 
얼마예요 -0.0043666 -0.0026421 0.004958 -0.0064469 0.00719 0.0046121 -0.0046903 -0.0018216 -0.00071164 0.0068572 0.0090823 0.0079819 -0.0080312 -0.0042752 0.0077772 -0.0055512 -0.00075076 0.0040356 -0.0048371 -0.0050785 0.0081387 -0.0051001 0.001889 -0.0072109 0.00043761 0.0056516 0.005901 0.010532 -0.0018672 0.0089408 0.0038209 0.0097546 -0.0045524 0.0094015 0.0045103 0.0014683 0.0093788 0.0064592 -0.0070954 -0.0092672 -0.0042007 0.005884 -0.0074127 -0.0019275 0.0074781 -0.00078975 0.0021541 0.004616 0.00090054 -0.00085948 -0.0056361 0.004182 -0.0019752 -0.0031323 0.0039394 0.0047156 0.0099934 -0.0054953 0.0094007 -0.0023168 -0.0093654 0.0045191 0.0035811 0.0022676 0.0080573 -0.0062291 -0.0007572 0.0049648 0.007357 -0.0086257 0.0012135 -0.0066351 -0.0036283 -0.0021699 -0.0047949 -0.00902 -0.010544 0.0043144 8.5249e-05 0.006433 0.0034128 0.0048442 -0.0039384 -0.0071768 0.0082561 -0.0050986 0.0082186 0.0048608 -0.0071961 0.0039257 -0.0097937 0.0027055 -0.0044127 0.0087382 -0.0048251 -0.0085095 -0.0021789 -0.0023118 0.0097422 0.0036444 
얼마 0.0096934 -0.0027396 0.00065599 0.0051539 0.0011852 0.0038097 0.0026275 0.0043426 0.0055649 -0.0050921 0.0043923 0.0055832 -0.0071867 0.0051622 -0.0064524 0.0040408 -0.0027359 0.005983 0.0015876 0.009878 0.0014895 0.0055585 0.00095575 -0.0029753 -0.0087008 0.0072819 -0.010515 0.0028511 0.003343 0.0023902 -0.0069404 0.008951 -0.0016696 0.00010466 -0.00050906 -0.0050578 0.0035374 -0.0091546 -0.00039346 0.0074473 -0.0067696 -0.0088092 0.0086596 0.0032221 -0.009901 -0.0039198 -0.0057317 0.0010872 -0.0077841 0.0016107 0.0057067 -0.0090689 0.0058553 0.0032917 -0.00020014 -0.0093709 -0.003447 0.0030987 -0.0052158 0.0027423 0.0024569 0.0028756 -0.0057549 -0.0083725 -0.0071793 -0.0028197 -0.0031709 0.0036484 0.0058997 0.0065724 0.0022841 0.0050412 0.0032562 0.0050654 -0.0093415 -0.0091512 0.0082828 0.0083013 0.00069631 0.0030971 -0.0091435 -0.0056953 -0.0068352 0.0039403 -0.0015309 0.010541 0.0062275 -0.0084606 0.001732 -0.0049874 -0.001969 -0.0074102 -0.0049415 -0.00425 0.0051103 -0.0069429 -0.0056227 -0.0012797 0.0035524 0.0078064 
이건 0.00028978 -0.00053479 -0.00013803 -0.0035319 0.0078793 -0.0073193 0.0030826 0.0080989 -0.0075685 -0.0046447 -0.0088736 0.0079778 0.0014044 -0.0097828 0.0093852 -0.0095644 -0.0057676 -0.0092684 0.0062845 0.005838 0.0065912 0.00050437 0.0032511 0.0092105 0.0013469 -0.0032084 0.0021705 -0.0027359 0.0074724 -0.0088009 0.010004 0.0048293 0.00066783 0.0040322 -0.0031569 -0.0024901 5.5536e-05 -0.0036813 0.0012266 0.0026582 0.0010157 -0.0043168 -0.0016526 -0.0066743 0.0035644 0.00086609 0.0022832 -0.0063608 0.010106 0.0073971 -0.0075827 0.00057154 -0.0046351 -0.0070355 0.0060119 -0.0096315 0.0020353 0.0073524 -0.00064269 -0.00067549 0.00058286 -0.0082971 0.0091104 -0.0075507 0.0013324 0.0036955 0.003451 -0.0076981 0.006578 -0.0074508 -0.0066644 -0.0086905 8.9602e-05 0.0081547 -0.0096406 0.00097073 -0.0031867 0.0052697 -0.006257 0.0070737 0.0059053 -0.0067275 -0.0042641 0.00021323 -0.005436 -0.0063855 -0.0051191 -0.0033893 -0.0073278 0.0060004 0.00081743 -0.0072299 0.0060809 -0.0068006 -0.0039668 0.003545 -0.003217 -0.009023 -0.0085093 -0.0011577 
얼마야 -0.0088454 0.00037405 0.008103 0.002497 0.0017604 0.0081523 -0.0047592 -0.0034257 0.00852 -0.0016557 0.0051525 -0.0013349 0.0055497 -0.0011187 -0.0092393 0.0055386 -0.0017914 -0.0087824 0.0067408 0.00092934 -0.0027891 0.0087077 0.006823 -0.0043904 -0.0089232 0.0084127 0.0076344 0.0035112 -0.0087211 -0.0031164 0.0076559 0.0055454 -0.0051622 -0.008373 0.0017306 5.1981e-05 0.0073068 -0.0010637 0.0035824 -0.0079911 -0.0015251 -0.0051317 -0.0052682 -0.006081 0.0049332 -0.0075743 0.0098186 0.0048646 -0.0083492 -0.0019408 -0.0049037 -0.0056729 -0.00077001 0.0089755 5.3675e-05 0.0025616 -0.0083325 -0.0086871 0.0074733 -0.010021 -0.0088467 -0.0042254 -0.0058441 0.0037573 -0.0076703 -5.5803e-06 -0.0025449 -0.0029433 0.0043508 -0.0064785 0.0093568 0.00024422 0.0038477 0.0029884 -0.0079196 -0.0090267 -0.0034951 -0.0091063 0.0064139 0.0038681 0.0076797 0.0083468 0.0057281 -0.0073392 -0.0072629 0.002463 -0.0083393 0.0013871 0.00041464 0.010724 0.0036391 -0.0059456 -0.0039358 -0.0086965 0.0038067 0.0036443 -0.0010185 0.0058137 0.0076029 0.0035812 
가격은 -0.0023388 -0.0017423 0.0027686 0.0023914 -0.00010378 0.0052029 -0.0050911 -0.0090726 -0.010079 -0.0022761 0.0014169 -0.0097498 -0.0010614 -0.0078121 -0.00030709 -0.010467 -0.0068042 0.0016984 0.0050946 0.0031623 -0.0021919 -0.004748 0.0058584 0.0014882 0.0074707 -0.0059637 -0.0064344 -0.0082126 0.0076186 -0.010414 -0.003772 -0.0072051 -0.0075187 -0.0059632 -0.0067026 0.00075015 0.0022601 -0.0079147 -0.005244 0.00056873 -0.0067988 -0.0049411 -0.010297 0.0093777 -0.0037133 -0.008935 0.0096495 -0.0004007 0.0030716 0.0013823 0.0082861 -0.0075194 0.008927 -0.0017038 -0.0077 -0.0066013 0.0039697 0.0078767 -0.0085183 -0.0021442 -0.0097187 0.001502 -0.001255 0.0057926 -0.0066577 0.009576 -0.0074413 0.005857 -0.0061661 0.0043883 -0.0022477 -0.0039121 0.0030573 -0.0064303 -0.00044951 -0.0074487 0.0054135 0.0063075 -0.0055077 0.0089394 -0.0013813 -0.0067088 -0.004014 -0.0092088 -0.0063023 -0.0076562 -0.010034 0.0033747 0.0096367 -0.0057922 0.0052607 -0.0081205 0.0086088 -0.004936 0.006659 -0.0062831 -0.0070005 -0.010045 -0.0050655 -0.0045146 
알려주세요 -0.0060156 -0.0094348 0.0028622 -0.0053841 -0.0065605 -0.0065972 0.00057923 -0.0069283 0.00090603 0.0065329 0.0034345 -0.0048397 0.0080947 0.0065305 -0.0066411 -0.0026462 0.0055591 -0.0033976 0.0058144 -0.0062693 0.0091172 0.0016822 -0.0018869 0.0053389 -0.0072076 0.006173 -2.9295e-05 0.0024267 -0.0069419 -0.003464 0.0076383 -0.0069025 -0.0064015 0.0047457 0.0095149 -0.0086023 0.0024976 0.0042035 -0.010076 -0.0075229 -0.010471 -0.0033442 0.0055772 0.0026127 -0.0096371 -0.0082638 -0.005225 0.001714 0.0085371 0.003521 -0.0061922 0.0043806 -0.00064125 0.0097656 0.004704 -0.0080314 -0.0063256 0.00023083 -0.0004488 -0.0084541 -0.00095072 0.0027759 -0.0041275 0.0050716 -0.0036006 -0.00056812 0.010545 -0.0011607 0.0043046 -0.0057237 -0.0088998 0.0050656 0.0040956 -0.0036131 -0.0084896 -0.0032964 -0.0058001 0.0028873 -0.0042867 -0.0052993 0.00087634 0.0061465 -0.0048752 0.0038945 -0.0010079 -0.0048452 -0.0032251 -0.0071845 0.0067629 -0.0016602 0.0033289 0.0080033 0.0029844 0.010676 0.00058697 -0.0022746 -0.00025657 0.0077416 0.0039128 0.0037921 
가능한가요 0.0016252 -0.0059143 -0.0055508 0.0020374 -0.0068502 -0.0060778 -0.0010161 0.0013591 0.0065393 0.0039307 0.0088057 0.00019679 -0.0052511 0.0085915 0.0062595 -0.0059249 -0.0037597 -0.0070763 -0.0060561 -0.0099861 -0.0029511 0.0054957 -0.0077734 0.0012602 -0.0038055 -0.0057782 -0.0040181 -0.0073287 -0.0029368 0.010271 0.0065425 0.010074 -0.0092812 -0.0039453 -0.0047488 -0.00087434 -0.003085 -0.0062342 0.0049709 0.0016134 -0.0038402 -0.0072199 -0.003861 0.0015411 0.0063569 0.0060033 -0.0061566 -0.0053415 0.0029946 -0.0075198 -0.01053 0.0078143 -0.0082847 -0.0045363 0.0080858 -0.0080319 -0.0072255 -0.00024715 0.0024924 -0.0017733 0.0039534 -0.0020724 0.0088239 0.010348 0.0067898 0.0049915 0.004397 -0.00085963 0.0013018 0.00028031 -0.0013836 0.0087625 -0.0054417 0.00019318 -0.0088594 0.0046617 0.0072342 0.0076208 0.0075017 -4.1506e-06 -0.003477 0.0022011 0.0064033 0.0067054 0.0091782 -0.010435 -0.0033781 -0.0061861 -0.0028952 -0.0054119 0.0010895 -0.00018531 0.0044374 0.004399 0.0081621 -0.0018268 -0.0088141 0.0058022 -0.0031763 3.813e-05 
냅니까 0.0080574 -0.0074508 -0.0037288 -0.00098661 -0.0046149 -0.009949 -0.0092896 0.0051265 -0.0055968 -0.0059552 -0.0081236 -0.0039198 0.0064523 0.005154 -0.0090443 0.0050016 -0.0029346 -0.0068424 0.0016501 0.0067314 -0.0017055 0.007368 0.0099816 0.0080469 -0.010231 0.0018687 0.0070123 0.0063373 0.0048181 0.0078055 -0.0062691 -0.0040691 0.00044032 0.0035236 -0.0010714 0.0093412 -0.0045065 -0.0076945 -0.0049749 -0.0044343 -0.010241 -0.0082356 0.0020577 0.00082418 -0.0061695 -0.0081708 0.0012845 0.0052308 0.0079799 0.0083224 -0.001165 -0.008265 -0.0034457 0.0063521 0.0057278 0.0093801 0.0096267 0.0047836 0.0013226 -0.0040486 -0.00013451 -0.00015645 -0.0035286 -0.0013416 0.008992 0.0037612 0.0090035 0.0016369 0.00044873 0.0094397 -0.0018882 0.0082515 -0.0066026 0.0050291 -0.0039708 0.0011164 0.0014634 -0.0072434 0.0064708 -0.007924 -0.0020709 0.0042876 -0.00029401 -0.0026213 0.0086583 0.0067653 0.0035125 0.0027924 0.0023657 0.0094338 -0.0011047 -0.0028686 -0.010641 0.0075242 0.0029209 0.004602 -0.0096387 -0.0010476 -0.0021354 0.0021775 
알려줘 -0.0063744 0.0070451 0.0068773 -0.0045527 -0.0074511 -0.0082266 -0.0056307 -0.008011 -0.00045291 -0.0010235 0.0045466 0.0064865 0.0015484 0.0083578 -0.00095706 -0.0044701 -0.0062104 0.0053023 -0.00014019 -0.0091367 -0.0032533 -0.010212 0.0034327 -0.0024865 -0.009103 0.0012639 0.0036838 -0.0082676 0.0096459 0.0065119 -0.0073472 0.0037942 -0.0046528 0.0047962 0.0075695 0.0038428 0.0075127 -0.0059895 -0.0020897 -0.0047101 -0.0069744 -0.0049205 0.00050462 -0.0031788 -0.0083217 1.336e-05 -0.0055418 0.010107 0.0039768 -0.0091015 -0.0025436 -0.00030575 -0.0078651 -0.0089857 0.0022436 0.0078716 0.0064355 0.0088315 0.0095292 0.0059319 -0.0073714 -0.00051492 -0.0075351 -0.0075381 0.010647 -0.0013966 0.00029348 -0.0080626 0.0082394 -0.00037892 0.0061189 -0.0086516 0.0058379 0.0036104 0.00071548 0.0093826 -0.0040213 -0.0034337 -0.0077787 -0.0016378 -0.0068221 -0.0009467 0.0063528 -0.007455 0.0004325 -0.0061685 0.0031558 -0.0087979 0.0004104 0.0056501 0.0026338 0.0046835 -0.0084286 0.0040602 0.009229 0.0077381 0.0073831 0.00080089 0.0068132 0.0057454 
말해줘 -0.0063107 0.0092258 -0.0046997 0.005858 0.0053893 -0.0069621 0.0041106 -0.006798 -0.002107 0.0019794 -0.0039185 -0.0036317 0.005517 -0.006471 -0.00503 0.0031749 0.0017067 -0.0020788 -0.0036607 -0.0065407 -0.0095249 0.00341 -0.0020199 -0.001907 0.0059214 -0.0072447 0.00053026 0.0092026 -0.0016955 0.0076152 -0.0090528 -0.0062313 0.0033413 0.001133 -0.0089974 -0.00738 0.0091546 -0.007127 0.0030949 0.0012298 -0.0042157 0.0032068 0.0062617 0.0062897 0.0013455 0.005893 0.0069218 -0.0053256 -0.0023157 -0.0047852 0.0028111 -0.0013936 0.0014476 -0.0067173 -0.0056361 0.0047548 -0.0069783 0.0061245 0.0085708 0.0065189 0.0016653 0.0034865 -0.0091883 -0.0096855 -0.008637 0.00093204 -0.0068426 0.005914 -0.0093212 -0.0082152 -0.0088153 -0.0088638 0.0040058 -0.0070226 -0.0080588 0.0041005 -0.011021 0.0011969 0.0086283 0.0039542 -0.0055653 -0.0050815 -0.0053281 -1.4357e-06 -0.0090284 -0.0019876 0.0058189 0.00014236 0.01016 0.01042 0.006747 0.0033243 0.0018183 -0.0034412 0.0089185 0.0088051 0.0028183 -0.0088853 -0.0016968 0.0034318 
얼만데 0.0023399 -0.0055621 0.0054045 -0.00083768 0.00035817 -0.0058449 -0.0034027 0.0091559 -0.0024296 -0.0015486 -0.0063318 -0.0013764 -0.0031954 0.0011575 -0.0085849 0.0043152 -0.0028295 0.0071579 -0.002076 -0.0071625 0.0040131 -0.0069736 0.0026349 0.0052926 -0.0039205 -0.0059527 -0.0048448 0.010181 0.0086063 -0.0043097 0.0074116 -0.0051399 0.00033591 -0.0016352 0.006317 0.0079094 0.00995 -0.0049003 -0.001327 -0.0030744 0.0066641 0.0024419 -0.0036064 -0.0089504 -0.00068437 0.0020358 0.0075357 -0.00055036 0.0063934 -0.0052336 -0.0084515 -0.0070676 0.0036726 -0.0052536 0.00047215 0.0005223 0.0064367 -0.0069611 0.0092417 -0.009469 0.0021304 -0.0027512 0.0069892 0.0097608 0.0026604 0.0060414 -0.0049056 -0.0067868 0.0037126 0.006328 0.0040597 -0.0024549 -0.0073073 0.0038605 -0.0034213 0.002765 -0.0088027 -0.0068365 -0.0097636 -0.0027749 0.0092517 0.00071335 0.0059939 0.0064931 -0.0091023 -0.0052229 -0.0024821 0.00021461 0.0070471 0.010392 -0.008637 0.0048521 0.0042012 0.010488 0.0083902 -0.0089192 -0.0037486 -0.00010806 -0.0058146 -0.0061977 
얼마인데 0.0013491 -0.0071348 0.0044521 0.0074764 0.0050196 0.0059923 -0.0051289 -0.0036335 0.0010917 0.003653 0.002575 -0.0056521 0.0054546 0.002516 -0.0019106 -0.0045953 0.0099809 0.0027411 -0.0051303 -0.0097791 -0.0047029 -0.0058545 0.010045 -0.005593 -0.0029162 0.0029352 -0.0079344 -0.0027914 0.0045732 0.0074611 0.004648 -0.0092741 0.0057352 0.0030404 -0.0048878 0.0058671 -0.00033105 -0.0086744 0.0082035 0.0017117 0.0030128 -0.0039338 0.0047 0.0091248 0.0056482 -0.010283 -0.0098152 -0.00020956 -0.0062666 0.0076447 0.0025252 -0.009084 -0.0016838 0.0087819 -0.0069951 0.0092176 -0.0039216 -0.0089488 -0.001527 0.007357 0.0096265 -0.0068956 -0.0075758 0.0015713 0.0022122 -0.0029586 -0.0090594 0.0016236 -0.0078815 -0.0097829 -0.00050381 0.0014616 -0.004873 0.0056159 -0.0050825 0.0084447 0.0023263 -0.0071019 -0.0015218 -0.0068269 -0.00092221 -0.00092093 0.0027832 -0.0092386 -0.0095426 -0.0040095 -0.00795 0.0050443 -0.0016099 0.001173 -0.0034772 -0.00071503 -0.0075421 -0.0044908 0.0020828 0.0015904 -0.0049434 -0.0077063 0.010445 -0.00062638 
주문할래 -0.0032736 0.0059359 0.00041283 -0.0094376 -0.0086773 0.0084668 0.0041229 0.0075284 0.0081551 -0.0027311 0.0056112 -0.0029235 -0.00058804 -0.0015639 0.0076711 -0.0042934 -0.0083246 -0.008315 0.0013108 0.0026686 -0.0067635 -0.006528 0.0063228 0.009269 0.0049709 -0.0063487 -0.0062026 0.0069135 0.0063117 0.0033997 -0.0042706 -0.0027259 -0.0012951 0.0082352 -0.0076074 0.0012073 0.0040524 0.0046686 0.008185 -0.0074389 0.0032648 0.011367 -0.0051877 -0.001776 0.0025771 -0.0070357 -0.0041202 0.0021162 0.0051487 0.0087641 -0.0035181 0.0032177 0.0012908 0.0029641 0.0030407 0.0048238 -0.0091196 -0.0075853 -0.0056999 -0.0099615 0.0014843 -0.0063493 0.010962 -0.0071118 -0.0048337 -0.0016551 -0.0067693 0.0050614 -0.0037923 -0.0073093 0.0044954 0.0094101 0.0070731 0.0060925 -0.0098955 0.009869 0.0024397 0.007143 2.7487e-05 -0.009531 -0.0019811 -0.00099668 0.0042667 0.0038032 -0.0050667 0.0066737 0.0090657 -0.0015094 -0.00229 0.0074662 -0.0049104 -0.0045845 -2.6427e-06 0.0068596 0.00061254 0.0033676 -0.0019108 0.011344 -0.0072707 0.007729 
얼마나 0.0022517 0.0031323 -0.006117 -0.004215 0.00075765 -0.00090815 0.0062546 0.0063183 0.0014083 -0.0010731 -0.0060286 -0.0013268 0.0062593 0.0056427 0.0081019 9.7224e-06 -0.0019175 -0.0096081 -0.0045014 0.00093926 -0.0039263 0.00070586 0.007526 0.00421 0.0013381 0.0047326 0.00047981 0.0093499 -0.002197 -0.0083588 0.0040987 -0.0043973 0.0050165 0.010082 -0.0068705 -0.0013255 0.0084028 0.0088757 -0.0062213 -0.0026602 0.000442 -0.0087127 0.006442 -0.0075158 0.0094571 -0.0068512 -0.0065208 0.0072914 -0.0062751 -0.0063829 0.0014256 -0.0061066 0.0074835 0.0041481 0.0096264 -0.0071347 0.002984 -0.0068044 -0.0057812 0.0043565 0.0096823 -0.0051875 0.0035362 -0.0079373 0.0030428 0.00061008 -0.0050123 0.0053397 0.0077901 -0.0070701 0.0061388 -0.008957 0.0017273 -0.0093639 -0.0089646 -0.00097908 0.0047482 -0.0041827 0.0062889 -0.0022866 3.9493e-05 -0.0031439 -0.0011287 -0.0058663 -0.0032906 0.0072664 -0.0047105 -0.0054362 -0.0075813 -0.0015309 -0.0026195 -0.0035381 0.00043273 0.0024125 -0.0055742 -0.0091821 -0.0025392 0.0055192 -0.0036261 0.0007926 
한가요 -0.003749 0.0085492 0.00060666 -0.0017494 -0.009862 -0.008295 -0.0021444 0.0057807 0.0041825 -0.0023932 0.0047719 0.0054432 0.001806 0.0011516 0.0081345 -0.0061124 0.0097793 -0.00070971 -0.0096316 0.0025766 -0.0042322 -0.0028386 -0.0043056 0.0064449 -0.0012594 0.0045083 0.0050749 0.0053643 -0.00044466 0.0019046 -0.0014692 0.0080983 -0.0051889 -0.0084416 -0.0038712 -0.0077893 0.0053075 -0.00010262 0.0076267 0.0050315 -0.0078462 -0.0042363 -0.0023928 -0.0091261 -0.00035056 0.0080871 0.0070073 -0.0093959 -0.0063108 -0.0045446 0.00083647 -0.0030592 0.0092704 -0.0069848 0.0084791 -0.004512 0.0062258 -0.0029516 0.0073377 -0.0096995 0.0083355 0.0037129 0.0042752 -0.0015113 0.0050774 0.0087544 -0.008373 0.0094743 0.0084016 0.00014191 -0.0026688 0.0084079 0.009696 0.00082066 0.0090013 0.0034667 -0.00070543 -0.0063376 -0.0057452 -0.0076899 -0.0084572 0.0022832 -0.0083539 0.010381 -0.0084548 -0.002162 -0.00069948 -0.0060007 0.0039324 0.0066039 0.0055559 -0.0039325 -0.0067225 1.9584e-05 0.0044784 0.009187 -0.0013686 -0.010742 -0.0012589 0.0025374 
가능?\ -0.0008242 -0.0022715 -0.0013505 5.8126e-05 0.0014902 0.0019879 -0.0086996 -0.0039485 0.00091423 0.0037781 0.0081179 0.0061105 0.0065292 -0.0063267 -0.0039025 -0.0074872 0.0092394 0.0042354 -0.0073937 -0.005786 -0.0012193 -0.0042757 -0.010855 -0.0069312 0.0097345 -0.0072591 0.0089737 0.0018223 0.0078177 -0.00048547 0.00099113 0.0069976 0.0066619 0.0042239 0.010202 0.0012662 0.0069168 0.0046431 0.0094124 0.0094716 0.0029268 0.0074077 0.0065513 -0.0078885 0.00096203 -0.0014261 -0.0038463 -0.0010649 0.010657 0.0086297 0.0055048 -0.0040533 -0.00029331 0.00302 0.0077888 0.010321 0.00034543 -0.0091868 0.0075056 0.0086738 0.0051082 0.0022482 0.0014661 0.0068086 0.0011246 -0.0015138 0.0074722 -0.0030762 0.0070011 -0.0030783 0.0087163 -0.0082824 -0.0090774 0.0064992 -0.0082288 0.00033699 -0.0070518 -0.011707 -0.0096077 0.0027254 0.0031023 -0.0027675 0.0080681 0.010413 -0.0069504 0.00069677 0.0006828 0.007522 -0.0089456 0.0077928 0.0039779 -0.0081972 -0.0090729 -0.0014353 -0.0048833 -0.0039416 0.00056914 -0.00075184 0.0049063 -0.0059454 
ㄱㄴ? -0.0071322 0.0024631 -6.5294e-05 0.0089824 -0.0027304 -0.0094203 -0.0082448 0.0061659 -0.0057006 -0.010881 0.010849 0.0078912 -0.0059574 0.0077738 -0.0081768 -0.007215 0.00084987 0.0042387 -0.00024964 0.0092734 -0.0054389 -0.011249 -0.003007 0.0079611 -0.00044994 -0.0076044 -6.5798e-05 -0.0053739 -0.0011479 -0.0020194 0.00058238 -0.0099984 0.0084873 0.0015983 -0.00024456 0.0087965 -0.0057657 0.0087429 0.0006296 0.0048093 -0.0098748 0.0023736 0.0059761 -0.0068704 0.0014975 -0.008953 0.0056593 -0.0046077 -0.0069729 0.0069133 0.0032034 -0.0053904 0.0045881 0.0022874 0.0042266 0.0065573 -0.0094233 0.0091716 -0.0031259 -0.0010072 0.0024405 -0.0034087 -0.0024993 -0.0019787 0.0037696 0.0040996 0.0049264 0.0025905 0.0049643 -0.001591 0.0079332 0.0044022 0.0089339 -0.00048142 0.0048742 0.0015836 0.0020892 -0.0096026 0.00033892 -0.0043534 0.0018699 0.0055823 0.0061678 0.0095799 0.0075006 0.00087522 -0.0068765 -0.0019627 0.0064323 -0.0026202 0.007805 -0.0062796 0.0066595 0.0017308 -0.0087122 0.0076486 0.0019765 0.00027589 -0.0051395 -0.0091197 
배달! 0.0052183 0.0012329 -0.0042058 -0.0055586 -0.0066502 0.00382 -0.00023513 -0.00016045 -0.0085168 -0.0034563 0.0035924 0.0074933 0.0021683 0.0017509 0.0032116 -0.0063156 -0.00086919 0.001948 0.0097349 -0.0020165 -0.0029128 -0.011516 0.0058959 -0.0027054 -0.002613 -0.0086364 -0.0017423 -0.001597 0.01045 0.0055933 0.0061485 0.0040245 0.00044274 0.0012858 0.0073928 0.0062821 0.004418 0.0091506 -0.0097565 -0.0077844 0.0028018 0.0071009 -0.0089972 0.0053084 0.0028434 0.0054276 0.0050902 0.0041593 0.0074565 0.0076668 -0.0025431 -0.0074725 0.0015814 0.009023 -6.1605e-05 0.0038882 0.0054038 0.0085144 0.0047964 0.0037472 0.0070369 0.0052057 0.0047577 -0.0024587 0.0034343 0.0026746 0.0014891 -0.00028732 -0.008639 -0.0073255 0.0030073 -0.0047754 -0.0023395 -0.0046769 -0.0062373 -0.0006021 0.0053659 -0.0041693 -0.010871 -0.0078102 0.0036747 0.0005917 0.00027996 -0.0057766 -0.0091588 -0.00019835 0.0051799 0.0060918 0.0087128 0.0019913 -0.0038943 -2.7851e-05 0.0072122 -0.0073082 -0.0037157 -0.0059118 0.0043354 -0.0076399 0.0049973 0.004791 
배달로 0.0096195 -0.0055041 0.0049348 0.0091722 0.0046632 -0.0041149 0.0046591 0.0073216 -1.4071e-05 0.00066183 -0.003412 0.0095499 0.0052848 -0.0066064 0.0096083 0.0014645 -0.0056026 0.0080388 -0.0013959 0.0035329 0.0070474 -0.010006 0.0058901 0.00037844 0.0036172 -0.0043842 0.005094 0.005981 0.0054571 -0.0078526 0.00086477 -0.0008489 0.0061326 0.010021 0.0064736 0.0067977 0.001174 -0.0025063 -0.0062751 -0.0057907 -4.3841e-05 0.0068747 0.002806 -0.008666 0.0069633 -0.0057313 0.007965 0.0071885 0.0053055 0.00067213 0.00012434 0.0032683 0.0028957 0.0054134 0.0066477 -0.0077424 0.009347 -0.0038227 -0.0034552 -0.0065927 -0.00090924 -0.0091497 0.0062976 -0.0001462 -0.0031656 0.0083197 -0.0055906 0.00013355 0.0010894 -0.0089769 0.0061267 -0.0051952 -0.00051363 -0.0078849 0.0064156 -0.0032607 2.39e-05 0.0012258 0.0012197 -0.0068038 0.0081828 -0.0094626 0.0016112 -0.0044573 0.0071282 -0.0064598 0.0012157 -0.0030132 -0.0032439 -0.0054021 -0.0024929 -0.007204 0.004399 0.0045051 0.0096255 0.0068239 -0.0062959 -0.0069184 0.001841 -0.00035925 
ㅂㄷ -0.0021581 0.0081277 -0.0041117 -0.0010375 -0.0062321 0.0052601 -0.005495 0.009613 0.0025719 -0.010112 0.0046373 -0.0053592 -0.008822 0.00020745 -0.0016191 -0.0063603 0.009227 -0.008369 0.0032047 0.0098153 -0.0034674 -0.0085988 -0.0089902 0.0071885 0.0069715 0.0084589 0.0030645 -0.0084264 0.0064942 -0.004614 0.0093323 -0.0076554 -0.0090047 -0.001546 -0.0043918 0.0004973 -0.0024979 0.0040648 -0.0061159 0.008019 0.0060606 -0.010243 -0.0081251 -0.0080098 0.007365 0.0092257 0.0065644 -0.0048332 -0.003571 -0.004617 -0.0068342 -0.00068533 -0.0034971 0.0096086 -0.0042044 -0.0006009 0.0072191 0.0030801 -0.0064903 -0.0083012 0.0074644 -0.0060824 -0.00954 0.00033327 0.0012072 -0.0071253 0.0027032 -0.0047111 0.0021238 -0.0027725 -0.0047107 -0.0080193 0.0047199 -0.0066495 -0.0084905 0.00011796 0.006868 -0.0071005 -0.010539 0.0056576 0.008982 -0.010097 -0.0030294 0.0018497 0.0038 0.0058195 0.0079728 0.001275 -0.006333 0.00095257 0.0042265 0.0096295 -0.0033564 -0.0018184 0.0044037 0.0024453 -0.0010946 0.0078159 -0.0069342 -0.0017817 
해줘. 0.0022791 0.0083767 0.0084907 0.0075848 0.0072591 -0.009075 0.00034167 -0.0053325 0.0056585 -0.00077957 -0.0026686 0.0054773 -0.0097937 0.0093958 -0.001764 0.0044535 -0.0020272 0.0018882 0.0090771 -0.00023553 -0.0085298 -0.010753 0.00011784 -0.0088835 -0.0044792 0.0072816 -0.0049644 0.0097653 0.0056009 -0.0069666 -0.0083131 0.0088857 -0.0045032 0.0088236 0.0038578 0.0011527 -0.00373 -0.0077829 -0.0082415 0.0067048 6.7589e-05 0.0051912 -0.007202 -0.0049474 -0.0058569 -0.0012393 -0.00078145 0.0053075 0.010195 0.0009722 -0.00051047 -0.003364 0.00057701 0.0091147 0.0083522 0.0014818 -0.0025504 0.0058808 -0.011011 0.0048775 0.0057309 0.0090404 -0.0073793 0.0013729 -0.0025174 0.0096964 -0.0025463 -0.0042548 0.0079861 -0.00014712 0.0086273 -0.0031572 -0.0014704 0.0065934 0.0045041 0.0087166 0.0076321 -0.0062957 -0.0025245 0.0004004 2.2522e-05 -0.0076839 -0.0035765 0.002423 2.922e-05 0.0099097 -0.0013707 0.0020846 -0.0096608 0.00012773 -0.0090007 0.0086079 -0.00060813 0.0097505 0.0012236 0.0035023 0.0036338 -0.011133 0.0078754 -0.0082372 
플리즈 0.0028071 -0.0063813 0.0029697 -0.0056969 -0.010062 0.008081 0.007961 0.0045157 0.0069173 -0.0030013 -0.0092949 -0.0060951 -0.00085547 -0.0016361 -0.0006121 -0.0054813 0.0088542 -0.0022656 0.0039202 0.0049729 -0.0099081 0.0013983 0.0094267 -0.004834 -0.0022898 -0.0059948 -0.0068773 0.0046767 -0.0029083 0.0055081 0.0067599 0.0045725 0.0064879 0.0040257 -0.0047832 0.0093248 -0.0034259 0.0086348 -0.0018057 -0.0080091 0.0066599 0.0023013 -0.00097183 0.0094777 0.0062143 -0.0029461 -0.0015352 -0.0052939 0.0061851 -0.0093548 -0.0033728 0.0084931 0.0081823 -0.0090726 0.009204 0.0072433 -0.00010361 -0.0010577 0.00014117 0.003861 -0.00088574 -0.0090117 -0.0099049 -0.0035029 -0.0010406 -0.00099583 0.00047516 -0.0033967 0.0078427 -0.0059117 -0.0078421 0.0035558 -0.0085122 0.0035661 0.0095008 0.0061242 0.002092 -0.0037668 0.0017705 -0.0015074 -0.0044246 -0.0023577 -0.0051431 0.0081644 0.0088639 -0.0021117 -0.0045858 0.0049809 0.0033198 0.0093973 0.0059646 0.0070155 0.0025651 -0.0069139 -0.0058967 0.0070249 -0.0042345 -0.0096425 -9.2207e-05 0.005352 
