50 100
</s> -0.01581 0.023336 -0.020208 -0.0091237 0.028498 0.010509 0.0029038 -0.011654 0.046079 0.041318 -0.018094 0.0088224 0.020171 0.027448 -0.014181 -0.00021659 0.002983 0.0095523 -0.0055468 -0.020496 0.0058865 0.022855 0.010934 -0.018787 0.009106 -0.021309 0.021423 -0.022928 -0.018447 0.029798 -0.0091131 7.1245e-06 -0.026314 -0.021891 -0.044939 -0.0065421 -0.00089637 -0.01957 0.001948 -0.012281 0.020732 0.034539 0.014065 0.014075 -0.0018209 0.0038269 0.00042615 -0.0037037 -0.021388 0.020863 -0.032168 0.027586 -0.021768 0.0135 -0.014743 -0.0092231 -0.0028723 0.0011182 0.011246 0.010648 -0.015364 0.021589 0.034391 0.029849 -0.017861 -0.00031774 -0.025424 0.01246 0.020565 0.0085692 -0.024418 0.01133 -0.0064466 -0.0027439 -0.0097607 -0.0085031 0.040596 0.028356 0.016428 -0.018306 -0.017745 0.015284 0.030144 -0.026137 -0.011124 -0.021909 -0.0015158 0.01164 -0.01611 -0.018041 0.030165 0.010173 0.045215 -0.034388 0.0019906 -0.032584 0.010303 0.034195 -0.016161 -0.0068085 
? 0.0024806 0.0048629 0.0082872 -0.0092704 0.0067558 0.007911 -0.0065745 0.0010676 -0.0032592 -0.0020874 -0.00073032 -0.0065376 -0.0047437 0.0022711 -0.0059343 -0.0070358 0.0035295 0.006234 -0.0071087 -0.00055765 -0.0047672 0.0096906 0.0039052 0.0069818 -0.008561 -0.0060906 -0.0097341 -0.0010901 -0.0022046 -0.007174 -0.0049792 -0.0006696 0.0039422 -0.006107 -0.0064817 -0.002228 -0.0072662 0.0044601 -0.0003266 -0.0027673 -0.01008 0.0094702 -0.0048912 0.0032872 0.0090785 0.0018612 0.0080661 -0.0029733 -0.0039502 0.0035017 -0.001129 -0.0015661 0.0023996 0.0048943 -0.0090157 0.003712 -0.0096065 0.00040408 0.0084906 -0.0026035 -7.8998e-07 0.0035042 0.0057387 0.0081652 0.0046171 -0.0035008 -0.0071548 -0.0053351 -0.0056846 -0.0057251 0.0014502 0.0052136 0.0058792 -0.007596 -0.0025368 -0.0027884 -0.003927 0.0027484 0.0065294 0.0057764 0.0005633 -0.0057485 0.0024869 0.0027621 0.0046701 0.0035749 -0.0020022 -0.0098905 -0.0045388 0.007326 0.0029792 0.0026524 0.0025428 0.0016202 0.0094203 0.0023302 -0.00057994 0.0023014 -0.0066026 -0.0070087 
주문 0.0042658 -0.0019765 -0.0064765 -0.0061129 0.0094303 -0.0035522 -0.0097837 -0.013944 0.023693 0.021566 -0.016411 -7.6361e-05 0.0023909 0.0019274 -0.0066454 0.0052196 0.0034579 -0.0016234 -0.010048 -0.0015879 0.0099287 -0.00029792 -0.0042961 -0.002349 0.00096596 -0.0071659 0.012996 -0.016909 -0.014821 0.0098523 0.0022625 0.0083815 -0.011189 -0.0028144 -0.022298 -0.0093305 -0.0091521 0.0047251 0.010298 0.0062402 -0.0032675 0.015 0.0088408 0.0046402 0.0047989 0.0053233 0.010011 0.0079973 0.00098118 0.014422 -0.011324 0.0067018 0.00058611 -0.0023353 -0.015116 0.0065072 0.00018408 -0.0085896 -0.0039138 -0.0012325 0.0062777 0.014857 0.01755 0.01607 -0.011894 0.0027266 -0.012558 0.00038171 0.0087542 -0.0079011 0.0016888 0.0077165 0.0024379 -0.011044 -0.012759 0.0015863 0.020895 0.0035815 0.015926 -0.013509 0.005205 0.0010685 0.001056 -0.011762 -0.0044495 -0.012218 -0.0032162 0.013972 0.0014353 -0.0093349 0.0017061 0.0014758 0.021001 -0.012976 0.0033042 -0.0105 -0.00056787 0.014895 0.0016358 0.006867 
피자 -0.0026452 0.015224 -0.011218 -0.0060874 0.0094407 0.011477 -0.0070496 -0.0046281 0.019333 0.018315 -0.010379 0.011117 -0.0032652 0.011784 0.0014072 -0.0051631 -0.0059555 -0.0064106 0.0054744 -0.0016872 0.010967 0.01478 0.0018544 -0.0034395 -0.0058098 -0.00095512 0.015107 -0.0096217 -0.015391 0.0026085 0.0055196 0.0062579 -0.007179 0.0029181 -0.015085 0.0057924 0.0006436 -0.0082402 -0.00034332 0.0020654 0.0062351 0.0097751 -0.00021682 -0.0022808 6.2458e-05 -0.0036142 0.0091618 -0.0013044 -0.00040625 0.013179 -0.01884 0.00097214 -0.003358 -0.0033418 -0.0070565 -0.006777 -0.0018797 0.0027741 0.007559 0.0035823 -0.011689 0.0088502 0.013388 0.00063826 -0.012318 0.0019296 -0.0062212 -0.0027177 0.0031522 -0.0029297 0.0030314 0.006646 -0.00052087 0.0027427 -0.0037156 0.0068266 0.016293 0.016569 0.01296 -0.013167 -0.0024253 0.0065707 0.016009 -0.0011572 0.0073822 -0.0052871 -0.0020631 0.011777 -0.014061 -0.014174 0.0089363 -0.0039862 0.014419 -0.0063023 -0.0059406 -0.012964 0.0018319 0.01359 -0.0065796 0.00028836 
. -0.0053793 0.0071954 -0.00185 0.00059995 0.012757 0.010627 0.0040661 -0.011093 0.010627 0.0088658 -0.0028104 -0.003749 -0.0031585 0.0056185 0.0073352 0.0010284 0.003235 -0.0017739 -0.0066729 0.0071551 0.0093279 -0.00069386 -0.0037423 -0.011087 0.0035176 0.0016666 0.012262 0.00081163 0.0049096 0.0098135 0.0051229 -0.0083151 -0.010414 -0.0040073 -0.0041491 0.0061624 -0.0096903 0.0077139 0.0063545 -6.0994e-05 -0.0019906 0.0014025 0.0091294 0.011093 0.005032 -0.0097289 -0.00020731 0.0088861 -0.0038449 -0.00038186 -0.0087436 0.0079055 0.0025252 0.0015444 0.0073658 0.0067327 -0.0058069 0.0048868 -0.0085586 0.010352 0.0016969 0.0041435 -0.00033014 0.0024072 0.0051585 0.0051991 -0.0071875 -0.0078019 -0.0038673 0.0044834 -0.0061483 0.00064089 -0.0077105 0.0065266 -0.0063211 -0.0048447 -0.0022754 -0.0069408 0.0071365 -0.0045407 -0.0090887 0.0032723 0.0037282 0.00089549 -0.0015193 -0.005008 0.0022269 0.0071912 -0.0064589 0.0052964 0.0085374 0.0015132 0.014346 -0.0042227 0.0023199 0.0042065 0.00014448 -0.0051653 -0.007935 -0.006717 
수 0.0086 0.0064927 0.0048055 -0.0051817 0.0073155 0.0044461 -0.0082076 -0.003889 -0.005113 0.0124 -0.0015099 0.0044091 -0.0042064 0.00042236 -0.0073618 0.0040815 -0.0062963 -0.0079451 0.0067715 -0.0077412 -0.0064148 0.0034336 0.0069084 -0.0041907 0.0028441 0.0049922 0.001843 -0.0084408 -0.0098598 -0.0046836 -0.0071336 0.0071075 -0.0063357 -0.0025465 0.00053797 0.0057453 -0.0075939 -0.0060947 -0.0079291 0.0084099 -0.0051843 0.0021898 -0.0033776 0.0044071 0.0080917 -0.0029158 -0.0024692 -0.0097999 -0.0064426 0.0098236 -0.0081742 -0.0066735 -0.01101 0.0072572 0.002933 0.0021921 0.0015284 -0.0005129 0.0012047 -0.0016762 -0.009377 -0.0022227 0.011167 -0.0014062 0.0034946 0.0025775 -0.01148 -0.0057425 -0.0040652 0.0079241 -0.0035307 0.0076612 0.0094387 -0.010221 -0.004183 -0.0027845 0.0059685 -0.0058903 -0.0044565 -0.0048306 0.0043961 0.0061008 0.0045726 0.0083233 0.0060343 -0.0026938 -0.0095414 0.0024789 -0.0099612 0.008269 0.00083532 -0.0011592 -0.0047548 -0.0003383 0.00042372 -0.0020996 -0.0082215 0.0017128 -0.0069734 -0.0082046 
가격 0.0084291 -0.0029054 0.010627 -0.0074121 -0.0068989 0.002475 0.0046649 -0.00017175 -0.003954 -0.0038518 0.0028494 0.0049918 -0.011272 -0.012159 -0.0037439 0.0082509 -0.0019314 -0.002557 0.0012482 0.0066666 0.0066586 0.0070174 0.0010645 -0.002789 0.0015121 0.0075283 -0.0083706 0.0019911 0.0027818 0.006555 -0.0062939 -0.010383 -0.00374 0.0036855 0.0086311 0.0067129 0.0050008 0.0051369 -0.00056334 0.0017769 -0.0056832 0.0029528 0.0039757 -0.0064603 0.0074815 -0.0064216 0.0088861 -0.007513 0.0015547 -0.0085556 0.008457 0.0040535 -0.0040383 -0.00091521 0.0067469 -0.0027825 -0.00068479 0.0030345 0.0069353 -0.0031009 0.00088578 0.0041763 -0.013024 -0.012237 -0.0039731 0.0061541 -0.0074493 0.0030459 -0.0025764 0.0095903 -0.006049 0.00073095 -0.0048996 -0.0025998 0.0025719 0.001354 -0.0044613 -0.010668 -0.0102 -0.000914 0.0077456 0.0064819 0.0011494 -0.004049 0.0077244 -0.0033305 0.0080826 0.0036937 0.010924 0.0023634 -0.0042507 -0.0053172 -0.0080321 0.0024574 -0.0065396 -0.004743 -0.0025451 -0.007438 0.0097576 -0.0086049 
부탁해 -0.0074625 -0.0018953 -0.0097796 -0.0073186 0.011043 -0.001657 -0.0043606 -0.00012139 0.0048054 -0.0033144 0.0016953 -0.0080232 0.0013077 0.011475 0.0053159 -0.0010959 -0.0049323 0.0013682 0.0014758 0.0035734 0.0021441 -0.0019659 -0.0061476 0.0013664 -0.005225 -0.0074159 -0.0024605 0.0031497 -0.0063312 0.0044239 -0.0010353 0.0077981 0.0074413 0.0025275 -0.013136 0.0044295 0.0075128 -0.010143 0.0085711 0.0017355 0.0064031 0.0084745 0.0013443 0.008015 0.0052552 0.0055718 0.0080816 0.0077861 0.0047917 0.011524 -0.0091605 0.0014255 0.0041559 0.0093944 0.00095312 -0.0021193 -4.4452e-05 0.00096263 0.0065037 -0.0063744 -0.0020249 -0.0062826 0.012285 -0.0061825 -0.0079976 -0.0074736 0.0008899 -0.0017787 -0.0073303 -0.0045037 -0.0076125 0.00694 -0.0090084 0.00074945 0.0073034 0.0080202 -0.0028565 0.0087064 -0.0026433 -0.0044644 -0.0033204 -0.0031822 0.0098659 0.0061901 0.00019678 0.0076468 -0.0010706 0.0056335 -0.00062627 -0.0047038 0.011791 -0.002813 -0.0051954 -0.007302 -0.0099109 -0.0083861 -0.0028449 -0.0071409 0.0058356 -0.0033594 
가능 0.0055858 -0.0045529 0.0075434 -0.0039946 0.0087688 -0.0092308 -0.0021482 0.0019767 -0.006256 -0.0015972 -0.0097211 -0.0022435 -0.003287 0.011022 0.0035014 -0.0068384 0.001708 0.0053771 0.0080745 -0.0014886 -0.0082927 -0.0017266 0.0037799 -0.006693 -0.00015203 -0.0044127 0.010294 -0.010241 0.0077507 0.0064682 0.0017128 0.0099821 0.0038377 -0.0031812 -0.0091365 0.0021089 0.008375 0.003341 0.0018361 0.0092604 -0.0077947 -0.0079835 0.010198 0.0077847 0.0076224 -0.007879 0.0040413 0.0051704 -0.0038534 0.011008 -0.0051674 0.0058017 -0.0072802 0.0079245 -0.0025216 0.0070209 -0.0010997 -0.0093049 -0.0037419 0.0055177 -0.0032329 0.0025681 0.0077284 0.011367 -0.0035265 -0.0068832 0.0075776 -0.0042295 -0.0040991 -0.0031827 0.0026185 -0.0081393 0.0020501 0.0081345 0.0086299 0.0071416 -0.004533 0.0072349 0.0095391 0.0086926 -0.0021525 -0.0024971 -0.00061756 -0.0086952 0.0084834 0.0060067 0.0050832 0.0030817 -0.00054886 0.001345 3.6845e-05 -0.0045285 0.010692 0.0047518 -0.0046423 -0.0037664 -0.0022136 0.010974 0.0068867 -0.0038973 
배달 -0.007964 0.0011991 0.00022877 0.0060958 0.0011991 0.0080656 0.0042836 -0.0003593 0.00011954 -0.0030958 -0.0090589 -0.0041635 0.0077929 -0.0071322 -0.0088399 -0.0059489 -0.0037188 -0.0093918 0.0017753 -0.0053318 -0.0036517 -0.00088526 0.0031145 -0.0056329 -0.0082014 -0.0021015 0.0093308 -0.010087 0.0035771 -0.0044094 0.0021941 -0.0067806 0.0022834 -0.0072433 -0.0083791 -0.0023612 -0.0060334 0.007081 0.0011338 -0.00051482 0.0044712 0.0098447 -0.00092718 0.0052777 -0.00083951 0.00063518 0.0053343 -0.0021256 -0.0023984 0.00048408 -0.0040658 -0.0057527 -7.8248e-05 -0.00095887 0.0038501 0.0039828 0.0027141 0.0091173 0.010598 0.0065499 -0.0058621 0.0044235 0.0032646 0.007672 -0.0054188 -0.0069993 -0.005287 0.009913 -0.0021411 0.0049943 0.0018193 -0.0038653 0.0012654 0.0055301 -0.001032 0.0052637 0.0006119 0.0034876 0.0086175 -0.0031048 0.0074455 -0.0050561 0.008135 -0.011379 -0.0074337 3.2007e-05 -0.010196 0.0062487 -0.0028971 -0.0017288 0.0049059 0.0083171 0.014197 -0.0081174 -0.0090658 -0.0060479 -0.0081355 0.0040566 -0.006154 -0.010499 
할 0.0061052 0.003081 -0.0070752 0.007517 0.01067 0.0017911 -0.0020762 -0.0021435 0.0014407 -0.00047881 0.0074853 0.0010872 0.00076946 0.0018806 -0.0027968 -0.0030304 -0.0003868 -0.0066726 0.0085725 0.0060547 0.0032246 -0.00047974 0.0097772 -0.010753 -0.0044313 -0.0085256 0.0087063 -0.004588 -0.0048395 0.0029179 0.0096007 -0.0075431 -0.0013305 -0.0040555 0.0044265 -0.0082702 -0.00030464 -0.001462 -0.0010177 -0.0093855 -0.0041906 0.00030501 -0.0082705 -0.0022459 0.0069515 0.010084 -0.0024015 0.0053306 -0.0073825 0.0016805 -0.011314 -0.003219 0.0058836 -0.00048443 0.0025197 -0.007472 0.0012064 0.0094017 0.0072661 0.0014838 0.005479 0.0068001 0.0055196 0.0079864 -0.0047813 0.009641 0.003178 0.0011593 -0.0040855 0.0095745 0.0081686 0.0098365 0.0058995 -0.0076996 -0.0031571 -0.0020187 0.002217 0.0088184 0.0053462 -0.0061986 -0.0032542 0.0063548 -0.0023132 -0.0041799 0.0092397 -0.0073186 -0.0040511 0.0011117 -0.0078615 -0.0032334 -0.0038859 0.0035613 0.0091745 -0.0098925 -0.0098183 -0.010612 0.0060436 -0.0012216 -0.0059402 0.003621 
가능한가요 0.0083036 0.0068284 -0.0054621 0.0085571 -0.0034019 0.0060466 0.0098716 0.00056313 -0.0070652 -0.0038614 -0.0074583 0.0015455 0.0076056 -0.00017219 0.0059466 -0.00078064 0.00020224 -0.0076104 0.0002656 0.001758 0.0033837 0.0065489 0.0011171 0.0059769 -0.0067503 0.0054437 -0.0032758 0.0043644 -0.010254 0.0041951 0.0038257 0.0088817 -0.0024838 -0.010352 0.00017034 0.00040238 -0.00011136 -0.0029172 -0.00056501 0.0017813 0.0037792 0.0055863 0.0072827 0.008694 0.0047906 0.0014623 -0.00078387 0.0015039 -0.0074369 0.0083166 -0.0073143 0.00084514 0.0036541 -0.0078968 0.0085446 0.0043572 0.0023166 -0.0035146 0.0070326 -0.0096922 0.0057378 0.0028951 0.0083056 0.0089733 0.0077179 -0.0042851 -0.0040868 0.0045325 -0.0069253 0.002104 -0.0054692 0.00099649 0.0089557 0.0048652 -0.0065031 0.0030685 -0.001294 -0.0019595 0.0080723 -0.0092655 0.006535 0.0041509 -0.0057332 0.0052591 0.0058997 0.0052841 0.0088829 0.0019599 0.0011782 -0.0097577 -0.0020525 0.0088635 0.0007896 0.0089387 0.0052769 -0.0013441 -0.0088606 -0.00168 -0.0096517 -0.0062229 
주문할래 0.0014083 -0.0060637 -0.0078844 -0.0057544 0.010024 0.00096089 -0.0092909 -0.0040959 0.0056574 -0.0015946 -0.0030779 0.009229 0.010377 0.0090446 0.0028049 -0.00108 -0.00080432 -0.0032625 0.0074153 -0.0052777 0.0090166 0.00045487 0.0048846 0.0011406 -0.0029948 -0.0081964 0.0076139 0.0072498 0.0068414 -0.0033861 0.0014811 0.0033374 0.0061056 0.0013228 -0.010948 0.0033335 0.0084415 -0.0070826 -0.0065154 -0.0019239 0.0066185 -0.0040625 0.0098059 -0.0068749 0.0075603 -0.007703 -0.00029436 0.0084806 0.0012537 0.0023285 0.0033367 -0.008739 -0.0015475 -0.0049845 -0.0040391 -0.005866 -0.0079109 -0.0036999 -0.0072865 -0.004019 0.0028163 0.0071906 0.0066839 0.00033448 -0.0089019 0.0069893 -0.0096974 0.00024494 0.0053131 -0.005307 0.003576 0.0070263 0.005707 -0.0049133 -0.0020577 -0.008248 0.0048429 0.010111 0.0018383 0.0064292 0.00080716 0.0021315 0.0039458 -0.0054202 0.005068 0.00029537 0.0006378 -0.001662 -0.0059185 0.00024192 0.0025579 -0.0088447 0.00031385 -0.009915 -0.0034989 -0.0079452 0.0052949 -0.0078634 -0.0008145 -0.0077424 
주문이요 0.0030874 -0.002808 0.0046828 0.0067007 -0.0042131 0.0064 0.0032855 -0.0065746 0.0099403 0.0041215 0.0015988 0.0051367 -0.0080993 0.0061659 -0.0031776 0.0061993 0.0055186 0.0084542 -0.0099225 -0.0038674 -0.0025769 -0.0035353 -0.0045373 0.00059459 0.005487 0.0028285 0.0092101 0.0040723 0.0058912 0.0025439 0.0058221 0.00066153 -0.0034321 -0.0057345 0.0061167 0.0069562 -0.008451 -0.0093673 0.0048117 -0.0037475 0.0090478 0.002975 -0.00033761 0.0053852 0.0062959 -0.0054137 -0.0086413 0.0011532 0.0033511 -0.0024841 -0.0018995 0.0083855 -0.0093453 0.0043806 -0.010291 -0.0026323 -0.007431 0.0040958 -0.0096491 0.0048909 -0.0091925 -0.0041451 0.0041621 0.011108 -0.0029501 -0.0056304 -0.0057752 0.0011457 0.005461 -0.0027711 -0.0099414 0.0066093 0.0044167 -0.00098622 -0.005599 -0.0078249 0.0097311 -0.0081567 -0.0058066 -0.0024709 0.0049724 0.0048328 -0.0068398 0.0061288 -0.0025749 0.0063995 0.0073868 -0.0072534 -0.003633 0.0047111 -0.0057347 0.0052676 0.00677 -0.0076068 -0.0020009 0.00024592 -0.0021103 -0.00095865 0.0090786 -0.0034026 
하고 0.0017181 -0.0079973 0.0018534 0.0075134 0.0069481 -0.0092679 0.0023325 -0.0039919 0.0029675 0.0044701 -0.0048376 0.009072 -0.0092866 -0.00309 -0.0051823 -0.0026805 -0.00020909 0.0081627 -0.0052062 0.0095646 -0.0063842 0.00668 0.0011165 -0.0067852 0.0021498 0.0046541 0.0081141 -0.010232 0.0053479 0.0055749 -0.0044213 0.0078815 -0.0085208 -0.0073159 0.0079161 -0.0050825 0.0002879 0.0049385 -0.0056934 -0.009105 -0.0064691 0.0070725 -0.0045776 5.4248e-05 -0.0016866 -0.0010353 0.0098064 -0.0055706 0.0082239 0.0034762 -0.0083463 0.0072849 -0.0035218 -0.0015187 -0.0064158 -0.0065266 0.00011644 -0.0028705 0.0027562 0.0046382 -0.0070525 0.0030542 -0.0086481 0.0073617 0.0083797 -0.0068224 -0.00091068 0.00089453 -0.0015518 0.003166 -0.0086161 -0.0024612 0.0041597 -0.0096432 -0.0093288 0.0091217 0.0093827 0.0085299 -0.0032201 0.0080996 0.0049984 -0.0078077 -0.0007711 0.0074713 -0.0025381 -0.0051256 0.0055549 0.0024441 -0.003689 -0.0093343 0.0088553 0.0034178 -0.0041787 0.0032184 -0.0080424 -0.010036 -0.0028256 0.0016285 0.0010783 -0.0011687 
싶어요 0.0025952 0.007024 -0.0044482 -0.0088283 0.0043185 0.0066843 -0.0064719 -0.0075935 -0.0027963 0.0076699 0.0051747 -0.0087027 0.0021112 0.0032098 0.0059231 0.010007 -0.0026705 0.00044895 -0.0074655 -0.007429 0.0090339 -0.0084942 -0.0091659 0.0090687 0.0003632 0.0029903 -0.004714 0.0087876 -0.010004 -0.0049846 0.0040471 0.0079733 0.0088519 -0.0068409 -0.0079869 -0.0059907 -0.0095313 -0.0055675 0.0011575 0.0095231 0.00010497 0.0059895 0.0098384 0.0067828 -0.0042117 -0.0080832 0.0032558 0.0099579 0.0011256 0.0083169 -0.0046876 0.01022 0.00033278 -0.0033227 0.005218 0.007354 -0.002893 -0.0069095 0.0074531 -0.0034504 0.0042476 -0.0057796 -0.005931 0.004957 0.0055231 -0.0062536 0.008614 0.0017146 -0.0057786 0.0066883 0.0066883 0.0085131 -0.0099632 -0.0066934 0.0077373 -0.00363 -0.0022786 -0.0081714 0.0028454 0.0018554 0.00016593 0.010139 0.0039566 0.0023783 -0.0024312 -0.0077043 0.0044078 -0.0087758 0.00090508 -0.01029 -0.0088827 0.0055002 0.0060638 -0.0043871 -0.0014749 0.0050426 -0.0043364 -0.0021144 0.0053387 0.0025656 
주문가능 0.0035418 0.0027408 -0.0045639 0.0011527 0.0046164 0.0070769 -0.0064628 -0.0044794 0.01009 0.0064808 0.0058852 0.0061733 -0.0046648 0.0052872 0.0033585 -0.0059867 0.0019365 0.0035472 -0.0063159 -0.0028751 -0.00070034 0.0064208 0.0099394 0.0057261 0.00097398 0.0020563 0.0073736 -0.001756 -0.0033613 0.0056899 0.0097848 -0.0014902 0.00020995 -0.0083084 -0.011175 -0.0069825 -0.0010774 -0.0042537 0.0092293 -0.00084841 -0.0067921 0.010055 0.0062232 0.0074627 0.0042537 0.0085865 -0.00029223 0.0057157 0.0065184 -0.00016843 0.0049407 0.0032365 0.00086129 -0.0060573 -0.001172 -0.0012425 0.0092421 -0.0027476 -0.0013273 0.0013505 0.0034988 -0.0089896 0.01031 0.0031882 0.0016158 0.0042135 0.0079779 0.00198 0.0056973 -0.0039173 -0.0047485 0.0046048 0.0088953 0.0061195 0.0056446 -0.00041453 0.0035836 -0.0018906 0.0086787 0.0049892 -0.0061687 0.0016563 0.0023633 0.0076641 0.0017877 0.0054531 -0.009466 -0.0082725 0.0060648 0.0046525 0.0087929 0.0071575 0.010468 0.0086426 0.0035325 -0.010905 -0.00090965 0.006676 0.0054588 -0.0028363 
! 0.006851 -0.0068098 0.00010921 0.0017627 -0.00017564 -0.0085157 -0.0080089 0.0051315 0.0071373 -0.0072557 -0.0031731 0.0029588 -0.0057814 0.00080664 -0.01016 0.009824 0.007677 0.00055468 -0.0012858 -0.0098566 0.0049395 0.00035143 -0.0089222 -0.0049259 -0.0054323 0.0065933 0.0035114 -0.0086836 -0.0028417 0.0055724 -0.0044682 -0.0033555 0.00024044 -0.0043671 -0.0014177 -0.0038004 0.0065443 0.00049914 0.0025151 -0.0065973 0.0079119 0.0032966 -0.0023864 0.0043799 0.0033797 -0.0068589 0.0058344 -0.00508 -0.0059539 -0.003392 -0.0089901 0.0037047 -0.0057073 -0.0035115 0.0072163 -0.0069753 0.0041611 0.0018203 -0.0017873 -0.00076865 -0.0095783 -0.0055316 0.0092872 0.010372 -0.004129 0.0074047 0.0045355 0.0097149 -0.001616 0.007299 -0.007491 0.0065855 0.001186 0.00063007 0.00022907 -0.0091071 -0.00078321 0.0087218 0.008112 0.0076924 0.0092776 -0.0019456 -0.0009926 -0.010489 0.0035486 -0.001254 0.0011728 -0.0014372 0.0063112 -0.0091912 0.0098215 -0.0062827 0.0085517 0.0020905 0.00042342 -0.0048159 -0.00249 -0.00091212 -0.0054102 0.005411 
주문하겠습니다 0.0060961 0.0087532 -0.0078109 -0.0082783 0.0027799 -0.0073551 -0.0037815 0.007646 0.00096165 0.0055067 -0.006943 -0.0020166 0.0046538 0.0095081 0.0062432 0.0065746 -0.0051423 -0.0030918 0.0026387 -0.0045999 0.002767 0.0025067 -6.9536e-05 0.002262 -0.0027954 -0.0035489 0.00858 -0.010708 0.00074592 -0.0076259 -0.0038391 -0.0077061 0.0051993 -0.0057164 -0.0054204 -0.0054894 0.0019556 -0.0085229 -0.0078798 0.0043134 0.0061487 0.00082287 0.0014506 -0.0027462 0.0016712 -0.0092947 -0.0072447 0.0088951 -0.0022202 -0.003659 -0.009914 0.010048 -0.0090065 0.006068 -0.0085717 -0.0017816 -0.0056031 0.008917 0.0083904 0.0094123 0.0082585 0.00042605 0.0098304 0.0099331 -0.00139 0.002751 0.0054944 -0.0033808 -0.0069322 0.0030874 -0.0052855 -0.00041308 0.0036968 -0.0013189 -0.00073161 0.0017987 0.0084173 0.0017027 0.0019357 -0.0032849 0.0047972 -0.0089749 0.0060485 -0.00041517 0.008147 0.0088877 0.00020936 0.0070249 0.0047201 -0.00094925 0.0024273 0.0079294 0.011037 -0.010226 -0.0073975 -0.00381 -0.0056808 0.0045254 -0.0036499 0.0037114 
주문부탁드립니다 0.0033547 -0.003422 0.0067717 0.0062875 0.0094499 0.0091172 0.000932 -0.0014229 0.0016315 0.0059361 -0.0085162 -0.0092011 0.0033557 0.0045118 0.0013406 0.0012574 -0.0044688 -0.0058966 -0.0090713 -0.010709 0.0059423 0.0044465 0.0087902 0.0038097 -0.0051796 -0.0082382 -0.0026061 0.0053748 0.001376 0.003606 0.003534 -0.00042252 0.0047426 0.0058355 -0.0054799 -0.00092951 -0.0087552 0.0068034 -0.0025453 -0.0089838 -0.001049 0.0059821 -0.0070647 0.0090974 0.0051941 0.0095163 0.00025479 -0.0086113 -0.00029066 -0.0076137 -0.0058692 0.005786 0.001726 0.00082504 -0.0058706 0.0049566 0.0066626 -0.002901 0.005671 -0.0076943 -0.0093324 0.0017944 -0.0075031 0.0028339 0.0035554 -0.0032768 0.0034585 0.0081784 0.003632 0.0092824 -0.0085736 -0.001419 -0.0048781 -0.0062282 -0.0057813 -0.0022172 0.0083027 0.0071209 0.006668 -0.0022238 0.0080597 0.0027808 0.0016462 -0.00061019 -0.0093432 0.0051717 -0.0080583 -0.00048962 0.0050746 -0.010158 0.0069449 -0.0012151 0.0083834 -0.0094315 -0.0043409 -0.00084669 -0.0055776 0.0091947 0.0021255 0.0061168 
있을까요 0.0019338 -0.0084746 0.0045551 0.0093407 -0.0068705 0.0027627 0.0056458 0.0032302 0.010575 -0.0012474 -0.0049233 0.0014903 0.0050624 0.0068073 0.003111 0.0061524 0.0028093 -0.0046757 0.0070558 -0.0046482 -0.0097218 -0.0015554 0.0068015 0.0007325 0.0040862 -0.0051537 -0.0020413 0.0020856 -0.0046082 -0.0060047 -0.0017887 -0.0031854 -0.0051511 0.0024965 -0.009755 -0.0052759 0.0088687 0.0051311 0.0069854 0.0089617 -0.0076254 0.002637 0.00096413 0.00882 0.0060008 0.0063886 -0.0045295 0.0009887 0.0033977 0.0089392 0.003488 -0.0059776 -0.0097093 0.0011054 -0.006019 -0.0037077 0.0078172 -0.0026077 -0.0042136 0.0064907 -0.0096968 0.0024527 -0.0033393 0.0060677 -0.0088399 -0.0032993 0.0027409 0.0026089 -0.0020907 -0.0064411 -0.010127 0.0093844 0.0068404 0.0093524 -0.0068219 0.007503 0.0070063 -9.7207e-05 0.00030248 -0.0082394 0.0063878 0.0080813 -0.0034264 -0.0080227 0.0042476 0.0010559 -0.0030818 0.0092168 -0.0019182 -0.0095395 0.0059856 0.0092411 0.00635 0.0011943 -0.0087701 -0.0062816 -0.0025683 -0.0089794 -0.0076107 -0.0045884 
있어 0.0028146 0.0083387 -0.0036678 -0.0084212 0.002928 0.0058895 -0.0098496 0.0021002 -0.0056971 -0.0044631 -0.0021782 0.0088204 -0.0012703 0.0085984 -0.0044919 0.0052536 0.0049955 0.0017723 0.0097034 -0.0059465 0.0088023 -0.0081421 0.0097494 -0.00076242 -0.00038416 -0.0051892 0.0063258 -0.0042578 -0.0078798 0.0020474 0.0094209 0.0076649 0.00029533 0.0079563 -0.00058358 -0.0095735 -0.004779 -0.003075 -0.0086874 0.0041289 0.0055092 0.0098021 -0.0025718 3.4273e-05 0.0033088 -0.0077286 0.0048497 0.0030707 -0.00020471 -0.0080998 -0.0027112 0.0070519 0.0033283 -0.0055627 -0.0059863 -0.0037503 -0.002697 -0.0075836 -0.00027456 -0.00063241 -0.0063673 0.00014149 0.0050722 0.0017836 -0.009278 -0.0098143 0.0049231 0.00025163 0.0063422 0.0035343 -0.0099141 -0.00032113 -8.9953e-05 0.00052354 -0.0048647 0.0047779 -0.0086415 0.0030275 0.0015366 0.0025205 -0.00010057 -0.0045371 0.0028064 -0.0078577 0.0034003 0.008408 0.00015191 0.00042993 -0.0046188 -0.0072531 0.0082332 -0.0046136 -0.0056734 -0.006008 0.0091793 -0.010588 0.0015324 0.0019479 0.0078616 -0.0063195 
주문해줘 -0.003517 0.007823 0.006827 0.0061677 -0.0063517 0.0075075 -0.00011445 0.001871 0.011209 0.0068844 -0.0016703 -0.0031061 0.0010499 0.0034199 -0.0080982 0.0085567 0.0067975 0.0075186 -0.0073505 0.0055971 -0.0008382 0.010942 -0.009066 -0.002947 0.0011912 0.0027639 0.0077861 0.0064625 -0.0095312 -0.0022133 0.0061282 -0.00055621 0.0082375 0.00096263 0.0014181 0.0067208 0.0066912 0.0075621 -0.0059286 0.0043726 -0.0077442 0.0031012 -0.0089106 0.0032435 0.0066004 3.0826e-05 0.010136 -0.0043966 -0.0072511 -0.0067005 0.0069264 0.010773 0.0032567 0.0094459 -0.003658 -0.009321 -0.0050132 0.0082464 0.0085509 0.0027069 -0.0042116 0.0014589 -0.0037175 0.0075388 0.0031302 -0.009326 0.0081565 0.0015195 0.0077371 0.0024662 0.0027313 -0.0021568 -0.0078831 -0.0083002 0.000478 -0.0042512 0.0023563 -0.0076212 -0.00091296 -0.0025721 -0.0036432 0.0045308 -0.00098689 0.00052483 -0.010102 -0.0013755 0.0096042 -0.0021691 -0.0011924 -0.0087608 -0.0024485 -0.0082458 0.0015765 -0.01014 0.0050477 0.0016232 0.0009632 0.0025552 0.004214 -0.0099813 
해줄 -0.0055005 0.0055119 -0.0027382 0.0082089 -0.0012543 0.0093432 -0.0058038 -0.0058641 0.0052266 -0.0063419 -0.0017892 -0.0060901 0.0035533 0.010413 -0.0084868 0.0080411 0.0075618 -0.008028 -0.0081743 0.0037561 -0.0015316 0.0032565 -0.0061283 0.00023601 -0.0089789 -0.0055807 -0.0088633 0.0027123 0.0016243 -0.003601 0.0054487 -0.0095969 0.0066877 0.0056765 0.0063514 -0.0093556 0.0076475 0.0067316 -0.0052227 0.002286 -0.007841 -0.0072564 -0.0020635 0.0053311 0.0028535 0.0082468 0.0063165 0.0030453 0.0073721 -0.0093294 0.0082784 0.0056422 -0.0037115 -0.0036344 -0.0079008 -0.0054366 -0.0042737 0.0043348 -0.0016019 0.0074601 0.0074936 0.0094702 -0.0030706 -0.003347 -0.0048116 -0.0027637 -0.0077453 -0.0018753 -0.0066941 -0.009751 0.0037758 0.0051268 -0.002495 0.0012727 0.00034272 -0.0012655 -0.00047972 -0.0087929 -0.0037191 0.0055804 -0.00037535 -0.0051599 -0.0046492 0.0071154 0.0062891 0.0086134 0.00078738 0.0076272 -0.006114 0.0084211 -0.0020993 -0.0038835 0.0099041 -0.0036181 0.0032656 0.0053213 0.010049 0.0064099 0.0053614 0.0073303 
있어? 0.0053746 0.0030378 -0.0098432 0.0018041 0.0056662 0.001936 -0.0047028 -0.0058769 0.0034879 0.0084041 -0.008205 0.0026019 -0.0012045 0.0019835 0.0017865 0.0080845 -0.0035769 0.005363 0.0041532 0.00070275 0.003656 0.0017745 0.00095787 -0.0042852 0.0070435 -0.0016859 0.0066584 -0.0040283 -0.0070679 0.010152 -0.0019788 -0.00052015 0.0029244 0.007022 -0.0048936 0.004899 0.0018234 -0.00049368 -0.0026285 0.0023819 -0.0017844 -0.00598 0.0034498 -0.0057026 -0.003893 -0.0093597 -0.0059762 -0.003252 -0.0075064 0.0011373 0.0070838 -0.0039221 0.0055973 -0.0081792 0.0037493 0.0078034 0.0096614 -0.0038961 0.0089955 -0.0032629 0.0034294 -0.0024609 -0.0021813 0.0090043 -0.0047374 0.0024542 0.0060368 -0.0024926 0.0096948 0.0096963 -0.0070639 0.005998 -0.0028686 0.0039962 -0.0081992 -0.0098173 -0.004641 0.0067841 0.00077733 0.0034904 -0.003903 -0.0022196 -0.0071224 -0.0070254 -0.002135 0.0066065 0.0031352 0.0051094 -0.0051636 0.0038182 0.010667 0.0013797 0.0012352 -0.0042461 0.0060668 -0.010434 -0.0033848 -0.0076473 -5.0151e-05 0.004983 
ㅈㅁ 0.0038549 -0.0038723 0.0020677 0.0068289 -0.0048428 -0.008033 -0.008081 -0.0035298 0.011308 -0.0036926 -0.0067394 0.0093583 -0.0069295 -0.0068792 -0.0094037 0.0088532 0.0029092 -0.007159 -0.0085566 0.006214 0.0022664 0.0027703 -0.00012475 -0.0042157 0.0035172 0.000704 0.0050995 -0.011457 -0.0084025 0.0016974 0.0082377 -0.0037172 -0.0096961 -0.0072759 -0.012754 -0.0048506 -0.0087166 -0.010229 0.0036103 0.0011101 -0.0060841 0.0068586 0.0039977 -0.00019797 -0.009138 0.0070023 -0.0039676 -0.0081679 -0.006315 -0.0048592 -0.0067687 -0.0018991 0.0078194 0.0090553 0.0018734 0.0079856 -0.0070315 -0.0003777 0.0015152 0.0020009 0.0059059 -0.008095 0.0027105 0.0043902 -0.011135 -0.0096614 0.0063972 0.0039673 0.0036906 -0.0038821 -0.0095606 0.005304 4.2655e-05 0.0069464 0.0024036 0.0021457 0.0030442 0.0067321 -0.0011714 -0.0017019 -0.0048361 -0.0067177 0.0010235 -0.0015432 -0.0062722 0.0042014 -0.0043444 -0.0010312 -0.0083526 -0.009858 -0.0070213 -0.0065267 -0.0054868 0.0015909 0.00068818 -0.011391 -0.0047704 0.0019234 -0.0082179 -0.0015147 
주문하고 0.00072884 -0.0002487 0.0014733 0.008598 0.0046403 0.0048077 -0.00088891 -0.0067894 0.0018968 0.0039118 0.0027737 0.0012539 -0.0025307 -0.0028305 0.00069362 -0.0071596 -0.0050235 0.0097913 0.0019152 -0.0041722 -0.0022059 -0.0032844 -0.0061541 0.0082573 -0.0072438 -0.0063686 -0.0049823 -0.010677 -0.0020222 -0.0062898 -0.0093167 0.00086366 0.0064966 0.0056912 -0.0071066 0.00064485 0.00016392 -0.0019003 -0.00022958 0.0060746 -0.0013995 0.0080407 -0.0037604 0.0068702 -0.0094493 -0.0013288 0.0012695 0.0052476 0.0093724 0.0097518 -0.010453 0.0038987 0.00049288 0.0068119 0.0056671 -0.0080879 0.00018252 -0.0081213 0.0068683 -0.00030259 0.0057317 -0.0040827 0.010151 -2.7196e-05 0.0068761 -0.0028568 -0.0020538 0.0086118 -0.0048846 0.0016449 -0.010025 -0.0090261 0.0081723 -0.00073657 0.00077325 0.0028792 0.0097321 -0.0084923 0.010521 0.002309 -0.002078 0.0023103 0.0093117 0.0011419 0.003 -0.0010095 0.0080176 0.0063814 -0.0057215 -0.002908 0.0051806 -0.0087327 0.010609 0.0070422 -0.0007269 -0.0096935 0.0013487 0.0025292 -0.004804 0.0065486 
싶어 -0.0059688 -0.0077997 -0.0027966 0.00081934 0.0098315 0.008449 0.0074978 0.00027857 0.0034938 0.010852 -0.0040395 0.0054956 -0.0070305 -0.0011576 -0.0097658 -0.0083628 0.00071948 -0.0089115 0.00069735 -0.0055443 -0.0025826 0.0043855 0.0042964 -0.00083275 0.0045035 0.0049681 -0.0022577 0.00074548 -0.0030615 0.0097709 -0.0013605 0.0081874 -0.0099027 -0.0058547 0.0066938 -0.0045995 -0.0072533 -0.0062642 0.0069934 -0.0078112 -0.0080793 0.00054878 -0.0022316 0.0081844 0.00096762 -0.0021386 -0.0057991 -0.0061667 0.0066525 0.0056675 0.0078237 -0.0063679 0.001446 0.0049524 -0.0092439 -0.0078921 -0.0085159 0.0011394 -0.00661 0.0099887 0.0092957 0.0096231 -0.0019274 -0.0078693 -0.0020331 0.0030274 -0.0021795 -0.0062315 -0.0087193 0.0088372 0.0088676 -0.0054762 -0.0088377 -0.0020186 -0.0038706 0.0095354 0.0097243 -0.0055189 -0.0085029 0.0061567 0.008598 0.0093972 0.0087587 0.008295 0.0038132 -0.00061982 -0.0084467 -0.0017623 0.0085947 -0.0085244 -0.0039144 -0.0012172 0.0044214 0.0080009 0.0058344 0.0010449 -0.0095746 0.0040927 0.0025749 -0.0070341 
배달할래 -0.0032774 0.011237 0.0068196 0.004607 -0.0012156 -0.0051181 -0.0023453 0.0056248 -0.001265 0.0049244 -0.0032426 0.0035443 0.0022133 -0.0025638 0.0041596 0.0043802 0.0074712 -0.0011307 -0.00072637 -0.00036821 0.0026353 0.0055836 -0.003874 -0.0028727 0.0010835 -0.0067673 0.0067018 0.0010891 -0.0016205 0.0056928 -0.00017204 0.0010545 0.007358 0.0029913 0.00047439 -0.0073669 -0.0025595 -0.0060558 0.0010478 -0.010242 0.0087492 0.0090358 -0.00062596 -0.0019435 -0.0042806 0.00012725 0.0081191 -0.0008693 0.0028747 0.0042098 0.0054853 -0.0056772 0.0078922 0.007288 -0.0056552 0.0066576 -0.0059929 -0.0082981 0.0033822 0.001652 0.0037368 0.0036368 -0.0071016 0.011473 0.0067288 -0.0074614 -0.0070328 0.0057682 -0.0042888 -0.006025 0.003365 0.01085 -0.0086351 0.0043852 -0.0054504 -0.0015126 0.011881 0.0090469 -0.0048438 0.0045282 -0.0079814 -0.0054407 0.0013912 0.0026103 0.0031769 -0.0019367 0.002518 0.0013626 -0.010025 0.0082472 0.0016153 0.00025139 0.011625 0.0021041 -0.0080852 0.004882 -0.0088683 -0.0073006 0.0057812 -0.0097022 
한가요 -0.0022451 0.009482 -0.0074513 -0.0076268 -0.0025504 0.0070604 0.0017716 0.00075881 0.0012317 0.0041692 0.0035025 0.007307 -0.0075846 0.0037909 0.0066922 -0.0057619 -0.004014 -0.00056268 0.003549 -0.00107 -0.007574 0.0028018 0.0046664 0.0051779 0.00035947 -0.0030414 0.0096641 -0.00045963 -0.00061605 0.0084434 -0.0073966 0.010061 -9.3622e-05 -0.0060966 0.0072985 0.0021042 -0.0031184 -0.00046369 0.0041779 -0.003341 0.0054621 0.0058314 0.0024137 0.008611 0.0016663 -0.0052609 -0.0045808 0.0045972 -0.0045975 -0.002601 0.003485 0.0049432 -0.0051495 -0.0016537 -0.0076248 -0.00044493 -0.0087583 0.0023773 -0.0034588 0.007189 0.002987 -0.0063755 0.0051302 2.6317e-05 -0.009877 0.0056477 0.0045991 -0.0072793 -0.0005218 0.0039232 0.0030854 -0.0086052 -0.0057938 0.0022708 0.0033944 -0.0048021 -0.0041803 0.0097568 -0.0072975 -0.0094405 -0.0049039 0.0050443 0.0022509 0.00091555 0.0064608 -0.00070647 0.0095317 0.0063011 0.0039352 -0.010216 0.0095955 -0.00044073 -0.00036826 0.0058361 -0.0048085 0.0086261 0.006102 -0.0084908 0.005211 0.0038576 
해도 -0.0039104 -0.0093395 0.0065529 -0.0052329 -0.0052674 -0.0087799 -0.0060523 -0.0039049 -0.0073644 0.0058244 0.0016724 -0.0086139 0.0088025 0.0032836 0.005622 -0.0092925 -0.0056129 0.0057193 -0.0087035 0.0079378 0.00012707 0.0079844 -0.004547 -0.0074261 0.0029094 0.00087585 -0.0026244 0.0021311 0.0065107 0.00048705 -0.0092449 0.00677 0.0031689 0.0070369 0.0087047 0.0005626 0.0022109 0.0045819 0.0078171 0.0080306 -0.0034077 0.0024172 -0.0073696 -0.0034435 -0.00081345 -0.0048695 0.0028418 0.004107 0.008765 -0.0034418 0.0069736 -0.0048857 -0.00014647 -0.0038355 -0.0053652 0.0043054 -0.0032338 0.0024268 0.0076442 0.0059277 0.0075429 0.0023266 -0.0018121 -0.0036393 0.0056262 0.0057674 0.0074902 0.00048753 -0.0066826 -0.0049289 0.0033706 -0.0013032 0.0053258 0.00035921 0.00042629 3.7581e-05 0.0035165 -0.0069882 0.010092 -0.0094269 -0.0072884 -0.0066171 0.0043316 -0.0043524 0.0078955 -0.0029068 -0.0086179 0.0023482 -0.0066352 -0.0067207 -0.0037933 -0.0062759 0.0073792 -0.0089335 -0.0043511 0.0086787 -0.0038109 -0.0074588 -0.004835 -0.010018 
돼 -0.006341 -0.0088596 -0.0046042 -0.0022641 -0.0083899 -0.0067113 0.005246 0.003653 0.0097012 -0.0030507 -0.0038664 -0.00011847 -0.0050316 -0.005475 -0.0056053 -0.0056406 -0.0087884 9.3411e-05 -0.0070563 -0.0047951 -0.0069826 -0.0065798 -0.0073283 0.0049778 7.5557e-05 -0.0055528 0.0062185 -0.0029291 -0.0027355 0.0095234 0.0079175 -0.0045632 -0.0012431 -0.0066753 -0.005228 0.0020862 -0.0062357 -0.0073668 0.0042822 0.0086704 0.0017103 -0.0034869 0.009797 -0.0059722 0.003517 -0.0022476 0.0036295 -0.0094903 -0.0047194 -0.0078188 0.0082922 0.0019273 -0.0010032 -0.0081951 -0.0022224 -0.0016141 -0.00040064 0.0041819 0.0064271 -0.00070904 -0.010072 -0.00020734 -0.0042132 0.0037121 -0.0097737 0.0030354 -0.005572 0.0076186 -0.0088277 -0.0077707 -0.0019927 0.010092 0.0084828 -0.00022641 0.0024759 -0.0068127 -0.00028018 -0.00082309 0.0025143 -0.0077743 0.0079684 0.0038574 -0.0062311 0.0077645 0.003707 0.0055538 -0.0050928 0.0058035 -0.010323 0.0061091 0.005628 -0.0058768 -0.00037305 -0.010701 -0.004 0.0074031 -0.0042081 0.010289 -0.0096288 0.0091688 
시켜줘 0.0061671 -0.0030878 -0.008216 0.0062106 0.0090884 0.0039393 0.0030903 -0.006396 -0.0049178 -0.0043194 5.7192e-05 0.006407 -0.0078802 -0.0021452 -0.0088912 0.0066826 -0.0089629 0.0041548 0.0052022 0.0086203 0.0038091 0.0090647 -0.0035031 -0.0096398 -0.0065836 0.0025086 0.0098586 0.0040852 0.0083754 0.0028717 0.0088628 0.0061859 0.00014624 -0.0051245 -0.0018564 0.0036155 0.003711 -0.00055066 0.0031872 -0.0070649 0.0022543 0.0050493 -0.00055145 0.0071893 -0.0084839 -0.0079804 -0.0031873 -0.0048072 -0.004474 -0.0078756 -0.00094312 0.0019471 -0.0068935 -0.0029064 0.0055672 -0.010142 -0.0034654 0.009943 -0.00060944 0.0031522 0.0062149 -0.0033286 0.0052923 -0.00032117 0.0041244 0.0027959 -0.00713 0.0014465 0.0083627 -0.0028431 0.0069222 0.0042727 0.0083407 0.0048823 -0.010157 -0.0092214 0.010876 0.0053911 0.0079886 0.0046982 -0.0034242 0.0013859 0.0070053 0.0061558 -0.0060051 0.0040172 0.0018082 -0.00065633 0.0059613 0.00035015 -0.0084607 -0.0087329 -0.0047859 -0.010455 0.0033286 -0.0060663 0.00037424 -0.0042057 0.0033361 -0.002567 
시켜 -0.00033737 -0.0019772 0.0034239 0.00034393 0.0063131 0.002031 0.0062554 -0.0084649 -0.0049652 0.0050138 0.006967 -0.00027989 -0.0030611 0.0022434 0.0090816 0.00023134 -0.0077553 -0.0051893 -0.0067359 -0.0054834 0.0070185 0.0052909 -0.0029548 -0.006175 0.0050378 0.0042152 -0.0032918 -0.0090553 0.00406 0.0047329 0.0069733 0.0040504 -0.0086516 0.0045631 -0.0077463 -0.0083949 -0.0074281 0.0093117 0.0030088 -0.01017 -0.004832 -0.0048819 0.0020133 0.0040245 -0.0048151 0.0026612 0.0045965 0.0071239 -0.00021735 0.0010035 0.0085185 -0.0021147 -0.0039873 0.00024674 -0.007913 0.0064988 -0.0047995 -0.004247 0.007286 0.0090383 -0.0090942 -0.0023569 0.00079101 0.0041578 -0.0047784 -0.0012471 0.0045491 0.0018241 -0.0088519 0.0035671 -0.0076953 -0.0034334 0.009262 0.0026225 -0.0074333 -0.0062603 0.0041397 -0.0071838 0.010686 -0.010757 0.00068858 -0.0060562 -0.0010585 -0.010179 -0.0063936 -0.0083171 -0.0036564 0.0024758 0.0068202 -0.0056043 -0.0059942 -0.0042776 0.009293 0.001763 -0.0039576 -0.0063103 -0.0047648 0.010153 -0.0082223 -0.0038971 
시켜줄래 0.0079656 -0.0060246 -0.0011727 -0.0045796 0.0095263 -0.0028961 -0.00015827 0.0072647 0.00080138 -0.0025846 0.0085067 0.0082049 0.0081437 -0.0034816 0.00080693 0.0082496 0.0085404 -0.0046744 0.0061837 -0.0050029 0.0024251 1.2037e-05 0.0019826 0.0014348 -0.0082012 0.00078084 -5.7137e-05 -0.0020286 0.008368 0.0048518 -0.0050436 0.002819 -0.010408 0.0070623 -0.00029402 0.0004512 0.0035433 -0.0063963 -0.0068271 0.0093747 0.0047087 0.0027627 0.008071 -0.00751 -0.0064487 0.0061998 0.0068169 0.00080925 -0.0067409 0.0068608 -0.00064924 -0.0024122 -0.0060415 0.0026164 -0.0092086 -0.0042455 0.0041051 0.0082724 0.0025956 0.0072471 -0.002463 0.0053901 -0.0022807 -3.1013e-05 0.004037 0.0016229 -0.0072385 0.0083532 0.008634 -0.00022987 -0.008248 -0.0092138 0.004413 -0.0031855 -0.0019767 -0.010032 -0.0067434 0.010148 0.0082913 0.0030372 0.00027802 -0.007515 -0.0037123 -0.0035812 0.0056731 0.00514 -0.00041364 0.0043536 -0.0041547 -0.00096653 -0.008956 -0.0041451 0.002622 -0.0021026 0.0026072 -0.0058014 -0.0051766 0.0030435 -0.0075566 -0.0012869 
피자좀 0.0063438 -0.0045478 0.0037732 -0.0023175 0.0042463 0.0093564 -0.001873 0.0032415 0.00074436 0.0051409 -0.0065229 0.0011713 0.0042612 0.0091373 0.0043381 0.0087161 0.005601 -0.0076939 -0.0042609 0.005941 -0.00089175 -0.0082491 -0.0041956 0.0039751 0.0068751 -0.0054819 -0.005509 -0.0039642 0.0032592 -0.00031803 0.005208 -0.0071474 0.0017448 0.0074524 -0.0075755 -0.0065113 0.0076843 0.0016811 -0.0051709 -0.0088873 -0.0078699 0.0095521 -0.0038454 -0.0048979 0.0065863 -0.0081163 -0.008236 -0.0048849 0.0080252 0.0076396 0.004316 0.0095983 0.0015661 -0.0025987 -0.0089347 0.0052329 -0.0072027 0.005238 -0.0067183 -0.00055552 -0.0013731 -0.0034085 0.0058278 -0.00067389 -0.0068274 -0.0087762 0.0071601 0.0083889 -0.0034264 -0.0037452 -0.0057321 -0.008977 0.0030039 -0.0017498 0.0094356 0.009765 0.0080211 -0.002545 0.0056685 0.0010303 0.0045175 -0.0074228 -0.0053103 0.0034 -0.007119 0.0040385 0.008637 0.0038975 0.0024622 -0.0017522 -0.0044916 -0.002204 0.011057 -0.0030316 0.0054315 0.0045168 -0.0060344 0.0069475 -0.0073711 -0.007898 
.. 0.0050898 -0.0073021 0.0073511 -0.0055568 0.0094545 0.0094667 -0.0045794 0.0060949 0.0069209 0.011367 0.0047149 -0.0021679 0.00099892 -0.0013276 -0.0050846 0.0049111 0.0065102 -0.0090999 -0.0086134 0.0061791 -0.0050742 -0.0047246 0.0065797 -0.0068386 -0.00047446 -0.0058228 0.0028708 -0.002594 -0.0088537 0.0041391 0.0049244 0.0027146 -0.0063433 -0.002747 -0.00049697 0.0024707 -0.0075609 -0.0091014 -0.0044793 0.0017005 -0.0012708 -0.0058406 -0.0013284 -0.0054383 -0.0023398 0.0095538 0.0040991 -0.0013965 0.0072235 0.0099344 0.0087015 0.0084877 -0.0060252 0.0073884 0.0012659 -0.0030745 -0.006999 6.4178e-05 -0.0027384 -0.009324 0.0035464 0.0037109 0.010121 -0.0086198 0.0071305 -0.0079608 -0.0097865 0.0046863 0.00067689 -0.0086943 0.0015904 -0.0015812 -0.0085736 0.0057367 0.00036475 0.0069907 -0.0010948 -0.0065395 0.0044408 0.0084383 0.0077558 0.0084046 0.00037588 -0.0097987 -0.004571 -0.0092404 0.009262 -0.0075715 -0.002774 -0.0038307 0.0020821 -0.0081416 -0.002937 0.0023633 0.0026071 -0.0030767 0.0080179 -0.0028902 -0.0097435 0.0057262 
가져와 0.0012808 0.0057667 0.0044521 -0.0024193 -0.0049828 0.0098425 0.0028353 0.00242 -0.0019871 0.0027974 -0.0013132 0.0071754 -0.0094796 0.0040582 -0.01002 0.0064461 0.0074909 -0.0034368 -0.0038078 -0.0067442 0.0079486 0.0063585 -0.0050895 0.0016806 0.008679 -0.00074489 -0.0076395 -0.0055346 -0.00076854 -0.0064391 0.00054767 -0.0060868 -0.00087324 -0.004695 -0.0069871 -0.0018769 0.0060014 0.0044127 -0.0065653 -0.00077671 0.0062594 0.0081127 -0.0010247 0.0084962 0.0053253 0.0064766 -0.008296 -0.0062972 -0.0090499 0.0015973 0.0040055 -0.0090369 -0.0072889 0.0013568 0.00066792 -0.0040337 -0.0064727 0.0021817 0.0060606 0.0048756 0.0049685 0.0098776 0.0044214 0.001979 0.0050602 9.0799e-05 0.0032458 -0.0033163 0.0068351 -0.0037281 -0.00090803 -0.004618 -0.0070611 0.0062111 -0.0014237 0.0065325 0.0074633 -0.0057212 0.0053532 0.00033872 -0.0094831 -0.0075511 -0.005322 -0.0072405 0.0051222 -0.0020541 0.0084669 -0.0038989 -0.0065004 0.0034642 -0.0072365 0.00026244 0.0031663 -0.0019245 0.0030376 -0.004706 -0.0023115 0.010327 0.0071467 0.002714 
내놔 -1.7877e-05 0.0019688 -0.0088727 -0.0089646 0.002059 0.002722 -0.00054272 -0.0042976 0.0061705 -0.0032487 0.0046618 0.0076578 -0.00024231 0.0064316 -0.0096221 -0.0056529 -0.0086286 -0.0087482 -0.00042648 0.0060171 0.0082886 0.0017291 0.0087029 -0.0041103 -0.0017069 -0.010762 -0.0010125 0.00037619 -0.0016649 0.0068106 -0.0076837 0.0080031 -0.0093599 0.0028475 -0.0048523 -0.0049626 0.0026622 0.0012301 -0.007695 0.0047111 -0.00047549 -0.0071086 0.0056946 -0.0017539 -0.0022799 -0.0050545 0.0043124 -0.0011584 -4.7525e-05 0.0098864 -0.0055446 -0.0041961 0.0085154 -0.0094107 -0.010564 -0.0052739 0.0016723 0.0056175 -0.0087318 -0.002344 0.0038645 0.0056279 0.00086827 -0.0028996 -0.0044811 0.0087585 -0.002854 -0.00083816 0.0044931 -0.0014077 0.0047341 0.010219 -0.00059627 0.0049096 -0.00537 -0.0028119 0.0043629 -0.0023743 -0.004092 -0.010422 0.0060868 0.0037537 0.0055162 -0.0066485 0.0043119 0.0011857 0.0012925 -0.0086363 -0.0027945 0.0021262 0.0060156 -0.0031769 0.011413 -0.0022954 -0.0028359 -0.00020588 -0.0072486 0.0039038 -0.0035618 -0.0089245 
얼마예요 -0.0040824 -0.00269 0.0048248 -0.0065512 0.0066356 0.0047295 -0.0045639 -0.0016691 -0.00063072 0.0068174 0.0093281 0.008364 -0.008285 -0.0046979 0.0078194 -0.0051815 -0.00092855 0.003636 -0.0047721 -0.0049063 0.0084208 -0.0052209 0.0016953 -0.0070665 0.00067003 0.0057821 0.0055745 0.010629 -0.0020864 0.008974 0.0037505 0.0096403 -0.0047509 0.009792 0.0048683 0.0016171 0.0092611 0.0065082 -0.0071831 -0.0090626 -0.0040146 0.0060556 -0.0075688 -0.0023787 0.0074367 -0.00063487 0.00214 0.0042069 0.0011722 -0.0011042 -0.005377 0.0042216 -0.0020314 -0.0034934 0.0042244 0.0044466 0.010118 -0.0053188 0.0093699 -0.0025948 -0.0092801 0.0045104 0.0033207 0.0016125 0.0079325 -0.005938 -0.00082466 0.0051559 0.0074056 -0.0084003 0.0011347 -0.0063662 -0.0036901 -0.0023121 -0.0047981 -0.0088372 -0.010339 0.0040659 -0.00031044 0.0059913 0.0037603 0.0051106 -0.0039566 -0.006933 0.0084688 -0.0052442 0.0084035 0.0050547 -0.007045 0.0035954 -0.010016 0.0024976 -0.0049028 0.0087707 -0.0050392 -0.0085057 -0.0021713 -0.0025336 0.0096718 0.0037384 
얼마 0.010007 -0.002827 0.00051905 0.005095 0.000581 0.0038843 0.0027533 0.0044924 0.005604 -0.0051818 0.0046529 0.0059491 -0.0074486 0.0047235 -0.0063802 0.0044437 -0.002906 0.0055549 0.0016599 0.010092 0.0017719 0.0053921 0.00072146 -0.0028074 -0.0084571 0.0074359 -0.010846 0.0029766 0.0031419 0.0023895 -0.0069761 0.0088272 -0.0018362 0.00052232 -9.2404e-05 -0.0048988 0.0034155 -0.0091039 -0.00046284 0.0076853 -0.0065894 -0.0087111 0.008506 0.0027532 -0.0099484 -0.0037613 -0.0057588 0.00069817 -0.0074685 0.0013393 0.0060085 -0.0090577 0.0058328 0.0029068 0.0001001 -0.0096364 -0.0033263 0.0032741 -0.0053045 0.0024561 0.00259 0.002827 -0.0060642 -0.0090773 -0.0072934 -0.0025065 -0.0031957 0.0038086 0.0059152 0.0067858 0.0022298 0.0053099 0.0031989 0.0049294 -0.0093244 -0.0089421 0.0084596 0.007987 0.00027573 0.0026577 -0.0087836 -0.0054406 -0.0069024 0.0042447 -0.0013207 0.010422 0.0064107 -0.0082693 0.0019133 -0.0053001 -0.0022242 -0.0076416 -0.0054807 -0.0041954 0.0048928 -0.0068774 -0.0056131 -0.0015561 0.0035042 0.0079226 
가격은 0.00062527 -0.00082031 -7.5761e-05 -0.0034655 0.0071276 -0.0074021 0.0032144 0.0083354 -0.007995 -0.005118 -0.0084631 0.0081689 0.0010753 -0.010375 0.0095987 -0.0092598 -0.0059098 -0.0096376 0.0064097 0.0061619 0.0067231 0.00012775 0.0029846 0.0094894 0.001512 -0.0028898 0.0017033 -0.0023833 0.0075411 -0.0090469 0.010034 0.0046925 0.00077163 0.0045371 -0.0023795 -0.0022928 1.3595e-05 -0.0034818 0.0011402 0.0029063 0.0010204 -0.0045938 -0.0018863 -0.0071701 0.003506 0.00095996 0.0021846 -0.0066235 0.010525 0.0069551 -0.0070411 0.00036318 -0.0044791 -0.0074415 0.006437 -0.0097526 0.0021963 0.0074689 -0.00083889 -0.00098765 0.00081844 -0.0085613 0.0085203 -0.008381 0.0014435 0.0039445 0.0036918 -0.0076714 0.0064307 -0.0073262 -0.0065217 -0.0086366 6.6852e-05 0.0080967 -0.0094913 0.0011898 -0.0034692 0.0047605 -0.0068019 0.0069333 0.0062977 -0.0066467 -0.0045978 0.00066743 -0.005213 -0.0062967 -0.0049451 -0.003371 -0.0070118 0.0059503 0.00035402 -0.0074585 0.0052045 -0.0064251 -0.0041511 0.0039045 -0.0032536 -0.0095682 -0.0083822 -0.00099701 
주문하고싶어요 -0.0091992 0.0014797 0.0069105 0.0019963 0.0029568 0.0089298 -0.0048704 -0.0041154 0.011117 0.00058471 0.0041328 -0.00054603 0.0061493 -3.4524e-06 -0.0098695 0.0059254 -0.0017877 -0.0089867 0.0064449 0.00020916 -0.0020343 0.0097317 0.007021 -0.0052241 -0.0084687 0.0074297 0.0089106 0.0021643 -0.010104 -0.0017171 0.0075301 0.0056933 -0.0065204 -0.0090489 -0.00048267 -0.00019324 0.0069336 -0.0018404 0.0037763 -0.008186 -0.00048006 -0.0031481 -0.0046783 -0.0056316 0.0050138 -0.0072995 0.01013 0.0045679 -0.0090284 -0.00079508 -0.0064647 -0.0044304 -0.0016802 0.00927 -0.00072702 0.0020554 -0.0085401 -0.008558 0.0079504 -0.0096408 -0.0094067 -0.0030778 -0.004059 0.004901 -0.0088434 0.00013918 -0.0038291 -0.0023157 0.0052179 -0.0061398 0.008343 0.0011995 0.0036018 0.0027301 -0.0085362 -0.0090767 -0.0010786 -0.0079158 0.0073634 0.0024003 0.0073079 0.009199 0.0072276 -0.0083399 -0.0074978 0.0013788 -0.0083787 0.0024467 -0.00047681 0.0093559 0.0048942 -0.0057997 -0.0017202 -0.010465 0.0035471 0.0019623 -0.00072869 0.0074097 0.006727 0.0032735 
알려주세요 -0.0020046 -0.0018844 0.00262 0.0023828 -0.00077661 0.0052188 -0.0049509 -0.0089248 -0.010103 -0.0024107 0.001704 -0.0093939 -0.001346 -0.0082906 -0.00016446 -0.010038 -0.0069512 0.0012517 0.0051562 0.0033982 -0.0019037 -0.0050328 0.0055613 0.0016596 0.0077632 -0.0057797 -0.0067532 -0.0080523 0.0074585 -0.010418 -0.0037787 -0.0073553 -0.0076386 -0.0054861 -0.0061934 0.00093266 0.0021283 -0.0078163 -0.0053042 0.00084173 -0.0066121 -0.0048981 -0.010439 0.008901 -0.0037759 -0.0087556 0.0095713 -0.00075386 0.0034535 0.0010689 0.0086435 -0.007523 0.0089543 -0.0021266 -0.0073412 -0.0068151 0.0041376 0.0080362 -0.0086701 -0.0024147 -0.0095178 0.0014134 -0.0016238 0.0050427 -0.0067261 0.0098859 -0.0073806 0.0060095 -0.006196 0.0046214 -0.0022851 -0.0036761 0.0029608 -0.0065498 -0.00035991 -0.0071746 0.0055152 0.0059154 -0.0059869 0.0084904 -0.001009 -0.0064664 -0.0041408 -0.0088465 -0.0060743 -0.0077531 -0.0098192 0.0035935 0.009856 -0.0061091 0.0049411 -0.0083321 0.007999 -0.0047836 0.0063923 -0.0061749 -0.0069956 -0.010396 -0.0050704 -0.0043889 
얼마나 -0.0057651 -0.0094187 0.0025557 -0.0054261 -0.0070132 -0.0065047 0.00070258 -0.0068878 0.0012566 0.0067149 0.0035475 -0.0043931 0.0079176 0.0062502 -0.0065967 -0.0021721 0.0054403 -0.0038328 0.0058186 -0.0061389 0.009485 0.0015403 -0.0021564 0.0053554 -0.0068782 0.0062281 -0.00010161 0.00241 -0.0072694 -0.0032403 0.0076297 -0.0070196 -0.0066723 0.0050928 0.0097068 -0.0084548 0.0023329 0.0041996 -0.010076 -0.0072926 -0.010143 -0.0030436 0.0055628 0.002238 -0.0096789 -0.0080678 -0.0052748 0.0013711 0.008792 0.0033756 -0.0060856 0.0045534 -0.00073909 0.0094241 0.0049658 -0.0082663 -0.0061924 0.00038233 -0.00052732 -0.0086279 -0.00080766 0.0028381 -0.0042403 0.0045326 -0.0038048 -0.00027677 0.010444 -0.00094212 0.0044059 -0.0054571 -0.0090611 0.0054017 0.0039437 -0.0037273 -0.0084851 -0.0030369 -0.0053918 0.0026476 -0.0046008 -0.0059165 0.0011623 0.0064989 -0.0047837 0.0041053 -0.0008364 -0.0050668 -0.0030155 -0.0068221 0.0068415 -0.0021149 0.0032034 0.0078401 0.0027197 0.010579 0.00028195 -0.0023863 -0.00021233 0.0076227 0.0038282 0.0038667 
냅니까 0.0018968 -0.0070255 -0.0044428 0.0029057 -0.0082073 -0.0068403 -0.00069688 0.0019542 0.0038588 0.0015205 0.0099741 -0.00057565 -0.0058207 0.0074247 0.0072181 -0.0062444 -0.0036226 -0.006913 -0.0057153 -0.0090655 -0.0037074 0.0039455 -0.0082202 0.0019563 -0.0039558 -0.0045795 -0.0050093 -0.0057319 -0.0011811 0.0087906 0.0069018 0.0097681 -0.007871 -0.0032593 -0.002082 -0.00033409 -0.0029192 -0.0052348 0.0048339 0.0019075 -0.0046209 -0.0094909 -0.0043602 0.0011165 0.0063357 0.0055662 -0.0067505 -0.0048432 0.0037738 -0.0088909 -0.0088637 0.0065563 -0.0072729 -0.0048454 0.0092847 -0.0073559 -0.0069303 -0.0002781 0.001473 -0.0019994 0.0046739 -0.0034542 0.0067492 0.0090755 0.0081913 0.005005 0.0058181 -0.0016456 0.00040338 5.0727e-05 -0.0003609 0.0076761 -0.0052709 0.00059729 -0.0081324 0.0046123 0.0046847 0.005883 0.006243 0.0014118 -0.0030896 0.0013926 0.0046961 0.0080313 0.0093073 -0.0092518 -0.0033137 -0.007132 -0.0019927 -0.0038363 -0.00018452 -0.00022141 0.0021378 0.0061527 0.008247 0.00027134 -0.0090504 0.0037357 -0.0022432 0.00023682 
알려줘 0.0083868 -0.0077218 -0.0037082 -0.00088177 -0.0053626 -0.010041 -0.0091577 0.0053399 -0.0059683 -0.0064023 -0.0077326 -0.003721 0.0061111 0.0045622 -0.0088129 0.005327 -0.0030657 -0.0072054 0.0017182 0.0070564 -0.0015532 0.0069694 0.0096664 0.0083083 -0.010055 0.0021809 0.0065837 0.0066878 0.0048696 0.0076033 -0.0062353 -0.0041981 0.00055864 0.0040133 -0.00030643 0.0095422 -0.0045887 -0.0074912 -0.0050055 -0.0041588 -0.010202 -0.0084783 0.0018521 0.00035088 -0.0062078 -0.0080448 0.0011698 0.0049933 0.0083977 0.0078627 -0.00064077 -0.008467 -0.0032647 0.0059143 0.0061638 0.009292 0.0097976 0.0048918 0.0011216 -0.0043268 0.00015739 -0.00041466 -0.0041058 -0.0021498 0.0091205 0.0040147 0.0092299 0.0016562 0.00029396 0.0095841 -0.0017394 0.0083319 -0.0066632 0.0049744 -0.003821 0.0013539 0.0012034 -0.0077838 0.0059302 -0.0081017 -0.0016899 0.0043711 -0.00061491 -0.0021343 0.0088831 0.0068481 0.0036911 0.0028453 0.0026624 0.0093753 -0.0015635 -0.0030683 -0.011494 0.0078835 0.0027214 0.0049675 -0.009684 -0.0016192 -0.0019955 0.0023333 
말해줘 -0.0060545 0.0069005 0.0066987 -0.0044722 -0.0081415 -0.0082072 -0.005484 -0.0078942 -0.00043925 -0.0011634 0.0048542 0.0068729 0.0012163 0.0078042 -0.00078724 -0.0039948 -0.0063658 0.0048529 -0.00011025 -0.008863 -0.0029282 -0.010531 0.0030532 -0.0023503 -0.0088005 0.001474 0.0034122 -0.0080958 0.009471 0.0065343 -0.0073072 0.0036655 -0.0047517 0.0052518 0.0081288 0.0040476 0.0073341 -0.0058871 -0.00206 -0.0044048 -0.0067327 -0.004844 0.00035863 -0.0036569 -0.0083759 0.00022532 -0.0056112 0.0097566 0.0043641 -0.0094651 -0.0021818 -0.00031185 -0.0078081 -0.0094684 0.0026213 0.0076925 0.006601 0.0089961 0.009376 0.0056722 -0.0071205 -0.00063217 -0.0079421 -0.0083032 0.010577 -0.0010693 0.00034453 -0.0079242 0.0081893 -0.00013136 0.0061106 -0.0083851 0.005713 0.0035158 0.00080598 0.0096532 -0.0039118 -0.0038777 -0.0082783 -0.0021132 -0.0064272 -0.00068497 0.0062344 -0.0070258 0.00064366 -0.0062758 0.0033638 -0.0085098 0.00063645 0.005326 0.0023014 0.0044698 -0.0090541 0.0041679 0.008925 0.007897 0.0073841 0.00036334 0.0068512 0.0058825 
얼만데 -0.0059744 0.0090539 -0.0048556 0.0059461 0.0046797 -0.0069183 0.0042615 -0.006666 -0.0021432 0.0017993 -0.0035716 -0.0032547 0.0051675 -0.0070761 -0.0048427 0.0036607 0.0015499 -0.0025449 -0.003632 -0.0062244 -0.0091862 0.0030881 -0.002412 -0.0017414 0.0062119 -0.006983 0.00021061 0.00943 -0.001861 0.0075922 -0.009004 -0.0063752 0.0032717 0.0016223 -0.0083678 -0.0071722 0.0089641 -0.0069954 0.0031136 0.0015249 -0.0039977 0.0032543 0.0060811 0.0057884 0.0012912 0.0060938 0.0068482 -0.0056765 -0.0019031 -0.0051846 0.0032325 -0.001444 0.0015471 -0.0072103 -0.0052335 0.0045662 -0.0068131 0.0062928 0.008407 0.0062421 0.0019318 0.0033398 -0.0096459 -0.010505 -0.0086768 0.0012641 -0.0067706 0.0060465 -0.0093975 -0.0079764 -0.0088002 -0.0085997 0.0038847 -0.0071324 -0.0079721 0.0043441 -0.010954 0.00072049 0.0081057 0.0035022 -0.0051451 -0.0048351 -0.0054917 0.00047221 -0.008807 -0.0020675 0.0060195 0.00041181 0.010402 0.010117 0.0063683 0.0030935 0.0011131 -0.0032997 0.0086123 0.0089974 0.0028025 -0.009376 -0.0016448 0.003571 
얼마인데 0.0026221 -0.0056087 0.0051265 -0.00079643 -0.00018974 -0.0056816 -0.003276 0.009209 -0.0021844 -0.0014855 -0.0060878 -0.00093886 -0.0034781 0.00068122 -0.0084685 0.0048253 -0.0029776 0.006688 -0.0021018 -0.0069039 0.0044398 -0.0071639 0.0022665 0.0053781 -0.0036144 -0.0057877 -0.0050262 0.010277 0.0082875 -0.0042225 0.0074669 -0.0052576 0.00012674 -0.0012517 0.0067079 0.0080753 0.0096872 -0.0048426 -0.0012926 -0.0028344 0.0069859 0.0027048 -0.0037467 -0.0093874 -0.00073756 0.0022723 0.0075043 -0.000906 0.0067241 -0.0054984 -0.0082065 -0.0070033 0.0037059 -0.0056885 0.00077535 0.00027733 0.0065654 -0.0067755 0.0091324 -0.0097064 0.0023367 -0.0027782 0.0067478 0.0091019 0.0025214 0.0063715 -0.0049753 -0.006604 0.003732 0.0065936 0.0039819 -0.0020813 -0.0074546 0.0037196 -0.0034188 0.0029537 -0.0084776 -0.0071806 -0.010167 -0.003356 0.0096232 0.0010332 0.005989 0.0068712 -0.0089281 -0.0054069 -0.0023092 0.0005678 0.0071693 0.0099583 -0.0088745 0.0046509 0.0037579 0.010434 0.0080737 -0.0089099 -0.0037379 -0.00042866 -0.0058764 -0.0060966 
