27 100
</s> -0.011532 0.016082 -0.0094551 -0.0093719 0.017855 0.0052593 0.0087729 -0.0024536 0.017415 0.020726 -0.0050538 0.0030798 0.013853 0.015165 -0.0080923 -0.0070223 -0.00061621 0.0099825 -0.00049043 -0.015624 -0.001725 0.016144 0.012675 -0.011841 0.0063772 -0.012765 0.0049082 -0.0095328 -0.0030957 0.018767 -0.013099 -0.0039776 -0.016593 -0.017756 -0.020714 -0.00031136 0.0010799 -0.014714 -0.0027576 -0.013714 0.015119 0.018388 0.0076634 0.0067892 -0.0010364 0.0019639 -0.0038701 -0.0073807 -0.01668 0.010814 -0.020042 0.017031 -0.018362 0.0097525 -0.0035485 -0.0068467 -0.00039496 0.0046649 0.0098744 0.0050825 -0.013774 0.012954 0.017288 0.014578 -0.0047897 0.0027589 -0.018958 0.0077937 0.010573 0.011908 -0.016293 0.0042774 -0.004476 -0.0032545 -0.0018931 -0.0073322 0.019189 0.01977 0.0033241 -0.0076833 -0.013322 0.011544 0.020237 -0.014998 -0.0054406 -0.016297 -0.00060726 -0.00079837 -0.0077381 -0.0044473 0.018817 0.011792 0.022385 -0.018312 0.00095498 -0.017041 0.0084004 0.019875 -0.011974 -0.00737 
주문 0.001259 0.0079937 0.0071408 -0.011839 0.011244 0.0094606 -0.0055724 0.00034118 -0.00067974 0.0020982 -0.0020247 -0.0063448 -0.0031435 0.0051197 -0.0075137 -0.0090257 0.0030432 0.0075789 -0.0074593 -0.0033478 -0.0049864 0.013208 0.0065566 0.0049051 -0.0082949 -0.0084758 -0.0086207 -0.0033151 -0.0027004 -0.0039969 -0.0073258 -0.00097996 0.0010465 -0.0099532 -0.010519 -0.002029 -0.0080362 0.0020923 -0.00075947 -0.0053306 -0.0080469 0.013422 -0.0035971 0.0049339 0.010152 0.0019798 0.0083017 -0.0043895 -0.0070228 0.0064407 -0.0057574 0.0011991 -0.0009953 0.0067119 -0.010093 0.0030632 -0.010248 0.0015733 0.010912 -0.0018244 -0.0027599 0.0063575 0.0095613 0.011368 0.0041535 -0.0028182 -0.011354 -0.0044865 -0.0048655 -0.0034443 -0.00082425 0.0065215 0.0056204 -0.0090074 -0.0030997 -0.0038534 -0.00037143 0.0066904 0.008022 0.004319 -0.0011069 -0.0037978 0.0064877 0.0006131 0.0046107 0.00054101 -0.0024645 -0.01032 -0.0062526 0.0069164 0.0062254 0.0050555 0.0073849 -0.0016263 0.0091398 -0.00070026 0.00013729 0.0062168 -0.0091092 -0.0090453 
배달 0.0067325 -0.0065888 -0.001497 -0.0047458 0.0026222 -0.0065995 -0.0081413 -0.0098636 0.010984 0.011189 -0.010592 -0.0024194 -0.0010218 -0.0045251 -0.0036042 0.0037142 0.0023182 -0.0021389 -0.0078506 0.0018482 0.0069743 -0.0048588 -0.0050537 0.0016091 -0.00028587 -0.0025644 0.0056892 -0.010486 -0.008591 0.0037779 0.0018891 0.0069243 -0.0058909 0.00097808 -0.010646 -0.0070996 -0.0078815 0.0078115 0.0085986 0.0070816 -0.0067666 0.0066114 0.0055181 0.00088532 0.0044699 0.0046458 0.0082605 0.0071569 0.0045023 0.0087997 -0.003977 0.0010563 0.0037751 -0.004724 -0.010151 0.0077115 0.0015526 -0.0077971 -0.0055539 -0.0038802 0.0084462 0.0099287 0.0087378 0.0083588 -0.0065424 0.0035204 -0.0076651 -0.0018266 0.0044104 -0.0077554 0.0060392 0.0042404 0.003347 -0.010574 -0.0093977 0.0026292 0.010507 -0.0019356 0.009836 -0.0084876 0.0078429 -0.0015082 -0.0050958 -0.0062513 -0.002153 -0.0083676 -0.002564 0.0092864 0.0057155 -0.0037718 -0.0046232 0.00070806 0.0092949 -0.0048117 0.00317 -0.0028497 -0.0017409 0.0071147 0.0046816 0.0078141 
가능한가요? 0.00014248 0.0097641 -0.0063339 -0.0038818 0.0016564 0.0082322 -0.0058002 -0.00059466 0.0065428 0.0072259 -0.004443 0.0089125 -0.0069314 0.0048564 0.005088 -0.0059499 -0.0068396 -0.0074824 0.0076392 0.0025214 0.0083954 0.0091803 0.00017511 0.0010349 -0.0070276 0.0043682 0.008047 -0.0026831 -0.0092904 -0.004363 0.006201 0.0052802 -0.0011008 0.0077072 -0.0026415 0.0078401 0.0019796 -0.0044016 -0.0017831 0.0037557 0.0025208 0.00031663 -0.0036601 -0.0064505 -0.00058306 -0.0043975 0.007333 -0.0013888 0.0040148 0.0070766 -0.010332 -0.0053451 0.00086879 -0.0064263 -0.002101 -0.0053568 -0.00040376 0.0029104 0.0047793 0.00077163 -0.0086414 0.0031649 0.0037902 -0.0077254 -0.0069692 0.0024948 -5.4413e-05 -0.005181 -0.0012319 -0.0037222 0.0082411 0.0028608 0.00052533 0.0037103 -0.00024259 0.0081495 0.0054054 0.0099585 0.0069246 -0.0078708 0.00079056 0.0035124 0.0087401 0.00494 0.0095509 -0.00054228 -0.0012972 0.0074244 -0.009485 -0.0089004 0.0017527 -0.0055096 0.0018144 0.0025169 -0.0061335 -0.0044988 0.00049933 0.0050449 -0.0028051 0.0019881 
주문할래 -0.0045285 0.0056103 -2.7683e-05 0.0009187 0.010483 0.0095971 0.0047052 -0.0096467 0.0060015 0.0052152 -0.00068617 -0.004736 -0.0043874 0.0033496 0.0084525 0.00034607 0.0027305 -0.0018861 -0.0059736 0.0083406 0.0082692 -0.0022028 -0.0039024 -0.0096297 0.0030027 0.0032957 0.0095081 0.003207 0.007237 0.0076684 0.0048826 -0.008881 -0.0085476 -0.0027525 3.0199e-05 0.0070307 -0.0093105 0.0088197 0.0057291 0.00010819 -0.0032896 -0.0015332 0.0079127 0.0097875 0.0050115 -0.0099587 -0.00078588 0.0085339 -0.0026126 -0.002404 -0.0062404 0.0059648 0.0036085 0.00071075 0.0091606 0.0072005 -0.0053137 0.0052616 -0.0090048 0.0093284 0.0023687 0.0024177 -0.0035345 -0.0003844 0.0072096 0.0055507 -0.0055408 -0.0086512 -0.0054796 0.0046472 -0.0046262 -0.0005939 -0.0074277 0.0065496 -0.005129 -0.0045089 -0.0060531 -0.0088499 0.0049353 -0.00274 -0.0081469 0.0023877 0.0016207 0.0029464 -0.00070998 -0.0037052 0.0024045 0.0053853 -0.0048493 0.0073758 0.0063531 0.0013742 0.010136 -0.001345 0.0022843 0.0069961 -0.00028212 -0.0079176 -0.0068727 -0.0064061 
주문하고싶어요. 0.0089642 0.0059536 0.0057641 -0.0052984 0.0065306 0.0040323 -0.0076268 -0.0031055 -0.0076372 0.01071 -0.00033797 0.0038732 -0.0047292 -0.00059469 -0.0068568 0.0033666 -0.0066072 -0.0077964 0.0071282 -0.0074145 -0.0071177 0.0029615 0.0071789 -0.0035966 0.0026192 0.0057306 0.0003363 -0.007244 -0.0084178 -0.0055714 -0.0075987 0.0067176 -0.0055933 -0.0024205 0.0026331 0.0062891 -0.0075187 -0.0057367 -0.0083881 0.0080994 -0.0056296 0.00087359 -0.003882 0.0038162 0.0082112 -0.003104 -0.0028823 -0.01018 -0.0061453 0.0089834 -0.0072484 -0.0074758 -0.01083 0.0069556 0.0039205 0.0024232 0.0017075 -0.00017179 0.0011455 -0.0021678 -0.0093115 -0.0029101 0.009687 -0.002623 0.0047837 0.0029077 -0.011046 -0.0061522 -0.0049466 0.0083508 -0.0028609 0.0070706 0.0096126 -0.01038 -0.0034871 -0.0027925 0.0041241 -0.0065487 -0.0056078 -0.0038209 0.0047319 0.0058397 0.0037752 0.0093124 0.0065359 -0.0023202 -0.0094559 0.0012024 -0.0092346 0.00954 -9.7396e-05 -0.00084607 -0.0066552 0.0010467 0.00037019 -0.00072826 -0.0083527 0.00055999 -0.0066747 -0.0083021 
하고 0.0071102 -0.00012097 0.0084663 -0.0087409 -0.0030422 0.0041183 0.0044447 -0.0018098 0.0013434 0.0012301 0.0003845 0.0059765 -0.0095772 -0.0089581 -0.0053927 0.0081157 -0.001784 -0.0020164 0.00045696 0.0045223 0.0076031 0.009863 0.0022389 -0.0049565 0.0020315 0.0051078 -0.0053951 -0.0010744 0.0003829 0.0097808 -0.0069737 -0.010019 -0.0066096 0.0011528 0.0032149 0.0060629 0.0043339 0.0031692 -0.00017438 0.00060119 -0.0037154 0.0072589 0.0054975 -0.0046529 0.0078435 -0.0061282 0.0095812 -0.0078199 -0.00072724 -0.0056015 0.0043131 0.0068894 -0.0063436 0.00052825 0.0046586 -0.0034723 -0.0013641 0.0032753 0.0084603 -0.0018273 -0.000894 0.006882 -0.0086647 -0.0085829 -0.0060599 0.0060961 -0.010602 0.0041481 -0.0008046 0.01036 -0.0083196 0.0023831 -0.0053273 -0.0031652 0.0012379 0.00072469 0.0004366 -0.007349 -0.0075827 -0.0032805 0.0062078 0.0080671 0.0047761 -0.00671 0.0069426 -0.0057287 0.0076868 0.0052788 0.0087477 0.00022514 -0.00094884 -0.0042949 -0.002322 -0.0014977 -0.0066622 -0.0084935 -0.0018933 -0.0033602 0.0077665 -0.0096632 
싶어요 -0.0068059 -0.0030552 -0.0084838 -0.0070319 0.0093003 -0.0024052 -0.003939 0.00094917 0.0014179 -0.0059901 0.0032726 -0.0086147 0.0003942 0.0097872 0.0061043 -0.0015442 -0.0052895 0.0012198 0.002084 0.0044705 0.0013494 -0.0030948 -0.006296 0.0024221 -0.0055641 -0.0061753 -0.0044513 0.0048719 -0.0047293 0.0027791 -0.0011612 0.0074718 0.0088163 0.0035224 -0.010034 0.0050632 0.0078374 -0.0093719 0.0080721 0.0019466 0.0054647 0.0062661 0.00042618 0.006981 0.0051794 0.0054172 0.0076364 0.0075004 0.0057138 0.010109 -0.0072464 -0.0001125 0.0049643 0.0087497 0.0022617 -0.0018312 0.00031941 0.0011923 0.0061182 -0.0071226 -0.0015159 -0.0075785 0.0099724 -0.008294 -0.0065465 -0.0072437 0.0021301 -0.0024033 -0.0084891 -0.0044555 -0.0064138 0.0060565 -0.0087341 0.00080195 0.0082032 0.0083096 -0.0055882 0.007276 -0.0042758 -0.0031616 -0.0026252 -0.0038188 0.0082837 0.007723 0.00083244 0.0086151 -0.00092939 0.0043417 0.00046091 -0.0032239 0.010097 -0.0030066 -0.0083745 -0.0051301 -0.0099415 -0.006365 -0.0031438 -0.0091683 0.0066032 -0.0031359 
주문가능? 0.0056694 -0.0045247 0.008029 -0.0044739 0.0089008 -0.0092973 -0.0016556 0.0023554 -0.0075624 -0.0021406 -0.0091288 -0.0026479 -0.0034354 0.01075 0.0036595 -0.0075441 0.0014082 0.0056695 0.00824 -0.0016499 -0.0087492 -0.0015983 0.004276 -0.0065735 -0.00028157 -0.004227 0.0094438 -0.0097253 0.0086243 0.0063262 0.0010588 0.0097019 0.0039445 -0.0035984 -0.0083248 0.0025473 0.0082943 0.0032898 0.0015282 0.0087424 -0.0078123 -0.0082835 0.010049 0.0076823 0.0079368 -0.008014 0.0038334 0.0047757 -0.004063 0.010844 -0.0052318 0.0056866 -0.0076323 0.0080089 -0.0019891 0.0071159 -0.0010538 -0.008932 -0.0034709 0.0052537 -0.0035912 0.002474 0.0073077 0.010968 -0.0027449 -0.0065549 0.0072493 -0.0044188 -0.0045991 -0.002578 0.0026873 -0.0083226 0.0021126 0.007779 0.008989 0.0069632 -0.0052935 0.007289 0.008972 0.0091237 -0.0021121 -0.0023953 -0.00058685 -0.0083066 0.0087986 0.0058649 0.0050514 0.0022405 -0.000249 0.0021458 -8.0263e-05 -0.0040088 0.010052 0.005167 -0.0047359 -0.0032589 -0.0022293 0.010682 0.0067908 -0.0042349 
가능? -0.0072996 -8.4572e-05 0.0016003 0.0063488 -0.00050682 0.0072863 0.0048467 0.0007637 -0.0035648 -0.0059656 -0.0073825 -0.004916 0.0068882 -0.0088618 -0.0078685 -0.0065509 -0.0041362 -0.0095142 0.0023989 -0.0044319 -0.0045062 -0.0021266 0.0029952 -0.0045765 -0.0085693 -0.00076426 0.0072876 -0.0082133 0.0054659 -0.0060966 0.0020474 -0.0071233 0.0037604 -0.0063402 -0.0051067 -0.0016041 -0.0057403 0.007982 0.00065196 -0.00036084 0.0036049 0.0074744 -0.0017857 0.0042596 -0.00081482 0.00039361 0.0048168 -0.0023456 -0.0014975 -0.00098735 -0.0021524 -0.0072935 0.00069455 -0.0016445 0.0053155 0.0043981 0.0031174 0.0093484 0.010128 0.005762 -0.0053961 0.0030572 0.00083828 0.0054877 -0.0037867 -0.006719 -0.0040147 0.0092418 -0.0034378 0.005109 0.0031009 -0.0048733 0.0015589 0.0056058 1.7388e-05 0.0055237 -0.0023477 0.0020085 0.0069874 -0.0016859 0.0082126 -0.0057016 0.0065047 -0.0097771 -0.0067683 0.0010691 -0.010073 0.0048489 -0.0017081 -0.00010399 0.0031773 0.0082291 0.010924 -0.0058751 -0.0092183 -0.0038346 -0.0084427 0.0019693 -0.0053469 -0.010296 
배달할래 0.0061518 0.0032163 -0.0065773 0.0070031 0.010913 0.0017725 -0.0015799 -0.0017642 0.00021083 -0.00092151 0.0080065 0.0007284 0.00068808 0.0016955 -0.0027529 -0.0037946 -0.00065411 -0.006337 0.0087576 0.0058035 0.0026833 -0.00022189 0.01039 -0.010712 -0.0045448 -0.0084343 0.0079022 -0.0042049 -0.0039996 0.0028399 0.0088924 -0.0078275 -0.0012892 -0.0046075 0.0050711 -0.0078737 -0.00036811 -0.0015765 -0.0013751 -0.0099357 -0.0042171 0.0001027 -0.0083679 -0.0023059 0.0072633 0.0099599 -0.0025929 0.0048638 -0.0077137 0.0016294 -0.011457 -0.0032783 0.0054322 -0.00030833 0.0030006 -0.0073833 0.001215 0.009765 0.0076295 0.0012796 0.0050552 0.0067905 0.0052136 0.0077417 -0.0040359 0.0099088 0.0027733 0.0010163 -0.0045394 0.010209 0.0081869 0.0096606 0.005986 -0.0080354 -0.0027776 -0.0022005 0.0015472 0.0089915 0.0048471 -0.0057332 -0.003294 0.0064807 -0.0021732 -0.0039119 0.009552 -0.0075141 -0.0040891 0.0002347 -0.0076681 -0.0024323 -0.0039248 0.0041266 0.0087058 -0.0095251 -0.0098823 -0.010234 0.0060479 -0.0013402 -0.0061244 0.0031781 
가능 0.0083084 0.006929 -0.0052344 0.0082493 -0.0031806 0.0060239 0.010127 0.00070815 -0.0075895 -0.0040137 -0.0072127 0.0013337 0.007618 -0.0002035 0.0059206 -0.0011856 8.3725e-05 -0.0073647 0.00032356 0.0015775 0.0031284 0.0067371 0.0014904 0.0059585 -0.0068068 0.0054119 -0.0036655 0.0045329 -0.0098411 0.0042633 0.0034138 0.008694 -0.0025431 -0.010737 0.00038803 0.00056932 -0.00014292 -0.0030224 -0.00072063 0.0014236 0.0037662 0.0055886 0.007276 0.0087236 0.0050093 0.0014158 -0.00086603 0.0012916 -0.0076745 0.0083122 -0.0075047 0.00091798 0.0033717 -0.0077607 0.0087751 0.0043803 0.002316 -0.0033148 0.0072703 -0.009806 0.0055012 0.0029654 0.0082343 0.0089707 0.0080697 -0.0041006 -0.0043917 0.0044822 -0.0071085 0.0024857 -0.005556 0.00097011 0.0089922 0.0046187 -0.0063756 0.0029048 -0.0015732 -0.001799 0.0078422 -0.0090541 0.0064682 0.0042715 -0.0056047 0.0053112 0.0060375 0.0050933 0.0088607 0.0015017 0.0012938 -0.009345 -0.0019762 0.0092233 0.00066577 0.0090169 0.005282 -0.0012476 -0.0088197 -0.0016996 -0.0097704 -0.0064649 
한가요? 0.0015994 -0.0063809 -0.0072636 -0.0059122 0.0096595 0.00066565 -0.0089614 -0.0036644 0.0042168 -0.0025704 -0.0023858 0.0088404 0.010115 0.0085013 0.0030109 -0.0015167 -0.00097571 -0.0030462 0.0076125 -0.0051636 0.0085628 0.00023401 0.0051432 0.00145 -0.0031292 -0.0078545 0.0066834 0.0079407 0.0077264 -0.0038024 0.0010856 0.0030245 0.0064797 0.0012943 -0.0098245 0.0036465 0.0085353 -0.0069196 -0.0067756 -0.0021712 0.006287 -0.0047469 0.0095466 -0.0071433 0.0077329 -0.007819 -0.0005009 0.0082564 0.0013495 0.0018153 0.0037879 -0.0090961 -0.001535 -0.0050428 -0.0034332 -0.0057512 -0.0078027 -0.0034798 -0.0072322 -0.0043355 0.0027974 0.0068359 0.0058737 -0.00027741 -0.0081692 0.0072245 -0.0095557 1.8229e-05 0.0048384 -0.0049605 0.0038094 0.0067269 0.0057884 -0.0051062 -0.0016948 -0.0083472 0.0037367 0.0097685 0.0011139 0.0070629 0.0009496 0.0020296 0.0035471 -0.004948 0.0053379 0.00043665 0.00067692 -0.0024543 -0.0054305 0.0010842 0.0021385 -0.0086026 -0.00075062 -0.0092024 -0.0034658 -0.0072464 0.0052497 -0.0085437 -0.00062701 -0.0078637 
주문이요! 0.0031542 -0.0027906 0.0050777 0.0063583 -0.0041516 0.0063166 0.0036952 -0.0062295 0.0088717 0.0035964 0.0020666 0.0048092 -0.0081684 0.005942 -0.0030925 0.0056237 0.0053024 0.0086883 -0.0097298 -0.0039867 -0.0029759 -0.0034406 -0.0041 0.00067092 0.0053599 0.0029116 0.0085038 0.0044656 0.0066025 0.0024207 0.0052943 0.0003636 -0.0033363 -0.0060565 0.0067519 0.0072763 -0.0084457 -0.0094043 0.0045426 -0.0041571 0.0089991 0.0027104 -0.00047221 0.0052919 0.0065449 -0.0054852 -0.0088286 0.00083347 0.0031371 -0.0026501 -0.0019288 0.0082634 -0.009611 0.0044603 -0.0098403 -0.0025877 -0.0073845 0.0044381 -0.0093902 0.0046933 -0.0094502 -0.004188 0.0038429 0.010823 -0.0023779 -0.0053692 -0.0060224 0.0010257 0.0050726 -0.0022809 -0.0099063 0.0064529 0.0044928 -0.0012331 -0.0053202 -0.007966 0.0090688 -0.0080808 -0.0062628 -0.0021288 0.0049749 0.0048936 -0.0068442 0.006349 -0.002304 0.0062984 0.0073745 -0.0079166 -0.0034014 0.0053601 -0.0058344 0.0056835 0.0062639 -0.007282 -0.0020493 0.00060375 -0.0020914 -0.0012208 0.0089531 -0.0036906 
주문하겠습니다. 0.0016427 -0.0076826 0.0019933 0.0070318 0.0074644 -0.0091901 0.0026849 -0.0039099 0.0026577 0.0046271 -0.0046998 0.0088897 -0.0091528 -0.002912 -0.0053386 -0.0032379 -0.0003345 0.0085542 -0.0052005 0.0091627 -0.0066753 0.007107 0.0016771 -0.0069421 0.0021385 0.0044244 0.0077978 -0.010244 0.0057257 0.0058903 -0.0050174 0.0076729 -0.0088124 -0.0080002 0.0078197 -0.0049092 0.00017416 0.004638 -0.0058563 -0.0096494 -0.0063028 0.0073957 -0.004473 0.00021545 -0.0013952 -0.0010469 0.009701 -0.005887 0.007761 0.0037024 -0.0088732 0.0075815 -0.0040725 -0.0012444 -0.0063024 -0.0065517 6.6492e-05 -0.0025936 0.0031395 0.0045901 -0.0074854 0.0033501 -0.0083933 0.0076373 0.0086732 -0.00661 -0.0015591 0.00092736 -0.0016425 0.0036879 -0.0089038 -0.0023788 0.0042057 -0.0099967 -0.0092523 0.0088738 0.0094053 0.0089849 -0.0033499 0.0081814 0.0048063 -0.0075435 -0.00037739 0.0073479 -0.00241 -0.0055363 0.0055227 0.0019431 -0.0037072 -0.0089576 0.0091463 0.0039882 -0.0039265 0.0030492 -0.0080436 -0.010183 -0.0027128 0.0019133 0.00078135 -0.0015572 
주문부탁드립니다. 0.0024982 0.0073441 -0.0043222 -0.0092992 0.0048774 0.0067415 -0.0060922 -0.0075237 -0.0030653 0.0078736 0.0052926 -0.0088498 0.0022475 0.0034047 0.0057373 0.0094326 -0.0027964 0.0008844 -0.0074725 -0.0078312 0.0087192 -0.0080214 -0.0085807 0.00887 0.0003752 0.0027516 -0.005001 0.0087318 -0.0096159 -0.0046186 0.0034134 0.0077767 0.0085052 -0.0075728 -0.0080935 -0.0058329 -0.0096353 -0.0058827 0.00097075 0.0089278 0.00028394 0.0063614 0.0099422 0.0069524 -0.0039368 -0.0080927 0.0031658 0.0096095 0.000657 0.0085658 -0.0052674 0.010569 -0.00026112 -0.0030354 0.0053101 0.0072927 -0.0029397 -0.0066324 0.0078601 -0.003474 0.0037698 -0.0054551 -0.0056762 0.0052739 0.0058307 -0.0060575 0.0079342 0.0017677 -0.0058489 0.0072414 0.0063423 0.0085912 -0.0099175 -0.0070741 0.007786 -0.0038648 -0.002196 -0.0076579 0.0027049 0.0019475 -4.1083e-05 0.010402 0.0043832 0.002247 -0.0023253 -0.0081585 0.0043932 -0.0092698 0.00086325 -0.0099505 -0.0085317 0.0060993 0.0063378 -0.0045784 -0.0014953 0.0048358 -0.004212 -0.0017911 0.0050241 0.0021637 
할 0.0037276 0.0024179 -0.00407 0.001139 0.0041439 0.0068157 -0.0062057 -0.0040873 0.0088862 0.0056059 0.0064435 0.0059032 -0.0049366 0.0047725 0.0035796 -0.0062806 0.0018161 0.0036626 -0.006148 -0.0027044 -0.0010606 0.0061373 0.010025 0.0060504 0.00087035 0.0023928 0.0066165 -0.0011846 -0.002681 0.0052555 0.0095616 -0.0016977 0.00060162 -0.0081719 -0.01017 -0.0067497 -0.00099408 -0.004068 0.0090456 -0.00093831 -0.0070613 0.0094224 0.0059579 0.0071976 0.0042954 0.0085227 -0.00048185 0.0055499 0.0067186 -0.00062738 0.0054585 0.0028574 0.00097663 -0.0061831 -0.00070781 -0.0011521 0.0093581 -0.0025991 -0.0013621 0.001117 0.0035655 -0.009357 0.0095878 0.0025985 0.0021883 0.0043328 0.0082427 0.0018063 0.0052962 -0.0037519 -0.0044853 0.0043078 0.0089724 0.0060706 0.0059668 -0.00039824 0.0026699 -0.0022523 0.0080834 0.00548 -0.0060023 0.0014944 0.0019272 0.0081161 0.0020128 0.0056823 -0.0094031 -0.0088513 0.0064694 0.0052592 0.0083364 0.0072714 0.0095166 0.0093331 0.0035414 -0.010267 -0.00098006 0.0060634 0.0056638 -0.0028585 
수 0.0070794 -0.0072389 0.0006774 0.0018248 -0.00082379 -0.0088171 -0.0077104 0.0056127 0.005661 -0.0083858 -0.0024829 0.0026475 -0.0061265 0.00015433 -0.0098402 0.0095603 0.0075075 0.00058961 -0.0010414 -0.009573 0.0045539 -7.3904e-05 -0.0089034 -0.0045396 -0.0055666 0.0070683 0.0026377 -0.007941 -0.0020282 0.0049693 -0.0046462 -0.0036008 0.00076821 -0.0040924 -0.00010673 -0.0034827 0.0066701 0.00076409 0.002272 -0.0066404 0.0076097 0.0024269 -0.0027484 0.0040154 0.0033953 -0.0069722 0.0055885 -0.005251 -0.0056692 -0.0040153 -0.0083079 0.0031818 -0.0055055 -0.0037129 0.007824 -0.006876 0.0043044 0.0020267 -0.0018737 -0.0010436 -0.0094817 -0.0060425 0.0083298 0.0095607 -0.0034632 0.0075319 0.0049567 0.0094915 -0.002128 0.0074793 -0.0071266 0.0062066 0.0012604 0.00062627 0.00062151 -0.0090609 -0.001952 0.0082045 0.0073721 0.0082549 0.0095276 -0.0021673 -0.0015774 -0.009899 0.0038107 -0.00090399 0.00126 -0.002062 0.0067828 -0.0085108 0.0092117 -0.0062294 0.0073009 0.0029239 0.00037589 -0.0039877 -0.002598 -0.001752 -0.0051481 0.0054253 
있을까요? 0.0063349 0.0083027 -0.0072261 -0.00822 0.0020992 -0.0076642 -0.003488 0.0081421 -0.00061249 0.0043223 -0.0062238 -0.0023533 0.0042999 0.0088005 0.0066063 0.006281 -0.0053449 -0.0030955 0.0029146 -0.0042519 0.0023709 0.0020534 -4.369e-05 0.0026881 -0.0029482 -0.0030561 0.007651 -0.0099261 0.0015682 -0.0082965 -0.0039976 -0.0079361 0.0057731 -0.0053852 -0.0040565 -0.0051682 0.0020859 -0.0082099 -0.008138 0.0043191 0.0057738 -0.00011037 0.0010705 -0.0031538 0.0016731 -0.0093859 -0.0074784 0.0087393 -0.0018934 -0.0042924 -0.0091637 0.0094531 -0.0087377 0.0058398 -0.0079395 -0.0016517 -0.0054486 0.0091074 0.0083105 0.0091085 0.0084168 -9.8662e-05 0.0088028 0.0090306 -0.00069009 0.0028732 0.0059594 -0.0036475 -0.0074836 0.0032379 -0.0048417 -0.00083016 0.0037781 -0.0013216 -0.00031362 0.0018985 0.0071723 0.0011381 0.0011756 -0.0027096 0.005053 -0.0092248 0.0054331 0.0002275 0.0084274 0.0092632 0.00027814 0.0064032 0.0052066 -0.00024072 0.0017576 0.0079623 0.0096831 -0.0093296 -0.0074446 -0.0029303 -0.0057967 0.0036424 -0.0033711 0.0037346 
ㅈㅁ 0.0034217 -0.0033798 0.0071581 0.0059157 0.009538 0.0090394 0.0013574 -0.0010927 0.00055091 0.0054707 -0.0079936 -0.0094985 0.0032862 0.0043123 0.0014032 0.00066946 -0.0046984 -0.0055809 -0.0089061 -0.010864 0.0055051 0.0045851 0.0092677 0.0039081 -0.0052625 -0.0081421 -0.0033704 0.0058022 0.00207 0.0034964 0.002968 -0.00066777 0.0048157 0.0054555 -0.0048244 -0.00062744 -0.0087504 0.0066951 -0.002858 -0.0094314 -0.0010996 0.0057598 -0.0072024 0.0089928 0.0054181 0.0094627 6.4306e-05 -0.0089776 -0.00049114 -0.0077374 -0.0059116 0.00572 0.0013999 0.00089957 -0.0054392 0.0049573 0.0067251 -0.0025872 0.0059748 -0.0079194 -0.0096454 0.00174 -0.0078584 0.0025563 0.004187 -0.0030451 0.0032033 0.0080742 0.0032697 0.0098095 -0.0085681 -0.0015393 -0.0047966 -0.0065519 -0.0054845 -0.0023635 0.0076849 0.0072147 0.0061527 -0.0018429 0.0080398 0.0028957 0.0016642 -0.00033553 -0.0090883 0.0050133 -0.008048 -0.0012508 0.0052918 -0.0095317 0.0068432 -0.00074052 0.0078325 -0.0091047 -0.0043825 -0.00052567 -0.0055381 0.0089719 0.0020246 0.0058189 
얼마예요? 0.0025547 -0.0098702 0.005379 0.010307 -0.0090101 0.0020283 0.0054394 0.003891 0.0085311 -0.0035472 -0.0039902 0.0013052 0.004152 0.005228 0.0039025 0.0066337 0.002817 -0.0053317 0.0074656 -0.0033423 -0.0099124 -0.0031041 0.0058236 0.0017497 0.0038579 -0.0039203 -0.0030267 0.0033304 -0.0039172 -0.0076765 -0.00098536 -0.0031868 -0.0037115 0.0042378 -0.0073183 -0.0050813 0.0092475 0.0061975 0.0069463 0.0099629 -0.0086224 0.0004961 0.00017687 0.0078353 0.0055379 0.0062872 -0.0047294 0.0013104 0.0047749 0.0075207 0.0057501 -0.007581 -0.0082422 0.0002528 -0.0052311 -0.0033888 0.0081156 -0.0028579 -0.0051577 0.0060525 -0.0085661 0.0010743 -0.0053909 0.0041672 -0.008245 -0.0034438 0.0045952 0.0020829 -0.002815 -0.0072573 -0.0088103 0.008577 0.00701 0.0099763 -0.0062873 0.0080749 0.004893 -0.0019052 -0.00070391 -0.0073774 0.0071817 0.0071569 -0.0052765 -0.0067679 0.004548 0.0024223 -0.0028975 0.0090175 -0.0010555 -0.008897 0.0042346 0.0082537 0.0036743 0.0031105 -0.0087302 -0.0045352 -0.0029573 -0.010948 -0.006578 -0.0038603 
얼마? 0.0034037 0.0069497 -0.0028607 -0.0074352 0.00078684 0.0051704 -0.010023 0.002764 -0.0076571 -0.006725 -0.0012707 0.0086451 -0.0021328 0.0070622 -0.0037085 0.0057532 0.0050153 0.0011266 0.010117 -0.0046814 0.0085912 -0.0096714 0.0087964 0.00023886 -0.00058386 -0.0039916 0.0053518 -0.0030191 -0.0072141 0.00039912 0.010199 0.0076427 0.0016941 0.0096762 0.0017868 -0.0093986 -0.0043747 -0.0020242 -0.0087055 0.0051281 0.0045377 0.0077118 -0.0033425 -0.0009145 0.0028445 -0.0078078 0.0046292 0.0033847 0.0011586 -0.0094902 -0.00046938 0.0054753 0.0047447 -0.0063979 -0.0052233 -0.0034587 -0.002375 -0.0078327 -0.0012167 -0.0010421 -0.0052822 -0.0012141 0.0030354 -7.4357e-05 -0.0087208 -0.0099689 0.0067573 -0.00024157 0.005646 0.0027188 -0.0086631 -0.0010964 7.3746e-05 0.0011732 -0.0043532 0.0053536 -0.010691 0.00125 0.00053137 0.0033415 0.00068363 -0.0054209 0.00098644 -0.006653 0.0036813 0.0097511 0.00032877 0.00026095 -0.0037697 -0.0066571 0.0065426 -0.0055556 -0.0082881 -0.0041338 0.0091993 -0.0088875 0.0011538 -1.1776e-05 0.0088614 -0.0056082 
가격은? -0.00256 0.0056664 0.0083557 0.0075017 -0.0097104 0.0063056 -8.3466e-05 0.003172 0.0073489 0.0029671 0.00010881 -0.0035611 -0.00034493 0.000858 -0.0068143 0.0089754 0.0067081 0.0067393 -0.0065978 0.0074663 -0.0014478 0.0085731 -0.010263 -0.0012993 0.00085623 0.004737 0.0057632 0.0087219 -0.0079674 -0.0048647 0.0070114 -0.00075333 0.010544 0.0034299 0.0056597 0.0071869 0.0073277 0.0091398 -0.0062097 0.0056231 -0.0092344 -0.00037943 -0.01021 0.0016573 0.0059656 -0.00017446 0.0096179 -0.0041557 -0.0052311 -0.0090743 0.010485 0.0083032 0.0052942 0.0081596 -0.0021457 -0.0088552 -0.0044695 0.0080269 0.0072224 0.0019119 -0.0026884 -0.00076112 -0.0072187 0.0044118 0.0044557 -0.0094603 0.010959 0.00070896 0.0064391 0.0015656 0.004696 -0.0035429 -0.0076245 -0.0074509 0.0015388 -0.0034446 -0.0013267 -0.01038 -0.0028753 -0.00094555 -0.0024312 0.0031825 -0.0038657 0.0026005 -0.0095372 0.00069064 0.009933 -0.0029879 0.00032733 -0.0074181 -0.0051892 -0.0094425 -0.0029451 -0.0069509 0.0050745 0.0045523 0.00040635 -0.00065859 0.0057967 -0.0090389 
가격 -0.0050294 0.0044171 -0.0020226 0.0089368 -0.0029859 0.0087438 -0.0058546 -0.0052519 0.0034362 -0.0082617 -0.00096577 -0.0062717 0.0028553 0.0091547 -0.0078483 0.0083452 0.00755 -0.0084585 -0.0078084 0.0047251 -0.0017712 0.0020432 -0.0068086 0.0010579 -0.009135 -0.0045933 -0.009774 0.0038017 0.0022968 -0.0049315 0.005981 -0.0096489 0.0078445 0.0069964 0.0083969 -0.00916 0.0079809 0.0075492 -0.005318 0.0030023 -0.0085917 -0.0089807 -0.0027056 0.0045481 0.002504 0.0081485 0.0060926 0.0032237 0.0084217 -0.010517 0.010091 0.0043983 -0.0026306 -0.0042958 -0.0072057 -0.0052134 -0.0040048 0.004175 -0.0023156 0.007093 0.0082984 0.008356 -0.0047898 -0.004892 -0.0042457 -0.0028716 -0.006286 -0.0022784 -0.0072873 -0.010292 0.0047639 0.0044506 -0.0023764 0.0017502 0.00082476 -0.00083541 -0.0022555 -0.010205 -0.0046422 0.0063333 0.00023444 -0.0058562 -0.0061066 0.0081241 0.0065393 0.0096868 0.00095274 0.0073336 -0.0053799 0.008999 -0.003466 -0.0045667 0.0076816 -0.0020582 0.0032941 0.0067499 0.0097633 0.0048095 0.0061861 0.0078422 
알려주세요 0.0058457 0.0019431 -0.0091275 0.002532 0.0039347 0.0013366 -0.0047537 -0.0052646 0.0016974 0.0064842 -0.0073816 0.0024203 -0.0019024 0.00072506 0.002425 0.0083886 -0.0035887 0.0049325 0.0045192 0.0016718 0.0034164 0.00056118 0.00027755 -0.0034633 0.0068874 -0.00069851 0.0057477 -0.0029389 -0.0063954 0.0088212 -0.0014465 -0.00057212 0.0040812 0.0083419 -0.0028481 0.0050946 0.0021569 0.0003239 -0.0027238 0.0030982 -0.0025351 -0.0077043 0.0028076 -0.0064856 -0.0042424 -0.009458 -0.0062001 -0.0030736 -0.0064568 -5.0789e-05 0.0088961 -0.005166 0.0066781 -0.0088406 0.0044443 0.0080266 0.0099304 -0.0040559 0.0082818 -0.00363 0.0042342 -0.0035751 -0.0039005 0.0074593 -0.0041716 0.0023463 0.0074961 -0.0028956 0.0091015 0.0091552 -0.0060758 0.0053218 -0.00275 0.0044737 -0.0077171 -0.0093872 -0.0064168 0.0053718 -0.00014574 0.0042433 -0.0032932 -0.0029159 -0.0085798 -0.0060167 -0.0018849 0.0076799 0.0033006 0.0048159 -0.0044295 0.0043961 0.0093 0.00069657 -0.00098736 -0.0026862 0.0060953 -0.009005 -0.0036709 -0.0092477 0.0007745 0.005495 
얼마나 0.0047524 -0.0059376 0.0035384 0.0081208 -0.0080934 -0.0091928 -0.0080192 -0.0022491 0.00754 -0.0075274 -0.0050089 0.0089051 -0.0082811 -0.0093346 -0.0081388 0.0092125 0.002803 -0.0078967 -0.007811 0.0080057 0.001684 0.0005188 -0.001271 -0.0026284 0.003173 0.0026093 0.0031305 -0.0092433 -0.0068445 -0.00085666 0.009076 -0.0039301 -0.0074462 -0.0048947 -0.0086439 -0.0043668 -0.0080858 -0.0087078 0.0033421 0.0022836 -0.0074826 0.0034706 0.0027438 -0.0017218 -0.0097539 0.0067894 -0.0044842 -0.0079437 -0.0043944 -0.007186 -0.0033412 -0.0043017 0.0097856 0.0078177 0.0033562 0.0084331 -0.0065065 -0.00056659 0.00024865 0.0012483 0.0073592 -0.010244 -0.00068545 0.0013543 -0.0098496 -0.0097712 0.0091018 0.0031668 0.0024266 -0.0047363 -0.0076631 0.0039572 0.00027362 0.0078081 0.0034419 0.0028962 -0.00054555 0.0041074 -0.0030784 -0.00011847 -0.0036979 -0.0080313 -0.0017332 0.0004703 -0.0057074 0.0062328 -0.0040383 -0.001837 -0.0068908 -0.0085256 -0.0096426 -0.0076768 -0.0098513 0.004674 0.00070006 -0.008545 -0.0053002 -0.0011834 -0.0066865 -0.00060993 
냅니까? 0.0013266 -0.0016817 0.0023805 0.0095906 0.0023559 0.0040518 -0.00096059 -0.0059885 -0.00043738 0.0013818 0.0038485 0.00099729 -0.0034296 -0.0044619 0.0015628 -0.0067261 -0.0050382 0.0091973 0.0024174 -0.0028753 -0.0024946 -0.0049006 -0.0070867 0.0093303 -0.0074623 -0.0050733 -0.0061552 -0.0092156 -0.0011447 -0.0080417 -0.008587 0.00078523 0.0080594 0.0074987 -0.0043879 0.00091201 0.00063445 -0.00078961 -0.00035458 0.0070381 -0.0023725 0.0057257 -0.0046213 0.0058341 -0.0099098 -0.0014784 0.00098745 0.0055155 0.010778 0.0081653 -0.0080259 0.0022553 0.0019408 0.0059112 0.0065756 -0.0078101 0.00055204 -0.0083214 0.0059132 -0.00077116 0.0068031 -0.0055442 0.0078636 -0.0020834 0.0075981 -0.0029891 -0.00011612 0.0080718 -0.0056697 0.0009245 -0.0087044 -0.0099156 0.0083 -7.9298e-05 0.0013908 0.0034339 0.0073818 -0.010374 0.0093091 0.003291 -0.001267 0.0013901 0.0073765 0.0024716 0.0033308 0.00043991 0.0082406 0.0060568 -0.0047608 -0.0021461 0.0034065 -0.0096633 0.0077073 0.0090673 -0.00069899 -0.0077885 0.00098195 0.00038981 -0.003698 0.0072475 
